-0.0105428
0.0111545
-0.00157803
0.00234256
-0.00189788
-0.00383756
-0.0109464
-0.00328293
-0.00414245
-0.00866699
-0.0017557
-0.00634691
-0.00515706
-0.00789295
-0.000620504
0.0025003
-0.00308029
0.0185081
0.0101127
0.00648632
0.00203796
0.00316692
-0.00541219
0.00554237
0.0114235
0.00907953
0.0124462
0.00504797
0.00881994
0.00670566
0.0110913
0.00924731
-0.000715883
0.0149778
0.00573188
0.000509339
-0.00102478
0.00432501
-0.00412782
0.0042299
0.0155144
0.0103215
0.0112378
0.0071819
0.00990605
0.00157578
0.00183322
0.00587942
-0.0036259
0.0109702
-0.000783041
0.000689735
0.00451737
-0.000618172
-0.00371491
0.00416253
0.0107978
0.00558396
0.00559204
0.00370721
0.0048395
0.00291468
0.000931713
0.000280635
-0.00705289
0.00861343
-0.00704599
-0.00337958
-0.000688299
-0.00262348
-0.00471286
0.00512322
0.00167039
0.00447767
-0.00274668
-0.00487651
0.00317474
0.00609896
-0.000744566
0.00280668
-0.00595914
0.00351845
-0.00727102
-0.00494432
-0.00457333
-0.0116319
-0.0135027
-0.00601256
-0.0010608
0.00118902
-0.00387204
-0.00163429
-0.004931
-0.0010319
0.000290767
-0.000364049
-0.00926584
0.00190848
-0.00408217
-0.00951527
-0.0120583
-0.00948241
-0.0159617
-0.0120425
-0.00433483
-0.000533203
0.00153482
-0.00838133
-0.00542321
-0.00193589
-0.00271921
-0.00163966
-0.00662183
0.0102034
0.000486323
-0.00037951
-0.00242439
-0.00261047
-0.00782366
-0.00813374
-0.00356198
0.00239439
0.00544506
-0.00757534
0.000501892
-0.000756281
0.00322347
0.00145529
-0.00462382
0.012424
-0.00119826
0.00413716
0.010864
0.00524615
0.00101043
0.00318914
0.00283523
0.00801426
0.00751321
0.00341166
0.00882058
0.00568986
0.00708306
0.00514576
-0.00574916
0.0125919
-0.00430825
-0.00281617
0.00770001
0.00430931
-0.00237405
0.00289622
0.000350875
0.00637093
0.0114523
0.00207347
0.0121025
0.0115893
0.00446542
0.00768884
-0.0108702
0.0067165
-0.00652639
-0.000677706
0.002592
0.00127175
-0.00247648
-0.00228377
0.000283399
0.00195372
0.00486233
-0.00365248
0.0058849
0.00420625
0.000866059
0.00721246
-0.0132721
0.00216324
-0.00253755
-0.00215444
-0.00272653
0.00116569
-0.00420752
-0.00154111
-0.00339677
0.00290706
-2.17173e-05
-0.00167202
0.00899505
0.00288924
0.00323701
0.00643018
-0.011561
0.00518785
-0.00157052
0.000180562
-0.000692786
0.00020819
-0.000215581
0.000395061
-0.000182023
-0.00115688
-0.00420576
-0.00695858
0.00648173
0.00593126
0.00439045
0.00973574
-0.0112304
0.00214236
-0.0056685
-0.000245916
-0.00510534
-0.000891777
0.00218656
-0.00230163
0.0015523
-0.000222359
-0.00414304
-0.00532407
0.0011184
0.00387094
0.00775016
0.0103979
-0.0142438
0.00124315
-0.00131395
-0.00180513
-0.00108032
0.00427939
0.00406492
-0.000656492
0.00477488
-0.00170023
-0.00406453
-0.00195622
0.00298818
0.00556084
0.0029895
0.00739382
-0.0167889
-0.00265709
-0.000234457
0.000654672
-0.00209522
-0.00101143
-0.00420545
-0.00520663
0.000830048
-0.0014158
-0.00496203
-0.000711047
0.00230834
0.00776506
0.00425327
0.00576842
-0.0145813
-0.00362992
0.000732437
0.0025495
-0.00225403
-0.00438506
-0.00707974
-0.00638011
-0.00145301
-0.00228897
-0.00727721
-0.00263131
-0.00116155
0.00885653
0.00508966
0.00356068
-0.0145073
4.58464e-05
0.00163204
-0.00351598
-0.00602129
-0.00242928
-0.00305899
-0.00964542
-0.00167848
-0.00619027
-0.0130848
0.00275571
-0.00285256
0.00523606
-2.91986e-05
0.00167143
-0.0153667
0.0044402
0.000221226
-0.00391221
-0.00253552
0.00505107
-0.00343839
-0.0124446
-0.00239794
-0.00352254
-0.00982415
0.00264157
-0.00164498
0.00223658
-0.00097242
0.00125128
-0.0181624
-0.000949747
-0.00167391
-0.00290681
-0.00521944
0.00262902
-0.00762253
-0.011658
-0.00377818
-0.00408914
-0.00883912
0.00178229
2.89805e-05
-0.000252685
0.00289172
-0.00246188
-0.0192192
-0.00317998
-0.00705894
-0.00475362
-0.0119107
-0.0060636
-0.00721045
-0.0175102
-0.00389189
-0.00628771
-0.00873729
0.00305814
0.00672406
0.00326509
0.00427526
-0.00288474
-0.0198021
-0.00294874
-0.0105552
-0.00575016
-0.00325135
-0.0018902
-0.00353538
-0.00756843
-0.00264381
-0.00559451
-0.0059593
0.00462302
0.00710186
0.00597361
0.00510885
0.00358716
-0.0190322
0.000895645
-0.00804854
-0.00881379
-0.00388505
-0.00408417
0.000780476
-0.00585532
0.00255589
-0.00101804
-0.00341343
-0.00168864
0.00365702
0.00689533
0.00313054
0.00337816
-0.0187065
-0.00141909
-0.00709045
-0.011361
-0.00283655
-0.00343207
-0.00217576
-0.00777174
0.00146398
0.0029964
-0.00760824
-0.0106137
-0.00207504
0.00719397
0.00467693
-0.0026192
-0.0202577
-0.00538443
-0.0131027
-0.0116486
-0.00219324
0.000908686
-0.00368246
-0.00237327
-0.000463375
-0.00120546
-0.00418452
-0.00594574
-0.00309847
0.00531708
0.000322545
-0.00494343
-0.0203082
-0.00412609
-0.0080061
-0.0105609
-0.00177654
0.000973738
-0.0042833
-0.00405796
0.00200205
-0.00230353
-0.00393545
-0.00168036
-0.00161122
0.00664607
-0.00162154
-0.00373757
-0.0233149
-0.00243678
-0.00847072
-0.00780238
-0.00299283
-0.00185158
-0.00230224
-0.00295198
0.00085179
0.00152022
-0.00180946
-0.000595027
0.000272256
0.00628707
-0.0018723
-0.00428966
-0.0221044
-0.00438885
-0.00618832
-0.00185873
0.000745206
0.000242382
-0.000896782
-0.00317612
0.000119858
-0.00239706
0.00616019
0.00496524
-0.00297527
0.00437646
0.0036654
-0.0035161
-0.0203327
0.00240894
-0.00242436
-0.000783121
0.00026213
0.0037285
-0.000569003
-0.00620681
-0.00325753
0.00224506
0.00594737
0.00120884
-0.00153928
0.00553039
0.00623719
-0.00448866
-0.0215389
0.0018091
-0.0033831
-0.00486129
-0.00489587
0.00155403
-0.000270501
-0.00539693
-0.00452664
-4.87857e-07
0.00316714
0.0030017
0.000867105
0.00455757
0.0026256
-0.00939225
-0.0206286
0.00320318
0.0002354
-0.00390109
-0.00205525
-0.00403783
-0.00615141
-0.00498125
0.000922842
0.00362332
0.00117603
0.002384
0.000680417
0.00421983
0.0061311
-0.00422948
-0.030171
-0.00775391
-0.0079837
-0.00857492
-0.00974095
-0.00821138
-0.0116813
-0.0106126
-0.0046791
-0.002418
-0.00634663
-0.00289569
-0.00394836
0.00328743
0.00397965
-0.0064594
-0.00102904
0.00354801
0.0059521
0.00969863
-0.000321187
-0.00202673
-0.00838368
-0.00575779
-0.00846808
-0.0155016
-0.00252455
-0.00237441
-0.00682787
-0.00698037
-0.00433034
-0.00642978
-0.000547916
0.00560217
0.00664143
0.00598729
-0.00320008
0.00127722
-0.0041377
0.00139889
-0.00610658
0.00131847
0.00828095
0.00499608
0.00286512
-0.000529266
-0.00595496
-0.00375887
0.00357653
0.00865073
0.00409945
0.0021959
0.000465469
0.00562937
0.00306731
-0.0011145
0.0124152
0.0180723
0.0193824
0.013154
0.00552225
-0.00669852
-0.0151602
-0.00510046
0.00394708
0.00727255
-0.00326059
0.00122296
0.00393338
-0.000193827
0.000439765
0.0105914
0.014179
0.0192618
0.0190319
0.0119649
0.00334232
-0.00269788
-0.0102903
-0.00841082
-0.000365845
0.0111072
-0.0022497
-0.000488915
0.00059321
0.00122102
-9.60013e-05
0.0092842
0.00546421
0.00851938
0.00811623
0.00142908
0.000546115
-0.0012678
-0.00411769
-0.00549256
-0.00444825
0.00159859
-0.00287726
-0.000350797
0.00126745
-0.00379724
-0.010767
-0.00673452
0.00148737
0.0060989
0.00388238
-0.00285214
-0.00788778
-0.00349166
-0.00841757
-0.0112307
-0.000591338
0.00235188
0.00632603
-0.00159966
-0.00273412
-0.00697846
-0.00682867
-0.0121926
-0.00432737
0.00484577
0.00121277
-0.00747985
-0.00380658
-0.00680596
-0.0126526
-0.00278472
-0.00443485
0.012208
0.00788813
0.0025576
0.000746678
-0.000340109
-0.000159888
-0.00484007
-0.0048644
-0.00050826
-0.000832795
-0.00811872
-0.00464782
-0.00402057
-0.0112824
-0.00438565
-0.00221976
0.00767306
-0.0021387
0.00150865
0.00476049
0.00438316
-0.00144417
0.000757378
-0.00336076
0.00522316
0.0013564
-0.00869548
0.00129729
0.00164565
-0.00183753
0.00202704
0.00419746
0.00827397
-0.00384016
-0.00319253
-0.00220717
8.60933e-05
-0.000654791
-0.00106531
0.00176429
0.0050232
0.00435721
-0.00628586
0.00217014
0.00505407
-0.000444741
0.00412265
0.00565538
0.00471043
-0.000405781
0.00466886
-0.00086636
-0.000332884
0.0012908
0.00089614
-0.00483889
-0.00155691
-0.00287558
-0.00952197
-0.00292059
-0.00565021
-0.0115147
0.00685652
-0.0066275
0.00209414
0.00303574
0.00197445
0.00309479
0.00864671
0.00235323
-0.00057676
-0.00453084
0.00148091
-0.00177779
0.00133608
0.00397009
-0.00304035
-0.000441271
0.00677443
-0.00781713
0.00422559
-0.00100915
0.00622068
0.00687911
0.00294501
0.00263764
-0.00425625
-0.00251649
0.00527199
-0.0019707
-0.00269964
0.00541162
0.00273694
0.00635633
0.00726008
-0.00303497
-0.00341222
-0.00879895
0.00763251
0.00347434
-0.00251633
0.00307857
-0.00315042
-0.00193879
0.00592128
-0.00341352
-0.00464563
0.00350458
0.001729
0.00101812
0.00779693
-0.00460811
-0.00290838
0.00101996
0.00786307
0.00251087
0.00727904
0.00727616
0.000881011
0.00429499
0.00227906
-0.00288796
-0.00456912
0.0073277
0.0036819
-0.00194776
0.00191362
-0.0103229
-0.00236807
0.0134593
0.0118696
0.000299059
-0.00220943
0.00247305
-0.00112441
-0.000890032
0.000455018
-0.00432769
-0.00343079
0.00698287
0.00778934
0.0056803
0.00591297
-0.00382692
0.00344116
0.0123958
0.0133125
0.00874782
0.00393014
0.00453667
-0.00158105
-0.00293841
-0.00442672
-0.00613265
-0.0034457
0.00433547
0.00710992
0.00295681
0.00606214
-0.00487739
0.00151703
0.00974771
0.0099368
0.00129682
0.000315697
0.00703017
-0.00777355
-0.00843009
-0.00920966
-0.00859084
0.00332898
0.0046686
0.0103729
-0.00179853
-0.00167
-0.0113822
0.00303653
0.0030385
0.00248108
0.000459834
0.00634953
0.000476117
-0.00711653
-0.000348043
-0.00562543
0.00011843
0.00593426
0.00725277
0.0101874
-0.00186861
0.00526758
-0.0101292
-0.00490756
0.00217035
0.00711829
0.00289668
0.0106608
0.00195217
-0.00591423
-0.00423305
0.00252485
0.00659265
0.00746864
0.00405482
0.00259264
0.00498768
-0.00432226
-0.0104738
-0.00548356
0.00921376
0.00194568
-0.00364214
0.00916969
0.0110472
-0.000270578
-0.000880545
0.00806246
0.000729358
0.00478537
0.00587003
0.00186339
0.000830958
0.000805672
-0.00526489
0.00584608
0.00467546
0.00300229
0.000233848
0.00813298
0.00804007
0.00312922
0.00290816
0.00658118
0.00610872
0.0101459
0.0137478
0.000744833
0.000457624
-0.000102924
-0.00403764
0.00557466
0.0014104
0.00385481
0.0060197
0.00494273
0.00906097
0.00479372
0.00588145
0.00102189
0.00381733
0.00078378
0.0108972
0.00824255
0.00546659
0.00731176
-0.00577506
-0.000928123
0.00585632
0.000825357
0.00634785
0.000303127
0.00218135
0.00380278
0.00774547
0.000144082
0.00391509
-0.0012415
0.0134998
0.0139481
0.00806655
0.00481469
-0.00816436
-0.00359577
0.000494366
-0.00320651
-0.00358698
-0.000905437
0.00450874
0.00210368
0.00724803
0.0103658
0.00619193
0.000882163
0.0138996
0.0178767
0.0137672
0.00369912
-0.00420135
0.0018982
0.000939237
-0.0020664
-0.00316126
0.0050777
0.00613245
0.00201979
0.00729753
0.0106066
0.00779324
0.00136307
0.0107113
0.0209169
0.00673059
0.00541651
-0.00669673
0.00340663
0.00244718
-0.00126098
-0.00120805
0.00606027
0.00832598
0.00522594
0.00778792
0.00893928
0.00865691
0.00835846
0.00878524
0.00732157
-0.00199279
0.00281501
-0.0119684
0.000916628
0.00350981
0.00565127
0.00260319
0.00768491
0.00748424
0.00621972
0.0111976
0.00798786
0.0111217
0.00957837
0.00958901
0.00500656
0.00777933
0.00255643
-0.0147414
-0.0044349
-0.00436042
0.00434333
-0.00253283
0.00971761
0.00789736
0.000106718
0.0128319
0.0138925
0.0170726
0.00536294
0.00510602
0.00639242
0.0073472
-0.00148188
-0.0114537
-0.0057558
-0.00869134
-0.0106361
-0.0097694
-0.00486915
-0.00263913
-0.00135535
0.00725269
0.00780472
0.00655212
0.00680172
0.00399306
0.0009889
-0.00175177
-0.00866578
-0.0185523
-0.00474584
-0.00385654
-0.00807252
-0.012907
-0.00959127
-0.0115122
0.000289252
0.00609459
-0.00225121
-0.00324365
0.00565085
0.00462889
0.00207953
0.000984251
-0.00732177
-0.0349541
-0.00901525
-0.00845983
-0.0175576
-0.02206
-0.0109967
-0.0105083
0.00033169
-0.00441937
-0.0110176
-0.00653818
-0.00339972
-0.00268752
-0.00340378
-0.00428375
-0.0143761
0.00296278
0.000778131
-0.00106824
-0.000974819
0.000748539
0.00182441
-0.00421611
-0.0054431
-0.0100486
-0.00787049
-0.000940237
-0.00719988
-0.0104491
-0.0202834
-0.0114515
-0.00447223
0.00515992
-0.00573224
-0.000700218
0.00230507
0.00154085
-0.00685591
-0.00371515
-0.00177273
-0.00822423
-0.00626052
0.00474936
0.00225527
-0.0033762
-0.0145857
-0.0125162
-0.00152792
-0.00295387
0.00220877
-0.00100033
0.00158182
0.00510347
-0.00174973
0.00312592
0.00170154
0.0100141
0.0113145
0.012324
0.00798126
-0.000746705
-0.0110161
-0.0106993
-0.0022901
0.00357761
0.00160303
-0.0109758
-0.0110292
0.00554527
-0.00041576
0.00529086
0.0188978
0.0170376
0.0221676
0.015665
0.0163993
0.00832588
-0.000349801
0.000689192
0.00395031
0.00203931
0.000141758
-0.00144561
-0.00304411
0.00389004
0.00815915
0.00584123
0.0111998
0.0125219
0.0167595
0.0108443
0.0116845
0.0044049
-0.00112554
-0.00297394
0.00066573
0.00193004
0.00504981
0.00882173
0.0111339
0.00509306
0.00271223
0.00274078
0.00446505
0.0115876
0.0113504
0.00174873
0.00367524
-0.00838088
-0.00675652
-0.00696825
0.00246112
0.00858141
0.00759558
0.013188
0.0128716
0.000445533
-0.00126801
0.00366322
-0.000964272
0.00115064
0.00783141
-0.00178474
-0.00593239
-0.00851006
-0.00382613
-0.0058171
0.00707714
0.00172025
0.00570322
0.00926192
0.0119095
0.00717986
0.00417207
0.00699211
-0.00167649
-0.00054366
0.0053115
-0.00139961
-0.00305509
-0.00202001
0.00454751
0.0057192
0.00740007
0.00929966
0.0109728
0.00605125
0.00324811
0.00487338
0.0104912
0.000632306
-0.00501189
0.00404483
0.0058007
-0.00041464
-0.00117989
-0.00346167
0.00253207
0.00696744
0.0125141
0.00935853
0.00894536
0.0110464
0.00500389
0.00391636
0.00869751
0.00655545
0.00196434
0.00192864
0.00750531
0.00771536
0.00488137
-0.000665834
0.00327649
0.00921018
0.0127162
0.0103779
0.00991367
0.0105566
0.00970394
0.00434251
0.00581629
0.00231402
0.000271751
-0.00177961
0.00481458
0.0039078
-0.00502925
0.00181978
0.0020457
0.00486651
0.00790888
0.0071867
0.00879327
0.0151481
0.00585155
0.0071775
0.00978726
-0.00427638
0.00410295
0.00207586
0.00637968
0.000780648
-0.0040301
0.00098072
0.00266713
0.00715897
0.0175137
0.00910728
0.0129754
0.0120481
0.00916717
0.0089791
-0.00249594
-0.0020181
-0.00100986
-0.00157404
0.0027946
-0.000198824
-0.00100544
0.00239457
0.00673405
0.00860293
0.0136504
0.014339
0.00336162
-0.00557169
0.000133673
0.00225719
-0.00639463
-0.00375428
-0.00492874
-0.00286631
-0.000114292
-0.00331299
0.000837787
0.00212595
0.0034597
0.00611079
0.00724485
0.00486902
-0.00251642
0.00133783
0.0076955
-0.00101332
0.00426904
0.00182798
0.000483201
0.00484844
-0.00175823
-0.00352291
0.00190345
0.00363072
0.00783731
0.00389925
0.00151323
-0.00610743
-0.00348421
0.00969158
0.0100725
-0.00141767
-0.00623392
-0.00712327
0.00156116
-0.00262219
0.000162879
0.000732574
0.00726411
0.00151326
0.00529158
0.00247387
0.000106441
0.00534494
0.00552365
0.00996935
0.000756057
-0.00596308
0.00225501
0.00707532
0.00396943
-0.0013325
-0.00164029
-0.00404254
0.00474895
0.00842587
0.00197274
0.00134332
0.00761854
-0.00144989
0.00129596
0.0126674
0.00598292
-0.00295853
0.00105712
0.00855368
-0.00718544
-0.00574325
-0.0040645
0.00139999
0.00980312
0.0132377
0.00699901
0.00153782
0.00370262
-0.00232886
-0.000216804
0.0137765
0.000435034
0.000642695
0.00691459
0.0028015
-0.00301587
0.00193491
0.00438949
0.00522467
0.00175634
0.00619135
0.00359685
0.00127854
0.00747023
0.00413291
0.00190733
0.00341293
-0.00175436
-0.00103152
0.0104734
0.00724975
0.00305835
-0.0013209
0.00535669
0.00309709
0.00113028
-0.00161631
0.00466169
0.00858674
0.00347597
0.00362143
0.0011762
0.00967576
-0.00123712
0.00280996
0.00973141
0.00812009
0.000324661
0.00830609
0.00711473
0.0028656
0.00400562
0.0043621
0.00415727
0.00402577
0.0100213
0.00960051
0.0105302
0.00700414
0.00254384
0.00819333
0.0103362
0.00660504
0.000662671
0.00626902
0.00355375
0.00830693
0.0134482
0.0122964
-0.00118229
0.000159954
0.00680213
0.0141671
0.0130366
0.00398348
0.00796374
0.0105978
0.00648941
0.0051325
0.00349994
0.00237153
-0.00273012
0.00303076
0.00674096
0.00756601
0.0055771
0.00687651
0.0131484
0.00488461
0.00399059
0.00966831
0.00372761
0.006448
0.0072338
0.00825879
0.00710043
0.00981322
-0.000491095
0.00227805
0.00274602
0.0090161
0.0114483
0.0125306
0.0194776
0.00471364
0.00104327
0.00428623
0.00335377
0.00810802
0.0110123
0.0123115
0.00734407
0.0137169
0.00840731
0.0028026
0.00131572
0.00999515
0.014727
0.0107316
0.0152374
0.00405863
0.00913614
0.00553076
0.00629489
0.00715263
0.0110523
0.00823075
0.00424255
0.0101609
0.00885063
0.00508304
-0.000596413
0.0101489
0.0164144
0.00795209
0.0177298
-0.000216862
0.00514605
0.00134239
0.00160409
0.00248229
0.00805426
0.00280695
0.00431241
0.00815957
0.00573725
-0.000587517
0.00653166
0.0117062
0.00726615
0.00759053
0.0168073
-0.00534315
0.00245268
0.00404387
0.00785575
0.00831242
0.008068
0.0040513
0.00287285
0.00824174
0.00924945
0.00690169
0.0123941
0.00882675
0.00498562
0.00270211
0.0126036
-0.00125211
0.00234501
0.00130926
0.00356068
-0.00342951
-0.000982436
0.00106748
-0.00283683
0.00985744
0.0102646
0.00762704
0.00744047
0.00510431
0.00531829
0.00628317
0.00359433
0.000386746
-0.00811637
-0.00543367
-0.00749531
-0.00747405
-0.00203154
-0.00326146
-0.00301197
0.00936296
0.0125651
0.000512147
0.00257399
0.00693706
-0.00466232
-0.00459132
-0.00281813
-0.0174426
-0.00976529
-0.00761314
-0.00548716
-0.00388935
-0.00449936
0.00113743
0.00241116
0.00224469
-0.00436142
-0.000923653
0.00236662
0.00556947
0.000440372
0.000149798
-0.00551815
-0.023714
-0.0084924
-0.00837082
-0.00711253
-0.0142702
-0.010018
0.000228713
-0.00197729
-0.00350517
-0.00707901
-0.00391435
-0.00592123
-0.0099875
-0.0101281
-0.00180832
-0.00853557
-0.000844677
-0.0051995
-0.00205636
-0.00629034
-0.00952275
-0.00963548
-0.00353866
-0.00367118
-0.00891893
-0.00894637
-0.00674447
-0.00441357
-0.00515954
-0.015885
-0.00375101
-0.00579611
0.000605663
-0.0155426
-0.00630573
-0.00110085
0.00194758
0.00105686
0.00249118
0.00200032
0.000592481
-0.00439185
0.00581823
0.00811745
0.00683899
-0.00980153
-0.00203936
0.00129119
-0.00302058
-0.00570957
-0.00487157
-0.00285553
0.00891654
0.00817799
0.0133548
0.00867912
0.0181106
0.0118056
0.0125439
0.00390099
0.00031446
-0.0146238
-0.0141944
-0.00381763
-0.00853355
-0.0115173
-0.0125669
-0.00650795
-0.00562731
0.00806983
0.0182058
0.0222572
0.0208717
0.0173951
0.019051
0.0164137
0.00164947
-0.0149799
-0.0139712
0.00457174
-0.00577052
-0.00329082
0.00504438
0.00622053
0.00999872
0.0178871
0.0217609
0.0203654
0.0163126
0.0145376
0.0181113
0.00840935
0.00302455
-0.00570221
-0.00331754
-0.00218688
-0.00042696
0.00080896
0.00325265
0.010489
0.00843034
0.00637365
0.0142488
0.0131668
0.0181699
0.015039
-0.000131818
0.00173693
-0.0059479
0.00142012
-0.00309855
0.000780852
0.00955685
0.015069
0.00303172
-0.000418408
0.00282334
-0.00209655
0.0097573
0.00916572
0.0109809
0.00481698
-0.00183434
-0.00153839
-0.00892168
-0.00316427
0.00107826
0.004718
0.00339913
-0.00685605
-0.0159959
-0.00863821
-0.00819082
0.00362887
0.00256468
-0.007482
0.0061974
0.00334429
0.00054035
0.0023974
-0.00507689
0.0015203
0.0105098
0.00325503
0.00188481
-0.00522797
-0.00262611
0.000519223
0.00145547
0.0105576
-0.00467492
-0.00389275
0.000101752
0.00406912
0.00196801
-0.00386649
-0.00427896
0.00110626
0.01144
0.0081313
0.00976717
0.000869062
0.0127763
0.00636259
0.00209683
0.00097057
0.00247998
0.00271498
-0.000232398
0.00295392
0.00953523
0.0078794
0.000112839
0.00792666
0.00720623
0.00754231
0.0100352
0.0044139
0.013099
0.0100796
0.00806064
0.00625467
0.003672
0.00201012
-0.00185104
0.00626395
0.00417182
-0.00317795
0.00802218
0.00844894
0.00564482
0.00695235
0.00157112
0.00662301
0.00740426
0.000638667
0.00665788
0.00674136
-0.00723886
0.00621876
0.0115963
0.00773138
0.00794601
0.000388039
0.00362615
0.0113072
0.00898805
0.0183655
0.00711209
0.00967417
0.00736332
0.00447231
0.00701995
-0.000855363
0.00563068
0.00501773
0.00781399
0.0094315
0.00373915
0.0019708
0.00227393
-0.00138206
0.00265174
0.0120355
0.0208069
0.00591737
0.00329267
0.00338874
0.0102869
-0.00168341
0.00172178
0.00372376
0.00583911
0.00623155
0.00412622
0.00200274
-0.0037333
-0.00570367
0.00216636
-0.000187181
0.00895806
-0.0021182
0.00658891
0.00237465
-0.000329974
-0.00080032
-0.0038858
0.00141204
0.00745974
0.0085002
0.0105935
0.00709308
-0.000954347
0.00401919
0.00615513
0.00537521
-0.00707757
-0.0128105
-0.00227304
0.00548423
0.00222944
-0.00222425
0.0026197
0.00355363
0.00152124
0.00684502
0.0058639
0.0109026
0.00548281
0.00354257
0.00660075
0.0125068
0.0103659
-0.00835253
-0.00193744
-0.00116763
0.000344808
0.0130686
0.0174707
0.010734
0.00809913
0.0108369
0.00498522
0.00952841
0.0168204
0.00890742
0.00568642
0.00883043
0.00692527
-0.00286506
-0.000413929
0.00192844
-0.00210591
0.00583438
0.00725474
0.00221124
0.00382603
0.00143719
0.007624
0.00612246
0.00769516
0.00527324
0.0074744
0.00910813
0.00457441
-0.00573128
0.00806406
0.0048537
0.00467334
0.0201266
0.0130891
0.0148248
0.0145205
0.0096746
0.00823589
-0.00302888
0.00169001
0.0100661
0.0117996
0.00831348
0.012474
-0.00153719
-0.00228212
-0.00362465
0.00104516
0.0128647
0.0142023
0.0159562
0.00741825
0.0120134
0.00788165
0.00372187
0.00355175
0.015416
0.0151989
0.0117987
0.0175637
0.0026639
-0.00376926
-0.00612854
0.00259585
0.00512725
0.00363269
0.00798747
0.0113339
0.00608992
0.00596998
0.00604232
0.00519535
0.00346469
0.00870746
0.0154522
0.0214932
0.00370732
-0.00452277
0.00251649
0.00680863
0.00249571
-0.00175705
0.00382589
0.0130666
0.000447427
0.00248226
0.00597693
0.00989711
0.00215874
0.00448638
0.0114453
0.0154526
0.00258793
1.11868e-05
-0.00628976
-0.000684581
0.001223
0.00837022
0.00174284
0.0136078
-0.000416819
0.00600268
0.00927837
0.00575156
0.00565484
0.00879615
0.0135459
0.0133888
0.00753635
0.00621764
0.000661035
0.00747692
0.0057082
0.00475865
0.00924682
0.0160394
0.0072241
0.0126791
0.013093
0.0123396
0.013796
0.0162748
0.0204134
0.0106279
0.00715969
0.00554283
0.00290533
0.00591636
0.011945
0.00826585
0.0142895
0.0195963
0.0159329
0.0148431
0.0134754
0.00600924
0.0133961
0.0117053
0.0164315
0.000758938
0.0022326
0.00277733
0.00767832
0.00547681
0.0103705
0.00789122
0.010414
0.00930369
0.00839936
0.00896783
0.0164486
0.0123249
0.00942387
0.00215228
0.0214642
0.00820624
0.00403998
-0.0020299
0.0098564
0.00321301
0.00442395
0.004624
0.00899887
0.00549146
-0.00158665
0.00427877
0.0174787
0.020217
0.0023561
0.000284349
0.0181187
-0.00121659
0.00435932
0.00201599
0.00736103
0.00957619
0.0133656
-0.00815622
-0.00432024
0.000825923
0.00877707
0.0123212
0.0129678
0.00830451
-0.00481279
-0.000798996
0.0129367
0.00816055
0.0112282
-0.00192193
-0.00083474
-0.00393505
0.00848764
-0.00381901
-0.00191447
0.00566214
0.0142691
0.00199282
0.00762102
-0.000961455
-0.00164056
-0.00228661
-0.00395973
0.00761114
0.00454202
-0.000674358
-0.00399989
-0.00670344
0.0020735
-0.00235537
0.00523256
0.014141
0.015471
0.0038718
0.00927209
0.0162309
0.00983305
0.00370226
-0.00428765
-0.00795439
0.000611005
-0.00864104
-0.0121109
-0.00619572
-0.00609928
-0.00270396
-0.00954308
-0.000494195
0.00494205
0.00752275
0.00558948
0.00844487
0.00487054
0.00391243
0.00306945
-0.0108875
-0.00555898
-0.0149692
-0.0165868
-0.0167241
-0.01169
-0.00660643
-0.0152262
-0.00203371
0.00215569
0.00503448
0.00266657
-0.00820406
-0.0122868
-0.00545443
0.00185298
0.0171309
0.0128982
-0.00406618
-0.00904917
-0.00850064
-0.0158565
-0.0249636
-0.0234477
-0.0214626
-0.00936051
-0.00969625
-0.0074152
0.00108949
0.0116807
0.0115953
0.0154734
0.0434847
0.0199647
0.0161822
0.0129
0.0121255
0.004126
-0.00585088
-0.0125499
-0.0074101
-0.00474114
-0.000736956
0.0173697
0.0261321
0.0290779
0.0280436
0.0333293
0.0348586
0.0175953
0.0153181
0.0109211
0.0116795
0.00689466
-0.00259688
0.00222933
0.00595354
0.000925469
0.00265765
0.00577183
0.0209893
0.0169044
0.0149733
0.0287383
0.0276025
0.0222142
0.0227121
0.0158942
0.00988838
0.00713158
0.00489364
0.013359
0.0109829
0.00505294
0.0124639
0.0270385
0.0237737
0.0145765
0.0151142
0.0279313
0.0312566
0.0237549
0.0197028
0.0188582
0.017033
0.00312311
-0.0116926
-0.00718707
-0.00296104
-0.002517
0.00176846
0.0125194
0.00945595
0.0109134
0.0119266
0.0249388
0.0154969
0.0145936
0.00538845
0.00818379
0.00350314
-0.00387731
-0.0124942
-0.0064133
-0.013517
-0.014466
-0.013025
-0.00278223
-0.000982519
0.00121982
0.00952292
0.0238081
0.0188469
0.0130228
0.00382306
-0.001145
-0.00292642
-0.0126351
-0.00828134
-0.00170415
-0.0061128
-0.0177114
-0.02476
-0.0244843
-0.017562
-0.010551
0.00167514
0.0144096
0.00906046
-0.0111484
-0.0235382
-0.0212063
-0.0162141
-0.0146748
-0.010535
-0.00898024
-0.00350768
-0.00921062
-0.0161238
4.77996e-05
-0.00384359
0.00544303
0.0149052
0.0223135
0.0170803
-6.84661e-05
-0.00192184
-0.00655413
-0.00804237
-0.00172271
-0.00673915
-0.00718767
-0.000357406
-0.00228445
-0.00790632
-0.00154158
-0.00539874
0.00536326
0.0165077
0.0265655
0.0172106
-0.00415605
0.00731748
0.0058237
0.00267228
0.00590875
0.00550793
0.00332461
0.00717812
0.00581023
0.00337818
0.00379243
-0.0044743
0.00807316
0.00652728
0.0130903
0.028443
0.0132945
0.0103573
0.00396509
0.0050087
0.00890391
0.0108287
-0.0016818
0.00911704
0.0115863
0.00294176
-0.00598016
0.00453609
0.00808593
0.00997564
0.0187006
0.00772085
0.00473638
0.00370109
-0.00131827
0.000163181
0.013548
0.00848088
0.00543945
0.00543735
0.0144565
0.0116103
0.0055143
0.0108863
0.00708774
0.00637642
0.017925
0.0172963
0.00932486
0.0173944
0.0042431
0.00432388
0.00876088
0.00738562
0.00632538
0.00163521
0.00978872
0.00473515
0.00913862
0.0102228
0.00377134
0.00623235
0.0242459
0.0377703
0.0196551
0.0134356
-0.00132388
0.00517475
0.006382
0.00295884
0.0057765
0.00576337
0.00698228
0.00624256
-0.00262739
-0.00453928
-0.00872748
-0.000713762
0.0160591
0.0178209
0.000309706
-0.000743811
-7.62543e-05
-0.00436682
0.000128745
-0.00520034
0.000141159
0.00754756
0.0068565
0.00346599
0.00339421
0.00111511
0.00439577
0.00814073
0.0225945
0.0113723
0.00196482
-0.00538198
-0.00485762
-0.0131941
-0.00803935
0.00171138
0.0096759
0.0010755
0.00666996
0.00622017
0.00636857
0.0049955
0.00317548
0.0149665
0.0294812
0.0153559
-0.0103417
-0.0122349
-0.00802384
-0.00664487
0.00279474
0.00784081
0.00974154
0.0078524
0.0120082
0.00825841
-0.000334263
0.00839703
0.00954255
0.0116018
0.0206022
0.0241653
0.000406978
0.00112925
-0.00232495
-0.003027
0.00213706
0.00527506
0.00530501
0.00363296
0.0118504
0.00497335
1.3327e-05
-1.64872e-05
0.0106578
0.0209837
0.0200269
0.0181961
0.000227839
0.00705537
-0.00202021
-0.000875707
0.00543924
0.00645138
0.00920522
0.00584378
0.0100861
0.00975678
0.00462138
0.00994615
0.00978462
0.01448
0.0197818
0.0185325
0.00122095
-0.0014193
0.00300046
-0.00551012
-0.0029547
-0.0022933
0.003971
-0.00611724
0.0112661
0.0100757
0.0109942
0.0172014
0.0156161
0.0164505
0.0246139
0.0329787
0.00829282
-0.00156682
-0.00728385
-0.00653746
-0.00463268
-0.0114596
-0.000270508
0.00424675
0.00206047
-0.00384494
-0.000618017
0.00358803
0.00699045
0.0104966
0.0242352
0.0324377
0.00628542
-0.00536476
-0.00289246
-0.0088013
-0.0118879
-0.0147479
0.000293513
0.00821813
0.00853095
0.00262448
-0.00441335
-0.00771386
-0.00303852
-0.00199095
0.0101895
0.0269784
-0.000132413
-0.00155196
-0.00618148
-0.00293731
-0.00458919
-0.00591948
-0.0026521
0.00455279
0.00779895
0.000533317
-0.000805346
-0.0051579
0.00245225
0.00258847
0.0171402
0.0239027
0.0123494
-0.00255649
-0.00304653
0.00555498
-0.00151105
-0.0017743
0.00901905
0.00862941
0.0126109
0.006034
0.00917893
0.00793987
0.0157985
0.016031
0.0279119
0.0232354
0.013589
0.00424745
0.000347877
0.000106897
0.00173435
0.00335961
0.00873034
0.0122868
0.0157606
0.0140002
0.0124181
0.00842657
0.0184411
0.0213584
0.0266826
0.0137342
0.00761916
0.00588279
0.00428426
1.77111e-06
0.00287444
0.000130629
0.00532062
0.00468316
0.0154677
0.0105672
0.0117222
0.00664359
0.0107973
0.0113287
0.0205134
0.0238868
0.0149111
0.00615552
0.00973363
0.00840717
0.00688894
0.0040125
0.0123371
0.00780613
0.00419506
-0.00380597
0.00029123
0.014603
0.00168566
0.00573892
0.0201217
0.0252296
0.0124092
0.00318872
-0.00214405
-0.00938566
-0.00663527
-0.016713
-0.00766247
-0.00496553
-0.00198462
-0.00147849
-0.000352916
0.00480427
0.00145119
0.00142575
0.0208067
0.0241663
0.0165442
0.00746853
0.00228641
-0.00307317
-0.00412523
-0.00936278
0.00509911
-0.00694255
0.00194399
-0.00295453
-0.00353651
-0.00258717
0.00517908
0.00244655
0.0181222
0.0277152
0.0137002
0.0049249
0.00615195
0.00489554
0.00330952
-0.00216696
-0.000210664
0.000544251
0.0051864
0.00682655
0.00582034
0.00400447
0.00690252
0.0128111
0.0156925
0.0237414
0.00993666
0.00118486
0.00610586
0.00469039
0.00103772
0.00166609
0.00136812
0.00344772
0.00698835
0.0116292
0.0115464
0.0101221
0.0138933
0.0175463
0.0240044
0.0277895
0.0145862
0.0156878
0.0126346
0.00662286
0.00562616
0.0189138
0.0188551
0.0232175
0.0220258
0.0260765
0.0239961
0.0191958
0.0195
0.0266371
0.0298146
-0.0222522
-0.00452774
-0.00414012
-0.014226
-0.0141129
-0.0152677
-0.025284
-0.0190448
-0.0197712
-0.0121785
-0.0103335
-0.00576014
-0.00680874
0.00295942
0.000726857
-0.00285608
0.00884956
0.0197519
0.0108033
0.00381878
0.00320904
-0.000803244
-0.00405876
-0.0108216
-0.00638811
-0.00503238
-0.00285568
0.00935098
0.0182082
0.0222914
0.0205847
0.00854332
0.00249196
0.0160498
0.0112118
-0.00138545
-0.00193357
-0.00171472
-0.00713308
-0.0074483
-0.00758127
-0.00949739
-0.00594371
-2.46102e-05
0.0062949
0.0120052
0.0128057
-0.000137624
0.00184026
0.0175536
0.0164535
-0.00166381
-0.00349506
-0.00612159
-0.00261514
-0.000215533
-0.00767569
-0.00716909
0.000748993
0.012021
0.0158366
0.00917526
0.0105342
0.00768834
0.000799421
0.0165306
0.0180899
0.00752065
0.0068758
-9.05662e-05
-0.00657585
-0.00876669
-0.00770213
-0.0128261
-0.00706081
0.00112937
0.00653419
0.00368364
0.00799231
0.000367837
-0.00393879
0.00592919
0.00548806
-0.00236783
-0.00925221
-0.00859097
-0.0137412
-0.010594
-0.0138554
-0.0135324
-0.0099903
-0.00271179
-0.00637212
-0.00823576
0.00309554
0.000722259
-0.00955896
-0.00372615
-0.00587651
-0.0106609
-0.01353
-0.0174579
-0.0131916
-0.000934702
-0.00635283
-0.017463
-0.0238415
-0.0242647
-0.0199697
-0.0178952
-0.00635434
-0.00458537
-0.0166296
-0.017656
-0.0175782
-0.0185954
-0.0163019
-0.0117344
-0.00912865
-0.0157579
-0.0161214
-0.0142443
-0.0169758
-0.0161331
-0.0191814
-0.0124613
-0.00385373
-0.00606526
-0.0109417
-0.00571555
-0.00711685
-0.0137558
-0.0136929
-0.00819989
-0.00387771
-0.00763745
-0.0064886
-0.0102942
-0.0164769
-0.00996397
-0.0120667
-0.00672703
0.000785917
-0.00762846
-0.00673939
-0.00443035
0.00439345
0.00401539
-0.000426672
-0.00513132
0.000534923
0.00586788
-0.000592009
-0.00304532
0.000781513
-0.00409305
-0.00921782
-0.0144518
-0.0223934
-0.0225424
-0.0040543
0.000297639
0.00640509
0.00226723
-0.00557866
-0.0132126
-0.00657922
-0.00327326
-0.00530077
-0.0066101
0.0037042
-0.00620374
-0.00651576
-0.00792731
-0.0110748
-0.0184092
-0.0148675
-0.00738923
-0.00442844
-0.00361929
-0.010112
-0.0100289
-0.00166213
0.000763324
-0.00678383
-0.0105274
0.00394964
0.00310672
0.000618174
-0.00246584
-0.00821709
-0.0176474
-0.0153793
0.000284215
0.00468734
6.33309e-05
-0.000280708
-0.00597766
-0.00246736
0.00163718
-0.00823368
-0.0100462
0.0021613
0.00454542
-0.00214531
-4.38772e-05
0.0035256
-0.00419961
-0.00673386
0.0093897
0.00564424
0.00185671
-0.00013838
-0.00398338
0.00693845
0.00738603
-0.00100755
-0.00355979
0.00242632
0.0016171
0.00070327
-0.00711514
-0.0107295
-0.0132765
-0.00368455
0.000721467
-0.00248512
-0.00721028
-0.00995204
-0.00899472
0.00696927
0.00762373
0.0139785
0.0021104
-0.00061953
-0.0032382
-0.00311194
-0.00448924
-0.00455943
-0.0133418
-0.00756062
0.000275738
-0.00442833
-0.00438668
-0.00754934
-0.00293074
0.0051499
0.00281262
0.00188627
-0.00418447
-0.00559906
-0.00821735
-0.0156916
-0.0142028
-0.00253526
-0.00439038
-0.00857111
-0.00829885
-0.0134908
-0.00621346
-7.49104e-06
0.00703311
0.00655216
0.00231195
0.00113324
-0.000213686
-0.00264825
-0.00427968
-0.00946643
-0.0179415
-0.00714351
-0.0105694
-0.00746746
-0.00763731
-0.007313
-0.00809096
-0.00551505
-0.00476288
-0.00236712
-0.000238208
-0.00111791
-0.00417424
-0.00443367
-0.00474025
-0.00645637
-0.0152685
-0.00512876
-0.0130481
-0.00922997
0.00296895
-0.0012665
-0.00782951
0.00249689
0.00546057
0.0014261
0.0019248
0.0087099
-0.00153527
-0.00319407
-0.00932663
-0.0127741
-0.0149933
-0.00345342
-0.00140726
-0.0104629
0.000459061
-0.0043822
-0.00170763
0.00396669
0.00487643
0.00347253
-0.000592624
-0.00577743
-0.00636403
-0.00640546
-0.00494403
-0.00595271
-0.00213087
0.00643552
0.00332092
0.00661382
0.0082566
0.000950343
-0.00320106
0.000754102
-0.00206839
-0.00699161
-0.0104226
-0.0112102
-0.00997848
-0.0123392
-0.00974698
-0.00999481
-0.00227198
-0.00454124
-0.00251929
-0.00505895
0.00904059
0.00263111
-0.000547906
0.000132427
-0.00436694
-0.012118
-0.0111236
-0.00962868
-0.00783584
-0.0145686
-0.0170787
-0.0104768
-0.00456215
-0.0068019
-0.00663338
-0.000547585
0.00259379
0.00076691
-0.00143727
-0.0020698
-0.00133672
-0.00675988
-0.00885544
-0.0071264
-0.0080768
-0.0130504
-0.017875
-0.0144163
-0.00533041
-0.0057955
0.00073527
-0.00228563
0.00898628
0.00308421
-0.000621958
0.000176343
-0.00125212
-0.004757
-0.00185007
-0.00440674
-0.00958702
-0.00636501
-0.0078569
-0.0106096
-0.00788521
-0.00388789
0.00609367
0.00368172
0.00985717
0.0103337
0.00121063
0.00136091
-0.00508752
0.0040242
-0.00369698
-0.00320625
-0.00718268
-0.0091959
-0.00594903
-0.00960581
0.000918744
0.00728944
0.00915838
-0.00332712
0.00268362
0.00378031
-0.00306546
-0.0068477
-0.000102556
-0.00205244
-0.0099909
-0.011457
-0.00511922
-0.00512223
-0.00315157
-0.00672995
0.000962592
0.00972632
0.00738307
0.0103724
0.00806277
0.00503361
-0.00462371
-0.00695306
0.000810837
-0.00643801
-0.00567998
-0.00995929
-0.0070295
-0.00629034
0.00142359
-0.00350984
-0.00224277
0.022431
0.0157769
0.00579588
0.00724325
0.00094146
-0.00767407
-0.0112314
-0.00634918
-0.0104406
-0.00702716
-0.00578658
-0.00441055
-0.000505915
-4.09634e-05
-0.00252166
-5.15402e-05
0.0172802
0.0125376
0.00781404
0.0130265
0.00581162
-0.0053749
-0.00871648
-0.00955825
-0.00627856
-0.00446591
-0.0159401
-0.014193
-0.00620652
-0.00682989
-0.00532241
0.00365185
0.0150233
0.0122126
0.00933725
0.0107793
0.00663381
0.000906578
0.00568276
0.00755359
0.0100932
0.00348241
-0.00403083
-0.00627726
-0.00331722
0.00346454
-0.00213486
0.0144751
0.0272699
0.0207024
0.0300011
0.0262052
0.0178338
0.0212272
0.0207678
0.020084
0.0217769
0.0216964
0.00913297
0.0103261
0.00981647
0.0130448
0.011094
0.0203828
0.0307239
0.0252757
0.0428856
0.0384856
0.03625
0.0356705
0.0269216
0.0246248
0.0354998
0.0319113
0.0289735
0.0290752
0.0285978
0.021805
0.0209634
0.0222472
0.0305149
0.0298441
0.00665626
0.000582308
0.00222622
-0.00147249
0.00391406
0.000916003
-0.008279
-0.00095049
0.00371848
0.00423255
-0.00186669
0.000631927
-0.00399006
-0.00652854
-0.0275005
-0.0107797
0.00895494
0.0158637
0.00328528
0.00325281
0.0118881
0.00466469
0.00805431
0.00353555
0.004094
0.00769772
0.00418623
0.00301641
0.00434253
0.00234211
-0.013593
-0.00889285
0.00511694
0.0109003
0.0115439
0.00456136
0.0147204
0.0149825
0.0189804
0.0187033
0.0162489
0.0104992
0.00709537
-0.00478492
-0.00931498
-0.00170765
-0.00182879
-0.00652743
0.00141334
0.00383689
0.00919878
0.00178702
0.0109741
0.0128016
0.0192913
0.023439
0.0190745
0.00963621
0.00412931
0.00098877
-0.00377492
-0.00917599
-0.0126084
-0.00665465
0.00185335
-0.00453922
0.00792659
-0.000252069
0.0191442
0.0197843
0.0156942
0.00954175
0.0148442
0.0170328
0.0135693
0.0132776
0.00851405
-0.00354997
-0.00336836
-0.00600168
-0.00741137
-0.00979653
0.000160952
-0.00426799
0.00669684
0.0190898
0.0208972
0.00634194
0.0122737
0.00949886
0.0140521
0.019594
0.0122513
0.00573273
0.00521113
0.0171687
0.00436583
0.0016191
-0.00591656
-0.0027139
0.00945774
0.0104137
0.0189114
0.0176371
0.017786
0.00753668
0.0102151
0.000782965
0.00471375
0.00378621
0.00647265
0.0102665
0.00122554
-0.000588606
-0.00631938
-0.0125268
-0.00332491
0.0103055
0.00623098
0.012316
0.00758881
0.0107368
0.00507268
0.00464262
-0.00233132
0.00253009
0.00664666
0.0108426
0.0144027
0.0062582
-0.00240384
-0.00275833
-0.00673427
-0.00463972
0.00543258
0.00945775
0.00219875
0.00467304
0.00194723
0.00246308
0.00564835
0.00805323
0.0112721
0.0162221
0.0146942
0.0131446
0.00929141
0.00836783
3.52611e-05
-0.0104398
-0.00514853
0.00175039
0.00530251
0.0039924
0.00890401
0.0142708
0.0108044
0.00332684
-0.00220235
0.00843192
0.0193439
0.0114727
0.0136401
0.0147227
0.00656467
-0.00885587
-0.00788533
-0.00602225
-0.00186829
0.00625655
0.0129803
0.0111243
0.000996968
0.00439514
0.00684431
0.0103056
0.0186173
0.00211869
-0.00120275
0.00868296
0.00313233
-0.0100917
0.00396287
0.00231857
-0.00210406
-0.00398826
0.0058215
0.0123006
0.00787205
0.0175372
0.00810248
0.00300971
0.019791
0.000668806
0.00105307
0.00520073
0.0128119
0.00443727
-0.000415784
0.00267799
0.00466567
-0.000395655
-0.00196784
0.00986967
0.0101633
0.00771121
0.0106349
0.021516
0.0200469
0.0115612
0.00646469
0.0101387
0.0101155
0.00639512
0.0133481
0.0174664
0.0134726
0.00622426
0.00839443
0.0124843
0.013681
-0.00051157
-0.00152431
0.0106809
0.0225499
0.00802749
-0.000136675
0.0011499
0.00358725
0.00320376
0.00795946
0.0192541
0.0135789
0.00414056
0.00766275
0.00587379
0.00796398
0.00969674
0.00335087
0.00754654
0.0199033
0.0139089
0.00713654
0.00519505
0.00384163
0.00314595
0.00312447
0.00507267
0.00287483
0.00390129
0.00319483
-0.00192871
-0.0035571
0.00310361
0.00308923
0.010694
0.0203285
0.0122789
0.0026951
0.00945191
0.0144764
0.0145063
0.0124605
0.00640948
-0.000597101
0.00454579
0.0101033
0.00842554
0.00250755
0.00740385
-0.0072323
0.00445908
0.0173069
0.00455526
0.00322383
0.0101318
0.0123757
0.00458708
0.00552916
0.00514146
0.00156559
0.00240876
0.00337954
-0.000594188
0.00963214
-0.00273907
0.00156522
0.00939619
0.0325055
0.0155754
0.00186694
0.0102563
0.00833029
0.015285
0.013769
0.00831419
0.0110019
0.00243109
-0.0016385
6.5953e-05
0.00466837
-0.00111381
0.0022732
0.0102783
0.0240457
0.0144667
0.00265063
0.00947858
0.0107031
0.0132956
0.0171185
0.00922737
-0.00636619
-0.00388049
0.00132777
0.010913
0.0116547
0.0118934
0.00959314
0.019904
0.0230681
0.0248289
0.0063947
0.00885385
0.00800825
0.00481924
0.0150855
0.00586563
0.00407507
0.0110724
0.0100663
0.0105618
0.0154999
0.00713957
0.00907262
0.0165463
0.010978
0.0149224
0.0181172
0.0150496
0.0148795
0.0102845
0.0081609
0.0044576
0.00915877
0.0241759
0.0181268
0.00696247
0.0174522
0.0150125
0.00686391
0.0170021
0.0121382
0.00604557
0.0204117
0.0251778
0.0203119
0.0204661
0.0084645
0.00525979
0.0089927
0.0142265
0.00822088
0.00403959
0.00644769
0.00762417
0.00535097
0.0176119
0.0152111
0.00839958
0.000970734
0.0142343
0.0174947
0.0183253
0.0119687
0.00876678
0.00996823
0.0127786
0.00849317
0.0111127
0.00579593
-0.001543
0.00377539
0.0110844
0.0140499
0.00638414
0.0146687
0.0155424
0.0184341
0.0178266
0.0127289
0.012238
0.0111958
0.00770486
0.00308542
0.00325651
-0.00190532
0.00157205
0.00534175
0.0108192
0.0137662
0.0017143
0.00410063
0.0114149
0.0135269
0.00648269
0.00333737
0.00302912
0.003446
-0.00118096
0.0166624
0.00984218
0.000119109
0.00487004
0.00973627
0.0120472
0.0155734
-0.00060758
0.00478708
0.00247579
0.00434904
0.0101169
0.00944548
0.00930672
0.00270703
0.00545238
0.0151167
0.00570396
-0.000727952
-0.00707997
0.0140192
0.0152356
0.00425121
0.00748219
0.00718761
0.0109929
0.00993247
0.0157661
0.00952201
0.00637851
0.0120959
0.00116816
0.0100584
0.0097584
0.00683069
5.63198e-05
0.00121682
0.00609768
0.00241596
0.00800661
0.00314579
0.00686948
0.00595614
-0.000128228
-0.00188083
-0.0102162
-0.00413404
-0.0093773
-0.00137286
0.00463099
0.000985039
0.00562705
0.00308498
0.00690897
0.00562851
-0.000418041
0.00590385
0.00569956
0.00838149
0.0090993
0.00527281
-0.00552299
-0.000394503
0.00532319
-0.00147904
0.0038493
-0.000668547
0.00610848
0.0110665
0.0155898
0.0241045
0.0167572
0.00771775
0.0131901
0.0237479
0.0195749
0.010016
0.00788484
0.000170067
0.00512311
0.000907193
0.00222882
-0.000994234
-0.00667324
0.005079
0.0157289
0.0264834
0.011252
0.00816408
0.0186544
0.00665595
-0.0038701
-0.000995314
-0.00792554
-0.00708782
-0.00389848
-0.00667078
-0.0105296
-0.00382437
-0.0127973
-0.0151249
0.00936595
0.00662575
0.00509304
0.00826961
0.0014525
-0.00186898
-0.00347493
-0.0121275
-0.00477454
0.00389711
0.00121456
0.00152006
0.00241962
0.00514868
-0.00338719
-0.0140428
-0.00460566
0.00147824
0.00693388
0.0033821
0.000587308
0.00260976
0.00252077
0.0045445
-0.00128844
0.00137306
0.0067103
0.00451127
0.000512162
0.00835951
-0.00128892
-0.00895276
-0.00375456
-0.00218472
-0.00122734
0.00190722
0.00813234
0.00963808
0.015922
0.0163883
0.00995061
0.00292121
0.0112411
0.00790165
-0.00407431
-0.00706764
0.00412739
-0.00353779
-0.00337662
0.00105363
-0.00446073
0.00526999
0.00944682
0.0120816
0.0121039
0.0125032
0.0169746
0.0116865
0.00729862
0.000120943
-0.00158155
-0.00502424
-0.000501813
0.00115858
-0.0080818
0.00631835
-0.00534577
0.0120333
0.0117992
0.0176184
0.018244
0.0138663
0.00869719
0.0150941
0.0101849
0.00561695
-0.0018478
0.000497687
-0.00319573
0.00169405
0.00112571
0.000263485
-0.000200655
0.00197244
-0.000598444
0.00508294
0.0213097
0.0205449
0.00826661
0.00585989
0.00315569
0.0076006
0.00773212
0.0109763
0.00872413
0.0133001
0.00899522
-0.00689911
-0.00883917
0.000524345
-0.0028481
-0.00224562
0.00814779
0.00883635
0.00695201
0.0110787
0.00242193
0.00958435
0.00375414
0.0124026
0.013666
0.0132264
0.0119689
-0.00463245
-0.00248264
-0.00311384
-0.00838931
0.000103944
0.00661217
0.00641329
0.00658001
0.00579296
0.00371585
0.00969788
0.00939613
0.0105631
0.0167825
0.00877222
0.0205852
0.00531943
-0.00640891
-0.00152339
-0.0135531
-0.00941635
-0.00359643
0.00242159
0.00384221
-0.00395805
0.00372969
0.00620322
0.00593665
0.00731465
0.00532494
0.010679
0.0191187
0.00746579
0.0028322
0.00200528
0.000574436
-0.0063131
-0.00711744
0.0032451
0.00395773
0.00437585
0.00777135
0.00552802
0.00937143
0.00648662
0.00764306
0.0113657
0.0124961
0.010566
0.00608247
0.000397226
0.00471299
-0.00265851
-0.00523559
0.000598641
-0.000858556
0.00726547
0.00900029
0.00331257
0.00866313
0.00740172
0.00909216
0.0121941
0.0111434
0.0124286
0.00239884
-0.00790128
0.00650953
-0.00201824
-0.00807091
-0.000918196
0.00212414
0.00260174
-0.000899084
0.00492796
0.00664867
0.0113078
0.0152254
0.0115609
-0.00249208
0.0175315
0.00368282
0.000968006
0.00174207
-0.000692879
-0.000858539
-0.00685265
-0.00338371
-0.00183072
-0.00109355
-0.00152978
0.0130549
0.0156037
0.00785014
0.00860036
0.00750497
0.00709465
0.00347071
0.00196454
-0.0025791
-0.00740023
0.00288858
0.00258402
-0.00147312
0.00341162
0.000228387
0.00185525
0.0105518
0.0135188
0.00151259
0.000419547
-0.00030056
0.0137053
0.00524825
-0.00651958
-0.00393872
-0.00739571
-0.00434296
-0.00275956
0.00328617
0.00244984
0.00198296
0.00755164
0.00286081
0.000564998
0.00712123
0.00597777
-0.00355572
0.00623471
0.00297331
0.00153138
-0.00284306
-0.00184826
-0.00552582
-0.00580616
-0.00318581
0.00325008
0.00650466
0.00940256
0.00988788
0.00168144
0.0057971
0.00873052
0.00109093
0.00450321
-0.000344083
-7.05491e-05
0.00180792
-0.00197282
0.00201701
0.00225024
-0.00365761
-0.00642108
0.00173811
0.0102413
0.0076395
0.000317527
0.00637067
0.00335419
0.0123345
0.00841435
0.00715755
0.00562966
0.0126706
0.00787611
-0.000307714
-0.00695328
-0.00348194
-0.00667397
-0.00307769
0.00292136
0.000101479
0.0130239
0.00547031
0.00300542
0.0094778
0.0145567
0.00685538
0.000241075
0.00461208
0.00084282
-0.00216085
0.000388726
-9.06781e-05
-0.00579808
-0.00380294
0.0048157
-0.00148947
0.011679
0.00267689
-0.000851564
0.0111858
0.00161417
-0.000780617
-0.00288861
-0.000506848
0.00252923
0.000206431
0.00703376
0.000306449
-0.00814608
-0.00458715
0.00299273
0.00749282
0.0126903
0.00800224
0.00321636
0.0156588
0.00731961
-0.00344313
-0.000531512
0.00521102
0.00529013
-0.000756086
0.00162023
-0.00160134
-0.000121307
0.0100509
0.00315314
0.00585371
0.0108034
0.00841679
0.0046153
0.0103431
0.00297113
-0.00253326
0.0062147
0.00983757
0.00355226
0.000207302
-0.00223211
6.5449e-05
0.0039901
0.0112255
0.0139475
0.0101058
0.0100681
0.00803582
0.00644296
0.004688
-0.0024392
-0.00511571
0.00545146
0.0125934
0.0103064
0.00357543
-0.00205262
-0.00595679
0.00100386
0.00907634
0.00939227
0.00728793
0.00442974
0.00670148
0.00583917
-0.00368084
0.00104392
-0.00810053
-0.0032156
0.00113112
-6.09307e-05
0.0089815
0.00061974
0.000147478
0.00111455
0.00665266
0.00621854
0.00902602
0.0107195
0.00521545
0.00335509
0.00795458
0.00385485
-0.00565687
-0.00292562
0.00333456
0.00112424
0.00212548
0.0105342
0.0107005
0.00106125
0.00852191
0.00201314
0.00607257
0.00688109
0.00670831
0.00105254
0.00738215
0.00423912
0.00100848
-0.00456086
0.00946013
0.00857935
0.00256123
0.0114631
0.0149872
0.00426754
0.00321748
0.00708928
0.00472866
0.00240938
0.0071271
0.00941822
0.00678662
0.00581877
0.00182019
-0.000870915
0.00617126
0.0108782
0.000844499
0.00976726
0.00646007
0.00687398
0.00465717
0.00989791
0.00467054
0.00147499
-0.00284957
0.00225635
-0.00588917
-0.00503893
-0.00266922
-0.00743461
0.00315471
0.0019473
0.00132961
0.00292985
0.00789884
0.00781442
0.0052285
0.00940737
0.0105116
0.00339575
-0.00771728
-0.00456495
-0.00453397
-0.00480217
-0.0092208
-0.00723824
0.00373745
-0.000113684
-0.00341306
-0.00129565
-0.00288584
-0.00321211
0.00334531
-0.0035623
0.00433221
0.00682721
0.00291377
-0.00299209
-0.00185708
-0.00401017
-0.011774
-0.00273933
0.00871611
0.0044962
-0.00013156
0.000272654
0.00110063
0.00117253
0.00536203
0.00296135
-0.00205951
-0.00285961
0.00015096
0.000191956
0.00430644
-0.000849988
-0.00244863
-0.000264041
0.00530026
0.00447123
-0.000327199
-0.00198749
-0.00407604
-0.00191671
0.00588258
-0.00107455
-0.00834515
-0.00587046
-0.0145705
-0.00848119
-0.00185294
-0.00852898
-0.00904688
-0.00476428
-0.00510727
-0.00919992
-0.018249
-0.0215092
-0.00915671
-0.0129719
-0.00785381
-0.0105601
-0.0118126
-0.00835008
-0.0139294
-0.0253959
-0.0164081
0.00355731
0.00176602
0.0021381
-0.0053908
-0.00175606
-0.00984452
-0.0121377
-0.012326
-0.00101083
-0.00713866
-0.00642143
0.000724698
-0.0077116
-0.00352083
-0.0089952
-0.0035736
-0.00338832
-0.000826978
-0.0024605
-0.00309135
-0.00255823
-0.00127895
0.00123336
1.6615e-05
0.000825217
0.000183839
0.000676135
0.000954468
-0.00319079
-0.00092541
-0.00848187
-0.00157317
-0.0096053
-0.00793246
-0.00197228
-0.000251768
0.0111215
0.0162877
0.017695
0.00568263
-0.00083258
0.00418114
0.00239779
-0.00390677
-0.0144224
0.00193747
0.00110111
-0.00500451
-0.00400874
-0.0121482
-0.00199129
0.000868031
0.0140412
0.0138707
0.0118174
0.00841972
0.00590485
-0.00214759
-0.00313844
-0.00255078
-0.0103016
0.00297178
-0.00193199
-0.0108267
-0.00495407
-0.0101868
1.96322e-05
-0.00101508
0.0119129
0.0107037
0.00177978
-0.00679617
0.00286696
-0.00224905
-0.00139666
-0.00986033
-0.00772258
-0.00613947
0.000291024
-0.000898677
-0.0157405
-0.0161263
-0.0110704
-0.0104889
-0.00700968
0.00822711
0.00667885
-0.00614008
-0.00612684
-0.00852942
-0.0038686
-0.0139684
-0.00453422
-0.00598961
0.00530854
-0.00438212
-0.0168238
-0.0221218
-0.0131181
-0.0172726
-0.0147979
-0.00380936
-0.00282175
-0.00411755
-0.00325314
-0.00692058
0.0036738
-0.00583026
-0.00091087
0.00866019
0.00905048
9.31875e-05
-0.00974383
-0.0153696
-0.00817793
-0.0158
-0.0142993
-0.00453654
0.00358897
0.00477742
-0.000276673
-0.000652062
-0.000744539
-0.00215501
-0.00132727
0.00866717
0.00817454
0.00907932
0.000519439
-0.0105813
-0.00476412
-0.0138893
-0.0120907
0.000596605
0.00497462
0.00340798
-0.00736254
0.00249924
-0.000383916
-0.00169133
-0.00452423
0.00271226
0.0112195
0.0188097
-0.00309231
-0.00403387
-0.00585056
-0.00343266
-0.00789007
-0.00263067
0.00267844
-0.00121493
-0.00976794
0.00314406
-0.00112793
0.00749603
0.00073729
0.00409659
0.00519385
0.0069992
0.0017791
0.000458561
-0.0028905
0.00393887
-0.00171348
-0.000115892
0.00175299
-0.00229704
-0.00845938
-0.00335265
-0.00264245
0.00740032
0.00322693
0.0024463
0.00654774
-0.00184543
0.004914
0.00374468
-0.00494228
-0.000308178
0.00109857
-0.00388092
-0.00723146
0.00298195
-0.00747752
-0.00916602
0.000476804
0.0100195
0.00272767
0.000605165
0.0109732
-0.00875579
0.00408962
-0.000295575
0.0021325
-0.00338863
0.00110741
0.00210877
-0.0055361
-0.00188646
-0.00785139
-0.0129094
-0.0120585
-0.0011122
-0.000186685
-0.00406192
0.00152263
-0.00761089
-0.00259304
-0.000881083
0.00656753
-0.00267092
-0.00568601
0.00436611
-0.00790443
-0.00340862
-0.0046937
-0.0086604
-0.0112756
-0.00827599
-0.000217796
-0.00205399
-0.00462965
-0.0135895
0.00516446
0.00365803
-0.00026908
-0.00702734
-0.00914954
0.00314735
-0.00427606
-0.00961433
-0.0058316
-0.00205424
-0.00111758
-0.00665143
-0.00267684
0.000184976
-0.000858989
-0.0206974
0.000663892
0.00169338
0.00260656
-0.00236729
-0.00228533
-0.00200493
-0.0117054
-0.0103706
-0.00166912
-0.00179202
0.00127963
0.0024136
0.000794077
0.00121651
0.0063996
-0.00778343
-0.00221374
0.00355279
0.00805979
0.0036636
-0.00243654
-0.0102443
-0.0111139
-0.00519558
-0.0113957
-0.00876472
0.00311316
0.00285678
-0.0014916
2.03343e-05
0.00203414
-0.00298085
0.00379333
0.00989807
0.00996083
0.00818088
-0.000296532
-0.00788238
-0.00481978
-0.00483232
-0.0122908
-0.00790046
0.00164662
-0.00816051
-0.00117559
-0.00827423
-0.00779417
-0.0074209
-0.00137903
0.00114746
0.00866159
0.00675149
0.00131535
-0.00585885
-0.00493803
0.000113649
-0.00754855
-0.00840094
-0.00040101
-0.00618623
0.00444138
-0.00422409
-0.00711354
-0.00799854
-0.00702978
-0.0107553
0.0038148
0.00792056
0.00480516
-0.00127797
0.00252753
0.00266546
-0.00593193
-0.00509472
-0.00567602
-0.00310951
0.0045784
-0.00642062
-0.013075
-0.0118024
-0.00457915
-0.00561006
0.00448727
-0.000696763
0.00585212
0.00196558
0.00342657
0.00375357
0.00413044
-0.000482932
-0.00761454
0.00219565
0.000967678
-0.000767949
-0.00790389
-0.00694644
0.00062697
-0.00756114
0.00423278
0.00361973
0.00256718
-0.000218229
0.00706193
0.00943125
0.00605584
0.00334007
0.000431296
0.00364013
0.00176395
-0.000207775
-0.000568328
-0.0109558
-0.0123152
-0.00984494
0.000195938
0.00450907
-0.00290107
0.00485674
0.00882377
0.00564932
0.00526569
0.00669614
0.00793216
0.00592224
0.00074303
0.00377335
0.00388638
-0.0125764
-0.00400523
-0.00855188
-0.00858275
0.00168954
-0.00351411
0.0106463
0.00763153
0.00146835
0.00330465
0.00274221
0.00516523
0.00605807
0.0010251
-0.00347475
0.00163099
-0.00566595
0.00375108
-0.00340851
-0.00652848
-0.000985627
-0.00667337
3.03996e-06
0.0117083
0.00903841
0.000814606
0.0055201
0.00315898
-0.000113395
-8.83614e-05
-0.00559052
-0.00266935
-0.00814653
0.00269757
-0.000547063
-0.00361505
0.000872191
0.00100216
-0.00179548
0.00731068
0.00981276
0.00595688
-0.00138272
-0.000578553
-0.00266808
-0.00916975
-0.000538812
0.00489544
-0.00941252
0.00141225
-0.000528468
-0.00460703
0.00077099
0.0100042
-0.00265683
0.0104771
0.0102248
0.00662577
0.000917217
0.00585386
0.00501654
0.00205886
-0.00153824
0.000610458
-0.0138135
-0.000513996
-0.0058468
0.000683392
0.00730779
0.00402969
-0.00522218
0.00541129
0.00573843
0.00605719
0.00111597
0.00323503
0.00921565
0.00514601
-0.00774035
-0.00593225
-0.0127378
-0.0081467
-0.00938382
0.00355864
0.00524928
-0.00242502
-0.00659387
-0.00102383
0.00205297
0.00394469
0.00147194
-0.00490158
0.00202148
0.00265582
-0.00427042
-0.00867789
-0.0130169
-0.00773627
-0.016553
-0.0057638
0.00446148
0.00435703
-0.00681621
-0.00254251
0.00736106
0.00712909
0.00537056
0.00651059
2.03614e-05
-0.00488458
-0.00721059
-0.00611056
-0.00628934
-0.00814623
-0.00857989
-0.00458056
0.00788196
0.00590354
-0.00226312
-0.00732434
-0.00290101
-0.00358871
-0.00369231
-0.00644039
-0.00597399
-0.00596053
-0.00679378
-0.00630512
-0.00645398
0.000447565
-0.0113905
-0.0115162
-0.00237341
0.00499409
-0.00792071
-0.0155341
-0.007173
-0.0122399
-0.0122213
-0.0190833
-0.00810265
-0.00614305
-0.0119044
-0.0174288
-0.0152097
0.00472428
-4.41974e-05
0.00154752
0.00428332
0.00403029
-0.00203439
-0.00785874
-0.00924384
-0.00879846
-0.0104988
-0.00940669
-0.00750652
-0.00493827
0.000946103
-0.000175545
-0.0102811
0.0102875
0.00988429
0.0132238
0.0188708
0.01395
0.00970183
0.00356738
0.00435497
0.00714845
0.00608967
0.00302684
0.00194227
0.00258542
0.00909216
0.00837892
-0.00525928
0.00801297
0.00313116
0.00289846
0.00678136
0.0106616
0.014616
0.0124799
0.00824954
0.00326916
0.00492388
0.00249217
-0.000770477
-0.00205712
0.00944416
0.0111263
-0.00876569
0.00528014
-0.00167402
4.0635e-05
-0.00478626
0.00176175
0.0018551
0.00437115
0.00218988
0.00306189
-0.000444561
0.00438346
0.00399814
0.00147758
0.00835042
0.0172246
-0.00545393
0.00685732
-0.000563231
-0.00175435
-0.00451681
-0.00690662
-0.00927663
-0.00460909
-0.00415631
0.0028836
-0.00847276
0.00405872
0.00229016
0.00413426
0.00665811
0.0174308
-0.000153221
0.00209918
-0.00092983
-0.00319166
-0.00734663
-0.00826563
-0.00768061
-0.00676328
-0.00322065
-0.00437586
-0.0117801
-0.00574755
-0.00680094
-0.000518323
-0.00110605
0.00832611
-0.00970374
-0.00274704
-0.00702388
-0.00828684
-0.0109366
-0.0145237
-0.0116585
-0.00600428
-0.00119817
-0.00638344
-0.00796365
-6.82932e-05
-0.00468721
-0.00478877
-0.000936171
0.00830373
-0.00463468
0.00375284
-0.00128454
-0.00142874
-0.00975029
-0.0126315
-0.0106795
-0.00383871
-0.000957057
-0.00800729
-0.00600742
0.00327857
0.00483141
0.00158214
0.00277712
0.0102522
-0.00271529
0.00552371
0.00623452
0.00423848
-0.00270819
-0.00824545
-0.0110818
0.0025005
0.00404887
-0.0058176
-0.000632854
0.00708035
0.0054301
0.00679622
0.00245656
0.0125711
0.00151472
0.00778091
0.0040208
-0.00291792
-0.00428663
-0.0102809
-0.00930494
0.00198519
0.00155025
-0.00472509
0.00227986
0.00531776
0.00882255
0.0046091
0.00182659
0.0107262
0.000874933
0.00458568
0.00182628
-0.00313558
-0.0026154
-0.00618863
-0.00578115
7.96167e-05
-0.002761
-0.00961486
-0.00721785
-0.0014286
0.00388962
0.00226933
0.00236547
0.00739258
-0.00420055
0.00476614
0.00609788
0.00175715
0.00459236
-0.000735422
-0.00602806
-0.00336279
0.000772295
-0.00878133
-0.0118855
0.000443295
0.00272719
-0.00275902
0.00402135
0.0142571
-0.0076877
0.00258583
0.00447793
0.00374273
-0.00142986
0.000576654
0.000130605
-0.00536856
-0.00229529
-0.00237778
-0.01256
-0.0103384
-0.00528591
-0.0045531
-0.00163062
0.0104825
-0.00572014
0.00151555
0.00421952
0.0106863
-0.000485523
-0.000117977
0.00197644
-0.00913775
0.00110784
-0.00284726
-0.011168
-0.0102108
-0.00897875
-0.00223986
0.000275729
0.00663639
-0.00818315
0.00815047
0.011282
0.00970763
0.00129699
-0.0047599
-0.00273955
-0.00507529
-0.00465458
-0.00589871
-0.00678974
-0.00262876
-0.00633627
-0.00318657
0.00318502
0.0112927
-0.0146673
0.00638418
0.00928913
0.00580716
-0.000133056
-0.00253841
-0.0103101
-0.00944762
-0.00855208
-0.00502071
-0.00756415
-0.00316105
-0.00246029
-0.00289968
0.00473857
0.00983411
-0.0140038
0.00419113
0.0111466
0.00468173
-0.00479606
-0.00614083
-0.012384
-0.012752
-0.0119201
-0.0103825
-0.00994293
-0.000669943
-0.0043988
-0.00418955
0.00205648
0.00119001
-0.0137707
0.000847795
0.00937312
0.00298817
0.00115085
-0.00556349
-0.0136715
-0.00964506
-0.00831455
-0.0122167
-0.0148461
-0.000377867
-0.00789968
-0.00753057
-0.00413516
-0.00525086
-0.0152194
0.000609559
0.0029882
0.0103522
0.00756385
-0.00608929
-0.013866
-0.00846513
-0.00533337
-0.0145699
-0.0155143
-0.00502166
-0.00725993
-0.00583784
-0.00660032
-0.00782376
-0.020539
0.00205862
0.00306559
0.0113852
0.00592769
-0.00625061
-0.0111652
-0.00633179
-0.00207635
-0.00459109
-0.00893152
-0.00388127
-0.0056904
-0.00453242
-0.00761154
-0.00557411
-0.0241274
0.00355149
0.00188717
0.00788581
0.00303382
-0.00635199
-0.0132769
-0.00848534
0.000592666
-0.00329288
-0.0113889
-0.00825456
-0.00755104
-0.00999755
-0.00471215
-0.00490382
-0.0191318
0.00138804
-0.00250343
0.0103891
0.00568355
-0.0122224
-0.0141489
-0.00793642
-0.000945441
-0.00958123
-0.0139024
-0.00507615
-0.00751827
-0.00764034
0.0026949
-0.00290091
-0.0213738
-0.00185357
-0.00439755
0.00227122
0.00247923
-0.00770222
-0.00620859
-0.00358088
-0.005119
-0.00813005
-0.0107122
-0.00410808
-0.00538419
-0.00820067
-0.00177305
0.00121828
-0.0175108
0.00131974
-0.00218058
-0.00106341
0.00575189
-0.00326315
-0.00175026
-0.00483243
-0.00414084
-0.00397197
-0.00567065
-0.00554099
-0.00643456
-0.0102048
-0.00853816
-0.000758264
-0.0143116
0.00415254
0.00150098
-0.00142612
0.000597712
-0.00312478
-0.0075122
-0.00207614
-0.00571198
-0.00549843
-0.00419079
-0.00697694
-0.0111476
-0.0118228
-0.016433
-0.00733169
-0.0146227
0.0043412
-0.00158719
-0.00712349
-0.00368533
0.00238961
-0.01005
0.00215882
-0.00401203
-0.000154604
-0.00622452
-0.0068145
-0.00923032
-0.0135016
-0.0154836
-0.00556507
-0.0163518
0.00413738
-0.00242397
-0.0113
-0.00646287
-0.00188503
-0.00934096
0.00155545
0.00328262
-0.00474967
-0.00767139
-0.00474831
-0.00706637
-0.00869545
-0.0139456
-0.00839505
-0.0189931
0.00224476
-0.00122176
-0.00159346
0.000896722
0.000419883
-0.00238005
0.000344581
0.00358442
-0.00434105
-0.0069063
-0.00750063
-0.00191005
-0.00338574
-0.00827945
-0.00838426
-0.0214807
-0.000323585
-0.000213576
-0.00201455
0.00302444
0.00236145
-0.0038478
-0.00402297
-0.00316332
-0.00590008
-0.00961692
-0.00816058
-0.00455724
0.000757424
-0.00333396
-0.00621686
-0.0237624
0.000367677
-0.00298193
-0.00577303
-0.00035794
0.00162728
-0.00656512
-0.00758148
-0.00615114
-0.00578992
-0.00743979
-0.0033143
-0.00265621
-0.00453776
-0.00624612
-0.0037015
-0.0162378
-0.00241386
-0.00255842
-0.0023675
-0.000972
0.00172079
-0.00558032
-0.00839011
-0.0064771
-0.00574387
-0.00133039
-0.00712326
-0.00477682
-0.0061773
-0.000658792
-0.000187261
-0.0128445
-0.0036244
-0.00850635
-0.00759392
-0.00555376
0.00212692
-0.00559197
-0.0111271
-0.0118476
-0.00882908
-0.00384313
-0.00793654
-0.0104111
-0.00854477
-0.00535659
-0.00331819
-0.0178282
-0.00441126
-0.00964161
-0.00588043
0.0002019
0.00447876
0.00121313
0.00224391
-0.00853054
-0.0177279
-0.011874
-0.00757489
-0.00375179
-0.00617056
-0.0109888
-0.0147899
-0.0151299
-0.00638603
-0.00250792
0.00189216
0.00872582
0.0140358
0.0115041
0.00865832
-0.000204717
-0.00270849
0.00134415
-0.00254926
-0.00770526
-0.00974409
-0.00516135
-0.0104368
-0.0155658
0.00133285
0.000125589
-0.000912874
0.00138495
0.010541
0.00463265
0.00368715
0.00412688
-0.00466339
0.00463019
0.000379203
-0.00768693
-0.0104133
-0.0078787
-0.0123651
-0.0187756
-0.0023874
-0.00611255
-0.00240959
-0.00754727
-0.00298975
-0.00153276
-0.00518519
-0.00902538
-0.00200856
0.00317149
0.00592522
0.00014843
-0.00304376
-0.00379702
-0.000659783
-0.0104345
-0.00298324
-0.00941514
-0.00466226
-0.00873876
-0.00540194
-0.0134701
-0.0125872
-0.012669
-0.00285568
-0.00558612
0.000485491
0.00408067
0.00318647
0.00411473
0.00248823
-0.000782173
0.000611093
-0.00800097
-0.0115059
-0.0058313
-0.00986091
-0.00309572
-0.00743053
-0.00734793
-0.00450509
-0.0117928
-0.00863853
-0.00561609
0.000738295
4.3804e-05
0.000537892
-0.0025117
0.00264176
0.00186025
-0.00303181
-0.00411322
-0.00677025
-0.000877642
-0.00182914
-0.0039579
-0.00654485
-0.00740433
-0.00867969
-0.00666762
-0.00502944
-0.00572196
-0.00380881
0.000665741
0.012632
0.0085615
0.00328849
0.00102225
0.000105552
0.00512929
0.00734009
-0.000949272
-0.00508348
-0.00340401
-0.00209092
0.00720547
0.00232333
-0.00259029
-0.0045371
-0.00434006
0.00502306
0.0034337
0.0059335
0.00365168
0.00361185
0.00188288
0.0156503
0.00272741
-0.00733359
-0.00194345
-0.00230414
0.00667584
0.00370698
-0.00727973
-0.00351798
-0.00134101
0.00256568
0.00491357
0.00164168
0.00132911
-0.00323101
-0.00206807
0.00891291
-0.00418428
-0.00914692
-0.00415116
-0.00478927
0.00744307
0.00107097
-0.008024
-0.00229579
-0.00176275
0.00675447
-0.00136629
-0.00642869
-0.00157401
0.000852835
-0.000704687
0.00720863
-0.00385667
-0.00882665
-0.011034
-0.00965922
0.00156456
-0.00264079
-0.0056954
-0.00401065
-0.012654
0.00677411
0.0093413
0.0103555
0.0079015
0.00645782
0.00585296
0.00109197
-0.00487238
-0.00478601
-0.0101564
-0.00873403
0.00304945
-0.00145793
0.000160851
0.00140242
-0.00508544
0.00489693
0.00877597
0.00247195
0.00398262
0.00916065
0.00941232
-0.00598512
-0.00630786
-0.00343867
-0.00688737
-0.00831422
-0.00133386
-0.00125257
-0.0054396
0.00343783
-0.00486269
0.00389876
0.00182931
0.00513747
0.00426063
0.0121639
0.00844811
-0.00841462
-0.00761841
-0.00879409
-0.00898063
-0.0108738
-0.0108067
-0.00284476
-0.00530703
-0.00458649
-0.00751187
0.0123344
0.00960046
0.0100579
0.00273131
0.00908267
0.00175776
-0.00549731
-0.00623411
-0.0141558
-0.00934088
-0.00622295
-0.00448311
0.000815903
-0.00681232
0.000170614
-0.0126015
0.00862773
0.0086502
0.00898709
0.00649516
0.0065599
0.000428761
-0.00710323
-0.0118945
-0.0112304
-0.00440039
-0.000920002
-0.00209101
-0.00311372
0.00363004
-0.00197611
-0.011094
0.0108962
0.0101152
0.0109987
0.00897999
0.00482661
-0.00122148
-0.00407773
-0.0111864
-0.00517882
-0.00822537
-0.00228399
-0.00027173
-0.00463279
-0.00408295
-0.00492034
-0.0124467
0.00729586
0.0148049
0.0110065
0.00910862
0.00653124
0.00677435
-0.00475423
-0.00915568
-0.00653133
-0.00698797
-0.00256399
-0.00265869
-0.00252925
-0.00644697
-0.010689
-0.0139725
0.00807237
0.0114413
0.0101103
0.00891271
0.00208881
0.000844688
4.64448e-05
-0.00780104
-0.00825235
-0.00471369
0.000955921
-0.00153218
-0.00405771
-0.00831046
-0.00552
-0.012781
0.00374128
0.00360404
0.00152376
0.0013004
-0.0011044
0.00105667
-0.000273563
-0.000220925
-0.00212658
-0.00671554
-0.00247657
-0.0039688
-0.0027881
-0.0053066
-0.0046577
-0.0156105
0.00249422
0.00477094
0.0113163
0.00997983
0.00250329
0.000950673
0.00655422
0.00676661
0.00178153
-0.00671368
-0.010589
-0.00148536
-0.00835861
-0.00980529
-0.00641472
-0.01038
0.00548419
0.00370503
0.0218785
0.023969
0.00435356
0.00166672
0.0124793
0.00573229
-0.00910008
-0.00678495
-0.00306856
0.00089161
-0.00549871
-0.00433821
-0.000647361
-0.0125525
0.00444634
0.00841953
0.019172
0.00964777
0.00242058
0.00775936
0.0101265
0.00602232
0.00195407
-0.00423693
-0.00425658
0.000547571
-0.00219825
-0.00571139
0.0031977
-0.00880715
0.00470786
0.010247
0.014041
0.0128379
0.00604394
0.00874272
0.00962302
0.00262898
8.93357e-06
-0.00349512
-0.00857237
-0.0108402
-0.000347263
-0.00502354
-0.00286481
-0.00870642
0.00403249
0.0095809
0.00979881
0.00780519
0.01111
0.0127857
0.00578041
0.00261368
-0.00162325
-0.00519648
-0.00418597
-0.00957917
0.000528927
-0.00838837
-0.00497925
-0.0100258
0.00895651
0.00905422
0.00145468
0.00537127
0.00986056
0.00452883
-0.000921525
-0.00267977
0.00373133
-0.00514713
-0.00617732
0.00160741
-0.00312843
-0.00816267
-0.00733768
-0.00762897
0.00877376
0.00750328
-0.00180092
0.00458385
0.00368392
-0.003978
-0.000587451
-0.00544578
-0.00504009
-0.00193881
-0.00366752
-0.00131119
-0.00848128
-0.00933488
-0.00826242
-0.00543517
0.00558313
0.00539015
-0.00148678
0.000978161
-0.00105745
-6.82112e-05
0.00134824
0.000328315
-0.00156159
-0.00334887
-0.00729984
-0.00104952
-0.00724545
-0.0152702
-0.00875416
-0.00854831
0.00147773
0.00119505
0.00346073
6.39353e-05
0.00284615
0.000737331
0.00151892
0.0050145
0.00296673
-0.00407953
-0.00529222
-0.000615724
-0.00141112
-0.00922751
-0.00673548
-0.016221
-0.000462968
0.000955284
0.00230639
-0.00154514
0.00174577
-0.00400796
-0.000254932
-0.00218462
-0.00969185
-0.0030971
-0.00302949
-0.00232879
-0.00495235
-0.01157
-0.00809219
-0.00623283
-0.00541827
-0.00246803
-0.000714159
-0.00253741
0.00175845
-0.00491875
-0.00306553
-0.0063468
-0.00979524
-0.00750872
-0.0128702
-0.00621711
-0.00698188
-0.0104277
-0.0130122
-0.00784789
-0.00535573
-0.00575278
-0.00327867
-0.00724787
-0.000862622
-0.00188162
-0.00311409
-0.00453146
-0.00769311
-0.0101734
-0.0103045
-0.0104728
-0.0116301
-0.010909
-0.0132548
-0.0116963
0.004841
0.00187287
-0.00701222
0.0045896
0.0126101
0.0139616
0.0136234
0.00971111
-0.00101675
-0.00439063
-0.00614621
-0.0114272
-0.00645902
-0.00406021
-0.0105055
-0.00350898
0.00170584
-0.00846355
-0.000592069
0.00430116
0.00965518
0.0108135
0.00558527
-0.00293871
-0.00837503
-0.00717811
-0.00901642
-0.0202773
-0.0104995
-0.00975122
-0.0109939
-0.0100049
0.0093952
-0.00105358
-0.00221202
-0.00591118
-0.000523821
-0.0059838
-0.00455847
-0.0053855
-0.0150448
-0.010003
-0.00718117
-0.00363866
-0.00426938
-0.00972317
-0.00836864
-0.0124944
0.00416361
-0.00657098
-0.000117382
-0.0055813
-0.00444375
0.00184739
0.00112644
-0.0103543
-0.0103388
-0.00360093
-0.000119604
0.00293366
-0.00366406
-0.00605122
-0.00616287
-0.00938342
-0.00123882
-0.0102581
-0.00614522
-0.00610724
0.00147438
-0.000165259
-0.00838136
-0.0104975
-0.00235378
-0.00207719
0.000654688
0.00481594
-0.00710641
-0.00356396
-0.00632385
-0.000369626
0.00497781
-0.00336927
-0.000257224
0.00169171
0.0010984
0.00555765
-0.00670133
-0.00121038
0.003114
-0.00357504
-0.00198615
0.00259373
-0.0032789
-0.00612085
-0.00919503
-0.00138299
0.00555483
0.0061623
0.0108579
0.0157481
0.0107871
0.0100893
-0.00121005
0.00106977
0.00781041
0.0033305
0.00119483
0.00279092
0.00200573
-0.00435932
-0.0113405
0.000769658
0.0146781
0.00769038
0.0148597
0.0104283
0.0153083
0.0147274
0.0115664
0.0154765
0.0101007
0.0034282
0.00351256
0.0075068
0.00437256
0.0002098
-0.00839169
-0.00107629
0.00234554
-0.0014121
0.00312116
0.00984035
0.00939126
0.00600296
0.0139064
0.00906879
-0.00329068
0.000152595
-0.00338222
0.00158315
0.000946999
-0.00380638
-0.00506396
0.00248083
0.00104958
-0.00357817
0.00419968
0.0076714
0.00184583
0.000194667
0.00727178
-0.00803143
-0.00539854
-0.00319231
-0.00619648
0.0030675
-0.00596233
-0.0100606
-0.00279451
0.00296629
0.00731256
-0.000247844
0.00055652
0.00417509
0.00556514
0.000310406
0.00600568
0.00221569
-0.00435548
-0.00715664
-0.00666534
0.000182305
-0.00534106
-0.00329891
-0.00239327
-0.00598711
0.0126788
0.00485552
0.00629624
0.00934096
0.00776334
1.69117e-05
-0.0019817
0.00280034
0.000485939
-0.00384452
-0.00246459
0.00802712
-0.00463266
0.00159093
-0.000815004
-0.000371797
0.0175429
0.00267014
0.000614624
0.00706392
-0.000501979
-0.00371105
-0.00720738
-0.00192957
-0.00305033
-0.010058
-0.00506367
0.00332539
-0.00726366
-0.00160829
0.00232866
0.00177351
0.00632329
0.00308342
0.00686024
0.00383129
0.00707037
-2.44982e-05
-0.00351496
-0.00760903
-0.00873302
-0.0114032
-0.00740482
-0.00514878
-0.00240124
-0.00267549
-0.00638
-0.00031059
0.00526479
0.0053123
0.00734283
0.00212956
0.00680957
0.0044202
0.000401422
-0.00803968
-0.0117419
-0.0105283
-0.00244556
-0.000800023
-0.00831402
-0.00688969
-0.0038383
-0.00866153
0.00563181
-0.00158134
0.00437641
0.000844577
0.00074919
0.00424811
0.000389278
-0.00260124
-0.00454336
-0.00509934
-0.00384562
-0.00262204
-0.0111264
-0.00683217
-0.0109892
-0.0132637
0.0115847
0.00471115
0.00682311
0.0100269
0.00599449
-0.00914521
-0.00284798
0.00115075
0.0021135
-0.000983552
-0.0056503
-0.0106394
-0.00787091
-0.0146509
-0.0116181
-0.0159173
0.0110389
0.0101549
0.00618529
0.00462676
0.0103342
0.003544
-0.00754775
0.000103584
-0.0039935
-0.0117746
-0.00673435
-0.00806511
-0.00225389
-0.0135309
-0.0100587
-0.0057858
0.0125184
0.00451469
0.00221067
0.00593011
0.00794134
0.00226963
-0.00162026
-0.00739013
-0.011053
-0.0125514
-0.00286217
-0.00515414
0.000305719
-0.00661967
-0.00400538
0.00189711
0.0106286
0.0034921
0.00123061
0.00435692
0.00221794
-0.000876958
-0.00666078
-0.00216282
-0.00173291
-0.00954985
-0.000750887
-0.00410422
0.00360895
-0.00387563
-0.00624062
-0.00259712
0.0177786
0.00359001
0.00503836
0.00846061
6.26899e-06
-0.00377073
0.00398477
0.00608193
0.000984487
-0.00844977
-0.00203164
-0.00178094
-0.00660244
-0.0131628
-0.00743514
-0.00104923
0.0101264
-0.00136261
0.0115291
0.0123351
-0.00129472
-0.0024075
0.00555642
0.00448646
-0.00179334
-0.00086609
-0.00540916
-0.00359851
-0.00176178
-0.00125444
0.000719995
0.00386189
-0.000370064
0.00232718
0.00734824
0.00311874
0.00390412
0.0028414
0.00513452
0.00135361
-0.0023812
-0.00692022
-0.00511666
0.00224752
0.00294365
-0.00570813
0.000486187
0.00345077
0.00568109
0.00128047
0.000330707
0.000603652
-0.00064501
-0.000323594
0.000999858
0.000367999
-0.00971161
-0.0094508
-0.00433531
0.000774369
0.00282803
-0.00160032
-0.00222922
-0.00340427
9.90754e-05
-0.000764204
-0.0012275
-0.00150953
-0.000883568
-0.00162966
-0.00992939
-0.00833826
-0.0119186
-0.00726517
0.00098349
-0.00380174
0.00720264
0.000476432
0.00359861
0.0020225
0.0137785
0.00518798
-0.00221692
0.00671299
0.00248823
-0.0136902
-0.015359
-0.00576824
-0.00387758
-0.0011761
-0.00120955
0.000655615
-0.00072178
-0.00271447
-0.00689821
-0.00260519
0.00873375
0.00359308
-0.00189519
0.00399465
0.00437831
-0.00509699
-0.00763861
-0.0103396
-0.00809989
-0.0029198
-0.00610894
-0.000689366
-0.00605023
-0.00231504
-0.00580327
-0.00831921
0.00552899
0.00368822
-0.00941025
-0.0072005
-0.000367873
-0.00649669
-0.0042959
-0.00253148
-0.00368517
-0.003794
-0.0103986
-0.00771349
-0.010222
-0.0122965
-0.00462524
-0.00293386
0.00285814
-0.00350839
-0.0096462
-0.00922976
-0.000294663
0.00043078
-0.00114712
0.00942294
0.00715251
0.00119656
0.00137091
0.00405105
0.00337188
-0.00218945
-0.00436959
-0.00864823
-0.00193271
-0.00550767
-0.0112998
-0.0057522
-0.00024479
-0.00367328
-0.00246148
0.00255932
-0.00101365
0.0052197
0.00129591
0.00212116
-0.00594821
-0.00233655
-0.0049662
-0.00782482
0.000543209
-0.00735422
-0.00748086
-0.00729481
-0.0084902
-0.00919625
0.00212293
0.00555259
-0.000532004
0.0035097
-0.00186232
0.000760406
-0.00996894
-0.00428191
-0.0132667
-0.0112028
-0.000620565
-0.00839004
-0.00755738
-0.01131
-0.00647867
-0.00224152
-0.000807257
-0.00374369
-0.0089422
-0.0124169
-0.0142864
-0.010773
-0.0130704
-0.0157261
-0.0139055
-0.0128999
0.0117979
0.000979131
0.00384792
0.00919178
0.0181508
0.0272798
0.026701
0.0204031
0.00963668
-0.000779756
-0.000959505
-0.00496766
-0.00583043
-0.00410803
-0.00280297
0.00646835
-0.00726312
-0.00841571
-0.00633971
-0.000552904
0.00604286
0.012093
0.00750874
-0.000748807
-0.000932215
-0.0101786
-0.019937
-0.0161301
-0.012283
-0.0155387
-0.0121633
-0.000887382
0.00580704
-0.0020062
-0.00369195
-0.00163084
0.000433495
-0.0120009
-0.0102255
-0.00568258
-0.0153391
-0.0163779
-0.016249
0.000919544
-0.00737889
-0.0106919
-0.0117647
-0.00907681
0.0101293
-0.00326853
0.00494674
-0.00115903
-0.000321369
-0.000116223
-0.00482128
-0.0193349
-0.0171604
-0.00624986
0.000125012
-0.00426662
-0.0144667
-0.0112014
-0.00867857
-0.0088391
0.00563384
0.00177266
-0.000168744
-0.00907694
-0.00361545
0.00353349
0.00583236
-0.00429743
0.00244767
0.00496863
0.0130746
0.0103751
-0.00259408
-0.00733132
-0.0130517
-0.0048908
0.00356183
0.00517838
0.0165351
0.0161029
0.0196682
0.0166473
0.00824471
0.00981707
0.0119352
0.012459
0.0157778
0.00195924
0.000402383
-0.00162532
-0.00464449
0.00308613
0.0130998
0.0196266
0.0269637
0.0279904
0.0218166
0.0182275
0.00826103
0.00457358
0.0191839
0.0176265
0.0106367
0.00341417
-0.000665734
-0.00209241
-0.00914827
0.00671543
0.021088
0.0166537
0.0174295
0.0153651
0.0165433
0.0138517
0.00822891
0.0198679
0.0204236
0.0028265
-0.00108542
0.00338318
-0.000751535
0.00268663
-0.00294974
0.00280557
0.0123195
-8.92682e-05
0.00445218
0.008179
0.00590005
0.00515608
0.0027325
0.00423923
-0.00164244
0.00488937
0.00092712
-0.00208131
-0.00393012
0.00245611
-0.00263035
-0.00065498
0.00297199
-0.00211078
0.00945045
0.00677944
-0.00666431
0.00361976
0.000408157
-0.00432153
-0.00549474
0.00140937
-0.00854779
0.00237822
-0.0097122
-0.0139975
-0.00106029
0.0119482
0.00909311
-0.00359973
-0.00155779
0.00752104
0.00130715
0.00430836
0.00516127
0.00403674
0.00234128
0.00673185
0.00138857
-0.00400202
-0.0043784
-0.0031076
0.000152367
0.00293786
0.0135021
-0.00179398
-0.00112145
0.000145398
0.00541011
0.00850813
0.00499522
0.00165331
0.00738946
0.00198217
1.81115e-05
-0.00265496
-0.0083474
-0.00686228
-0.00365137
-7.16865e-05
0.0072243
-0.00960484
-0.0069353
0.0138347
0.00129462
-0.00351629
-0.00637111
-0.00101445
-0.0047492
-0.00467369
0.00236912
0.00212052
-0.011383
-0.00221077
-0.00770384
-0.00779717
0.00395423
-0.00844288
-0.0111739
-0.00167678
0.00611424
-0.000386326
-0.000642212
-0.00406956
-0.0156101
-0.0144865
-0.0054384
-0.000792764
-0.00426272
-0.000438983
-0.00517467
-0.00186484
0.00257964
0.00311109
8.3962e-05
0.00945473
0.00945225
0.00101765
0.00221236
-5.39987e-05
-0.00980544
-0.00443549
-0.00236566
0.00490406
-0.00875748
-0.0121747
-0.00943377
-0.00987687
0.00852358
-0.00463549
-0.000185737
0.00400787
5.01881e-05
0.00592161
0.0127837
0.00714567
-0.000464984
-0.00633558
-0.00996976
-0.00519751
-0.00558086
-0.0150792
-0.0124305
-0.0136403
-0.000831141
-0.0015832
-0.00115131
0.00304863
0.00137647
-0.00797209
0.00728346
0.00484271
0.00486824
-0.00468995
0.00256509
-0.00213912
-0.00347394
-0.0126547
-0.00268316
-0.00375898
0.00671713
0.00420497
-0.0116951
-0.00625371
0.00173144
-0.00138592
0.00398345
0.00473457
0.00364138
-0.00653279
0.00879218
0.00315796
-0.00353259
-0.00934903
-0.000111847
-0.0010749
0.00415448
-0.00595671
-0.00598777
0.00121629
0.00676141
0.00359925
-0.00314257
-0.00394876
-0.00594729
-0.00776096
-0.00266115
-0.0114052
-0.00452692
-0.00917963
-0.00505087
0.00473804
0.00612573
0.0043812
-0.00106939
-0.00938338
-0.00161668
-0.00359256
-0.0052067
-0.00363736
-0.00248135
-0.00450877
0.00183132
0.00285485
0.00471288
-0.0103297
-0.0164369
0.00118781
0.00909067
-0.00190598
-0.00974885
-0.00588224
-0.00336586
-0.00213541
0.000157581
0.00389848
-0.00423046
-0.00956083
0.00218652
0.00683274
-0.00728698
-0.0178567
-0.0181067
0.00726482
0.00895138
-0.00289533
-0.00626835
-0.00238422
-0.0129467
-0.000620181
0.00408627
-0.0027185
-0.00505029
-0.0041288
-0.00273847
0.00192298
-0.0113493
-0.0118085
-0.00897322
0.000660007
0.00619671
-0.00173373
-0.00545832
0.00338664
0.0125407
0.00577485
0.00446404
0.000155952
0.0032917
0.00216375
0.00137806
0.00206549
0.00461916
-0.00406816
-0.00241895
-0.000540276
0.00775812
-0.000419895
-0.00478718
-0.00399838
0.0026025
0.00112158
0.00256008
-0.00385178
-0.00811914
-0.00645649
0.00201599
0.0072618
0.00533876
-0.00695301
-0.0121551
-0.00608022
0.000215326
-0.00668956
-0.0112239
-0.0141518
-0.00502556
-0.00596768
-0.00932557
-0.0101841
-0.00769024
-0.00111083
0.00881777
0.00315289
0.00278666
-0.00302193
-0.00257441
0.00332014
0.0101514
-0.00837306
-0.0145883
-0.00516765
-0.00104194
-0.0124073
-0.00906217
-0.0156509
-0.008714
-0.00862433
-0.00167693
-0.000181087
-0.00775248
-0.00957627
-0.0146545
-0.00770196
0.00190331
-0.00833892
-0.00979324
5.73947e-06
-0.00406448
-0.0111259
-0.0126139
-0.0141926
-0.0163183
-0.00701139
-0.00557312
-0.00641848
-0.00662509
-0.00226079
-0.0135801
-0.0139978
0.00687383
-0.00384948
-0.00558351
-0.00520272
-0.00821419
-0.0145053
-0.0035744
-0.00841481
-0.0133663
-0.00324629
-0.0128175
-0.00897376
-0.00492858
-0.0126307
-0.00642848
-0.00900926
0.00428871
-0.00656726
-0.0110506
-0.0118528
5.22723e-05
-6.21397e-05
0.00167238
0.00103945
-0.00424003
-0.00230868
0.0018433
0.00563776
-0.00190318
-0.0126464
-0.00919066
-0.00921588
-0.00459565
-0.00225137
-0.0059122
-0.00909169
-0.00414429
0.00263209
0.00168186
-0.00596914
-0.00670828
0.00191439
0.00863922
0.00582332
-0.00612082
-0.0115158
-0.0133926
-0.00827686
0.013331
-0.00759176
-0.0101942
-0.00240974
-0.00877099
-0.00742258
-0.000830857
-0.00459855
-0.00222939
0.00650387
0.00571174
0.00264204
-0.00211149
-0.000942232
-0.00407058
-0.00272437
0.00723146
-0.00437914
-0.00194669
0.00307919
0.00188724
-0.000489268
0.000832387
-0.00157204
-0.000572585
0.00454945
-0.0033993
0.00307522
0.00212151
-0.0016969
-0.00434253
-0.00290125
0.025812
0.013713
-0.00088651
0.00690756
0.0176785
0.0243903
0.029946
0.0345132
0.0262406
0.0128624
0.000361842
-0.00446403
-0.000784501
0.00487341
0.00840425
0.0225161
0.00832829
-0.00115333
-0.00653732
-0.0072146
0.00140206
0.00526856
0.00174576
0.00456281
-0.000163069
-0.00714114
-0.0083754
-0.00293271
0.0050565
0.00597414
0.0068068
0.0202194
0.0229342
0.00848876
0.0118011
0.0135567
0.0011951
0.00349949
0.00790586
-0.00364191
-0.0058971
-0.00856527
0.00215573
0.0134032
0.01456
0.0149022
0.0236457
0.0382491
0.029061
0.021909
0.0223959
0.0107905
0.00564034
0.00641434
-0.00016614
-0.0162147
-0.0127617
-0.0113232
-0.000856399
0.006274
0.0147086
0.00996731
0.0200193
0.035744
0.026468
0.0175541
0.0188945
0.00734876
0.0130932
0.0114329
0.00426531
-0.00246267
0.00385864
0.00495183
0.00544131
0.012505
0.00978501
0.0134549
0.0116896
0.0209592
0.0227751
0.0184702
0.0253336
0.0211591
0.0194132
0.00785509
-9.61e-05
0.00142578
0.00812456
0.00759396
0.010433
0.00542707
0.0106386
0.0137961
0.0201077
0.0270445
0.0296497
0.018044
0.0197227
0.0134963
0.0111845
0.0120156
0.00697928
-0.00370608
-0.00633173
0.0024405
8.60713e-05
-0.0057971
-0.00294556
-0.00248115
0.00370173
0.016989
0.0256616
0.00878566
0.0101821
0.0104273
0.0123745
0.00304135
0.000676973
0.00714261
0.00143361
-0.00908049
-0.013163
-0.00999482
-0.0125998
-0.00794147
-0.00276103
0.0119311
0.0225264
0.00201273
0.00490673
0.00824884
0.00656337
0.00425709
0.00443854
-0.00244642
-0.00500931
0.00225899
0.00231126
-0.0013367
-0.00891318
-0.0105765
-0.0123182
0.000652139
0.00838244
0.000303229
0.00961088
-0.00626866
-0.00634045
0.0042302
0.00608585
-0.000682491
-0.00184633
0.00489485
0.00550272
0.00445707
-0.0045305
-0.0145556
-0.00457307
0.00599085
0.0079049
-0.00382896
0.00382568
-0.00187601
0.00318578
0.0066082
0.00715234
0.0126054
0.00940164
0.00478917
0.00445402
0.00334182
-0.00568878
-0.00466076
-0.0047783
0.00716849
0.0149228
0.00697764
0.00742254
0.00274018
0.013002
0.0140037
0.0212008
0.0104151
0.00961433
0.00605288
0.00337435
-0.00730907
-0.00372025
-0.0188402
-0.00976145
0.0116755
0.00693807
-0.00571874
-0.00689961
-0.00349768
0.00440978
0.0113014
0.0114194
0.000640498
-0.00286905
-0.000315462
0.0028535
-0.00667125
-0.00899118
-0.00834158
-0.0151719
-0.0110755
0.00217664
-0.00338369
-0.00814477
-0.00926965
0.00402363
0.00586611
0.0100379
0.00884901
0.000705034
0.00365229
0.00376318
-0.00148985
-4.28757e-05
0.00315878
0.0102079
0.0195351
0.0109586
0.00911058
0.00457566
0.0106191
0.0029555
-0.00501788
0.00854748
0.00466862
-0.00484486
0.00542724
0.0108581
0.00576843
0.00824989
0.00263835
0.00595643
0.0214025
0.00917542
-0.00721545
-0.00357736
-0.00360663
-0.0079019
0.00595197
0.00480046
-0.00313426
-0.00204403
0.00306743
0.00253878
-0.00349018
-0.00446481
-0.00714004
-0.00199067
0.00874269
0.00229208
-0.00546665
-0.00823212
-0.00577784
-0.00419079
-0.000674785
0.00245865
0.00209989
0.00567158
0.00671929
0.0129354
0.00291301
0.00312009
0.00382963
0.0112039
0.0161231
0.0172858
0.00763119
-0.0032108
-0.00573189
0.00252217
0.00423512
0.00830837
0.0166104
0.0137063
0.020255
0.0241355
0.0103715
0.00266293
0.00130925
0.00283177
0.00742552
0.0231273
0.00517208
-0.000104914
-0.0028059
0.00469922
-0.00119179
0.00524387
0.00904585
0.00446419
0.0102586
0.0113012
-0.000953056
-0.0060268
-0.00205692
0.0111807
0.010571
0.0156368
0.0112688
0.000312967
-0.0149726
-0.007521
-0.00899563
-0.00445369
-0.00278081
-0.00125985
0.00993571
0.0105472
-1.54928e-05
-7.47448e-05
0.000533843
0.00364352
0.019721
0.0100066
-0.00644662
-0.0169641
-0.0141898
-0.0102851
-0.0133103
-0.00331193
0.00131693
0.00123912
0.00351525
0.00648396
0.00224551
-0.00274397
-0.00628888
-0.00443038
0.0236448
0.0205767
-0.00271063
-0.015299
-0.019987
-0.0164423
-0.0112226
-0.00101553
-0.00385538
0.0014623
-0.00106293
0.00609552
-0.00257944
-0.00670425
-0.00533148
0.00149588
0.0179689
0.0262777
0.010655
-0.00278988
-0.0108819
-0.00114145
-0.00369306
-0.00970198
-0.00364455
0.00137682
0.00485761
-0.00788022
-0.011258
-0.0057848
-0.00792304
-0.00932613
0.0107135
0.0199308
0.00427346
0.00147119
-0.00765799
-0.0109722
-0.0198012
-0.0127173
-0.0108971
-0.0091025
-0.00392272
-0.00788973
-0.00873248
-0.00685975
-0.014639
-0.0165242
0.00537846
0.0114295
-0.00136905
-0.00448437
-0.0179967
-0.0207845
-0.0269262
-0.0227368
-0.0160809
-0.0148257
-0.000122746
0.00267373
0.000702288
-0.00208909
-0.00557921
0.000342428
0.0146547
0.00773863
-0.00357842
-0.00179703
-0.00747991
-0.019509
-0.0205837
-0.000142908
-0.00205965
-0.00273842
-0.000887038
-0.00421119
-0.00407509
-0.00989937
-0.0104734
-0.0051589
0.00909477
0.025673
0.0125305
0.0102366
0.00218961
-0.0135138
-0.0109212
-0.00867522
-0.00908883
-0.00242644
-0.00149316
-0.00636105
-0.00571059
-0.00928165
-0.00440456
0.00490422
0.0174838
0.0243236
0.00998961
0.0092224
-0.00113675
-0.0157227
-0.00854164
-0.00400598
-0.00673407
0.0013093
-0.00363692
-0.00966951
-0.00951258
-0.0139039
-0.00821988
0.00603259
0.0134251
0.0236393
0.00517912
-0.00282675
-0.00122707
-0.000781868
-0.000308698
-4.12868e-05
-0.00155377
-0.0103768
-0.00734792
-0.0080576
-0.00411474
-0.00435682
-0.00134937
0.00371903
0.0159382
0.0325183
0.0262708
0.0145918
0.0104755
0.00136667
0.00463074
0.00383316
-0.000231287
0.000898123
0.00286859
-0.00198008
-0.00220163
-0.00411301
-0.00179003
0.0021237
0.0114174
0.0384853
0.0169326
0.0100369
0.0111424
0.00669273
0.00283591
0.00419356
0.00251921
0.000863585
0.00247434
0.00380098
0.00373471
0.00335803
0.00856723
0.00642511
0.0121095
0.0161985
-0.000720707
-0.00144564
0.00199931
-0.00314712
-0.00679876
-0.00860397
-0.0126208
-0.00992284
-0.0115108
-0.00872711
-0.00416791
-0.00222889
-0.00449019
0.0019422
0.0118679
-0.00126579
0.00248049
-0.00117109
0.00110157
-0.000428893
0.0135299
0.0167306
0.0289764
0.0306313
0.0275643
0.013199
0.0133439
0.0131628
0.0137729
0.00995928
0.00845901
-0.0244216
-0.00836907
-0.00532367
-0.0154206
-0.0169443
-0.0147187
-0.00732548
0.00515765
0.00255427
0.00386583
-0.00107823
0.00436991
0.00653461
-0.00121938
0.00134314
-0.00196098
-0.00544437
0.00649186
0.0043476
0.00352372
-0.00993815
-0.0162875
-0.0126434
-0.0101947
-0.00784673
-0.00806375
-0.00449397
0.00898981
0.0137286
0.0141069
0.0156311
0.0175381
0.000406327
0.0112422
0.00440824
0.00619418
-0.000655255
-0.00309449
-0.0122911
-0.0116157
-0.00557037
-0.0125019
-0.0132077
-0.0054276
0.00586969
0.00710886
0.0113418
0.0102921
0.00146746
0.00841765
0.00872519
0.00416332
-0.00113096
-0.000898902
-0.00925429
-0.00661683
-0.00364457
-0.00454044
-0.00171649
0.00378623
0.00252628
0.00344664
0.00227769
-0.00481356
0.00455071
0.0118728
0.0110082
0.00504375
0.00493144
0.0028752
-0.00449158
-0.0041785
-0.00872009
-0.00109407
0.0141433
0.0197607
0.0137216
0.00978268
0.0120205
0.00392481
-0.00511934
0.00767474
0.0056227
0.000649478
0.00761226
0.00986593
0.00413745
-0.00436109
-0.0142236
-0.00281793
2.51768e-05
0.0123884
0.0126216
0.00602896
0.00151493
-0.00945181
-0.00615791
0.00938645
0.00367728
0.0073267
0.0128798
0.00717365
0.00168479
0.0033996
0.000126488
0.00139736
0.00485961
0.00575129
-0.00221878
-0.00479221
-3.00763e-05
-0.0118631
-0.0121419
0.00205624
0.00269593
0.00504749
0.0121473
0.00725092
0.00741274
0.00365573
0.00503186
0.0132007
0.00811954
0.0106542
-0.0078733
-0.015654
-0.0156706
-0.0224785
-0.0159907
-0.00591362
0.00245821
-0.00137272
0.00388059
0.00800121
0.00941074
0.00188032
0.00683993
0.00232681
0.00083027
0.00896873
0.000943012
-0.0189609
-0.0166608
-0.018926
-0.0271226
-0.0111093
-0.00822744
-0.00779992
-0.00464664
0.00014753
-0.00368584
-0.000608864
0.00437332
-0.0039089
0.00463148
0.00142437
-0.00527761
-0.00682717
-0.0117095
-0.0181591
-0.0229938
-0.00417817
-0.00900591
-0.00895062
-0.00959049
-0.00511889
0.00374671
0.00170203
-0.00227313
-0.000517944
-0.000919561
-0.0101823
-0.0100294
-0.0147498
-0.0207492
-0.0173583
-0.0270038
-0.0201245
-0.0214609
-0.0154822
-0.0112305
-0.00432744
-0.00191466
-0.00376121
-0.00732387
-0.00613447
-0.00554452
-0.000825772
-0.0056134
-0.00961316
-0.0212435
-0.0320378
-0.0243446
-0.00582637
-0.0113257
-0.00601127
-0.000835553
0.00164043
-0.0027915
0.00120097
0.00189306
0.00904221
0.0058756
0.00706287
0.00652717
0.0102083
-0.000336145
-0.00754763
-0.0140926
0.00454807
-0.00333489
0.0014646
0.00128013
-0.000699427
-0.00286587
0.00159784
-0.00088819
0.00362568
0.00339114
0.007333
0.00255624
0.00478573
-0.00160029
-0.00651542
-0.0110409
-0.0100256
-0.00878233
-0.00303165
-0.00108333
0.0146434
0.00835842
0.00501627
0.00837263
0.00949688
0.00588629
-0.00197421
-0.002048
-0.00655287
-0.0151554
-0.021186
-0.0105271
0.000744646
-0.00432184
0.00057915
-0.00278977
0.0062139
0.00638734
0.00534242
0.00773463
0.00659567
2.26058e-05
-0.00338656
-0.00747838
-0.00418537
-0.0174146
-0.0209366
-0.000496778
-0.00153338
-0.00720119
-0.00220716
0.0019569
0.00861537
0.00684985
0.0130166
0.0136515
0.0141441
0.00378053
-0.00780945
-0.00885073
-0.0057117
-0.00827012
-0.0142401
-0.00877763
-0.00421166
0.000354993
-0.00709659
-0.000884013
-0.00401495
-0.00221757
0.00803345
0.00522779
0.00564333
-0.0057003
-0.0143598
-0.00816295
-0.00800781
0.00168776
-0.0121249
-0.00506353
-0.00288548
-0.0091907
-0.0198808
-0.0142324
-0.00669261
-0.00736034
-2.44297e-05
-0.00773567
-0.00172563
-0.00944202
-0.0123173
-0.0115311
-0.00558104
-0.0102399
-0.0114442
-0.00294054
-0.00183126
-0.0136369
-0.0100449
-0.00478606
-0.00514642
-0.0134048
-0.0119366
-0.0154736
-0.00915288
-0.00767215
-0.0171431
-0.0157306
-0.0102978
-0.00791855
-0.0161024
-0.0109499
-0.00911994
-0.0151568
-0.0188565
-0.0150152
-0.013391
-0.0170755
-0.0206752
-0.0183975
-0.0152983
-0.0121274
-0.0190449
-0.0141144
0.00066539
-0.000543421
-0.0107377
-0.00849055
-0.00225644
-0.00632855
-0.0142744
-0.00608609
-0.00304967
-0.0119856
-0.0154047
-0.0131285
-0.0178941
-0.0202137
-0.0180796
-0.0105585
-0.00238836
-0.0164881
-0.0128954
-0.0120808
-0.00644854
-0.000743879
-0.00959721
-0.00886112
-0.00439801
-0.00765248
-0.0145023
-0.0146256
-0.0126834
-0.0134653
-0.013243
-0.0181889
-0.0200911
-0.0166537
-0.0161546
-0.0136773
-0.00355937
-0.00284113
-0.0118767
-0.0177088
-0.0106428
-0.00868524
-0.0175375
-0.0153786
-0.0120274
-0.0144245
-0.0116231
-0.0136318
-0.0153453
-0.00470447
-0.00832565
-0.00812917
-0.00387012
-0.0006338
-0.0138782
-0.0153818
-0.0108814
-0.011212
-0.0059008
-0.00518552
-0.00975079
-0.0227687
-0.0215728
-0.0160565
-0.0130077
-0.00144307
-0.00232391
-0.00344628
0.00230775
1.9182e-05
-0.00404152
-0.00808687
-0.00758366
-0.00885147
-0.0151403
-0.012159
-0.0145182
-0.0154804
-0.0206809
-0.0205539
-0.0105412
-0.0027436
-0.00419278
0.00429432
0.0100106
0.00292678
-0.000506775
-0.00722593
-0.0025411
0.000337364
-0.00611625
-0.00827086
-0.00740113
-0.0170943
-0.0206327
-0.0135317
-0.00518872
0.00142294
-0.00101553
0.0113725
0.00874939
0.00657404
0.00293537
-0.00109207
-0.00540178
-0.00392478
-0.00368043
-0.00509233
-0.00653812
-0.00965353
-0.00505853
-0.0083919
0.00242126
0.00794387
0.00613834
0.0126728
0.019781
0.0131535
0.00848659
0.00108854
0.00145505
-0.00118052
0.00518273
0.00996347
0.000285721
0.000114583
0.00252663
0.00416179
0.00776049
0.0130304
0.00749679
0.0077097
0.0143969
0.00813739
0.00984276
0.0042651
0.00912809
0.00751666
0.00593621
0.00923076
0.00673706
0.00776181
0.00480832
0.00551453
0.0126116
0.0156641
0.00999163
0.00312881
0.00914407
-0.000300933
-0.000713966
0.0080806
0.0111279
0.0113927
0.00370496
-0.00138461
-0.00238789
0.00298922
0.00773682
0.00581047
0.00737593
0.0121094
0.00961332
0.0110559
0.0023971
0.000761705
-0.00608426
-0.0132665
-0.0137375
0.00970711
0.0255813
0.0298133
0.0280482
0.0280938
0.0310765
0.0163222
0.00614599
0.0050412
0.0136914
-0.000800186
-0.00356001
-0.000865219
-0.0184106
-0.0203793
-0.0226344
-0.0149461
0.00755664
0.0177917
0.0206759
0.0211869
0.0110692
0.00627409
-0.015375
-0.0105085
0.00454182
0.00833756
-0.00173475
-0.00043085
-0.00548452
-0.006065
-0.0200925
-0.0139769
-0.0151453
0.00451204
-0.00722333
0.000215642
0.00460963
-0.00539336
-0.00696101
-0.00513656
0.00739714
0.00613459
-0.0029855
-0.0107153
0.00217102
0.00386793
-0.000101528
-0.00774043
-0.00733384
0.00600894
0.00467968
-0.00189571
-0.00153612
-0.00702563
-0.0148823
-0.00471423
0.00831435
-0.00154407
0.000451807
-0.00211876
-0.00154754
0.0073079
0.0130571
0.00630917
0.00584739
0.00250105
0.0135254
0.0118259
0.014446
0.0111714
-0.00193829
0.00206349
0.00428345
0.00150499
0.00811047
0.00672377
-0.00294631
0.00498569
0.00900374
0.00407386
0.00258672
-0.00233555
0.0128126
0.0242868
0.0305063
0.0299516
0.0246446
0.0204268
0.0211286
0.0136442
0.00689911
-0.00213273
-0.0044558
0.00755255
0.0142125
0.0175218
0.016039
0.00445084
0.0145559
0.0206099
0.0336079
0.0316683
0.0249547
0.0220857
0.0285411
0.0172798
0.0150782
0.00341049
-0.00111483
0.00869566
0.00969646
0.0166356
0.0199
0.0168338
0.0118954
0.0184417
0.0235655
0.0247899
0.0200638
0.0218922
0.0266323
0.0128825
0.0124389
0.0080402
-0.0027477
0.012378
0.0132567
0.000226833
-0.000899192
0.00581334
0.00124346
0.00412326
0.0202259
0.0128398
0.00658088
0.00783319
0.0210028
0.0184069
0.00592669
0.00553818
0.00193761
0.00812373
0.00437388
0.00758349
-0.0072417
-0.0021382
-0.00437305
-0.0043097
0.00415997
0.011739
0.0061114
0.0147918
0.01401
0.0182904
0.00662954
0.013475
0.00206959
-0.0011281
0.00747633
0.00669142
0.00639514
0.00627536
-0.00212179
-0.00377953
0.0131658
0.0133595
0.0133512
0.0112101
0.0221762
0.015245
0.0046716
0.0101274
0.000885216
-0.00451039
0.00188284
0.00606757
0.00856728
0.00539023
0.00302383
-0.00714188
0.0045195
0.0097711
0.0136475
0.0119215
0.0219628
0.00496348
-0.000834141
0.000658907
0.00758476
0.00305639
0.00221365
-0.0039821
0.00451149
0.00625622
0.007993
-0.000538454
0.000599103
0.00209579
0.00759044
0.00865996
0.0092777
0.00851245
0.00544367
0.00522916
0.00897408
0.008195
-0.00170175
-0.00749528
-0.00397523
0.00162704
0.00483899
-0.00227724
0.00599369
0.0016524
0.00426281
0.0138641
0.0198958
0.0142643
0.00745143
-0.00305364
0.0144478
0.00785352
0.00240949
-0.000100559
-0.00060423
0.00299216
0.000887021
-0.00713086
0.00900503
0.00782296
0.00361253
0.00719301
0.0226208
0.0162111
0.011177
0.000277044
0.000674053
0.00237982
0.0135216
0.00779101
0.00407452
0.0100331
0.00180785
-0.000184319
0.00216805
0.00386695
0.00445408
-0.000764643
0.00361561
0.013679
0.0129513
0.0110293
0.0086602
0.00477023
0.0129638
0.00626623
0.00506541
0.00762188
0.00772717
-0.0018358
2.58562e-05
0.00209944
0.0030517
-0.00635488
0.00948037
0.00870323
0.0154792
0.0115641
0.0108788
0.0154808
0.0186378
0.0199086
0.0174994
0.0154472
0.0107177
-0.000813391
0.000491473
-0.000172658
0.00113694
0.00262282
0.0211239
0.0158247
0.00788723
0.00768325
0.0137498
0.010929
0.0087872
0.0143078
0.0122536
0.00748344
0.00746875
-0.00845255
-0.00310126
-0.00383677
0.00139066
0.00962907
0.0188035
0.0233386
0.00612013
0.00319247
0.00485144
0.00178317
0.00858796
0.0102428
0.0109514
0.00750229
0.00892274
-0.0124239
-0.00357115
-0.0018974
-0.00323625
0.00280381
0.00707007
0.0179065
0.00832498
-0.00115649
0.00614426
0.00984477
0.0105643
0.00173879
0.00364983
0.00271261
0.00750533
-0.00213668
-0.00840496
-0.00457958
-0.00168292
0.00815816
0.00684566
0.0072904
-0.000410848
-0.00441284
0.00406142
0.00580569
-0.00799962
-0.00565005
-0.00489719
-0.000855531
0.00594388
0.00282899
0.00229527
0.0102089
0.0168082
0.0112377
0.0184269
0.00800909
3.06941e-05
0.000669647
0.00130817
0.0116135
0.00809943
0.00530075
0.00317303
-0.000344792
0.00140123
0.00648701
0.0122774
0.0100345
0.0152167
0.00510781
0.0195544
0.0110452
0.000542188
0.00785699
0.00562831
-0.00247244
0.00797521
0.011639
0.00492999
0.00739068
0.0105795
0.00622374
0.00599703
-0.00746954
-0.00442671
-0.001281
0.00338111
-0.000423269
-0.00305335
0.00585734
0.00685829
0.00748811
0.0120573
0.00277061
-0.00375838
-0.000517485
0.00532838
0.00740547
0.0146516
0.00278024
-0.000793365
0.00577277
0.00915483
-0.00212216
-0.00762944
0.00724863
0.00624355
0.0137803
0.0152557
0.00514015
0.00341394
-0.00174853
-0.000133767
0.00334815
0.000744289
-0.00750069
-0.00579655
0.0038107
0.0126943
0.00692892
0.00544671
0.0102583
0.0114231
0.0129762
0.0145586
0.0114979
-0.00280093
-0.00656013
-0.00884401
-0.00219919
-0.00236574
-0.00952161
-0.000558607
0.00472306
0.00694583
0.00623064
-0.00160997
0.0062019
0.00533373
0.00790112
0.00763755
0.0138091
0.00608738
0.00106526
0.00152783
-0.00151901
0.00449542
0.00243213
0.00233107
0.00396895
0.0146798
0.00170233
-0.00299867
0.00440761
0.0110624
0.00931338
0.00646314
0.00160212
0.00119563
0.00799078
0.00185739
-0.00883723
0.0040103
0.000669428
-0.00176156
0.0022128
0.016067
0.00365188
0.00771583
0.00902958
0.0155662
0.00635057
0.0116018
0.00315453
0.00901244
0.0119354
0.0122073
0.00828165
0.0059165
0.00105353
-0.00180509
-0.000370133
0.0174254
-0.000868143
0.00276023
0.000930281
0.00655979
-0.00381366
0.00489255
0.010473
0.0138154
0.011678
0.0199705
0.0104195
0.00686991
0.00848544
0.00308536
0.00399105
0.0168648
0.00402711
0.0160273
0.00737957
-0.000204419
0.00937774
0.0150884
0.0177567
0.0112311
0.00117891
0.00533626
0.0128348
0.0107757
0.00438097
-0.00146317
-0.00609258
0.000202071
-0.0107697
-0.0049342
-0.010366
-0.0182569
-0.0100753
-0.0158675
-0.00452733
0.00246722
0.00958053
0.0130692
0.00951437
0.0175291
0.00565517
-0.00646145
-0.00600578
-0.000854053
-0.0095056
-0.0103635
-0.00593268
-0.0133171
-0.0185825
-0.0138553
-0.0137047
-0.000389361
0.0107055
0.0154049
0.0141203
0.0126128
0.00644987
-0.00793109
-0.00796625
0.000371139
-0.00394627
-0.00820986
-0.0102746
-0.00899023
-0.0200983
-0.0145678
-0.00942845
-0.0106771
8.47351e-05
-0.00517535
-0.000957341
0.00630437
0.00124259
-0.00537514
-0.00975706
0.00456033
-0.00557359
-0.0127007
-0.0104723
-0.00365746
0.00179406
-0.00499449
0.0015733
-0.0107478
-0.000334501
-0.00319071
-0.014927
-0.0109734
-0.0036085
-0.0105568
-0.0111018
0.00502231
-0.00680764
-0.0118104
-0.0156224
-0.00665662
0.00154913
0.00597551
0.0092095
0.00538587
-0.00671228
0.00180204
-0.00825511
-0.00936498
-0.00337832
-0.00399607
-0.00598908
-0.00107048
0.000444776
-0.00664311
-0.0108581
-0.0057668
0.000743975
0.000486981
-0.00185142
-0.00420102
-0.00215355
0.00368591
0.00631697
0.00819276
0.00817889
0.00429974
-0.00288515
0.0049968
-0.00294698
-0.00162333
-0.00471762
-0.00276009
0.0103248
0.00399602
-0.00402944
-0.00534484
0.00469166
0.00597915
0.00914214
0.00849302
0.0136469
0.0174628
0.015411
0.0210555
0.00170455
0.00216118
-9.99753e-06
0.000207171
0.00584502
0.00259419
-0.00273684
-0.00291526
0.00357863
0.00400716
0.0124336
0.00873172
0.0130516
0.0136108
0.0136055
0.0121522
0.0015482
-0.00150871
-0.00354785
0.00695126
0.0139645
0.00880612
-0.00519234
-0.00380266
0.0014218
0.00139104
0.00534538
0.00978943
0.00389761
0.00268056
0.0107343
0.0118487
0.0129991
-0.00427209
-0.00122563
0.0102138
0.014259
0.0059565
0.00041395
-0.00588517
0.000526754
-0.00451604
0.00308883
0.00396728
0.00641523
0.00690412
0.0119543
0.015363
-0.00291391
-0.00761908
0.00293829
0.00180453
0.00401579
0.00501417
-0.000131411
-0.0100921
-0.00503853
-0.00126181
-0.00198958
0.000602344
0.00880461
0.00850384
0.011405
0.0175494
-0.000353146
-0.00601172
-0.00435184
-0.00230179
-0.00389
0.000297392
-0.000516827
0.000162972
-0.00498192
0.00253833
-0.00642239
-0.00320351
0.0060282
0.00699129
0.00303017
0.0154058
0.00563065
-0.000636419
-0.00154721
-0.00328585
0.00159583
0.000446963
-0.00681804
-0.00171677
0.00555511
0.00858117
0.00516693
-0.00386587
0.00424218
0.00620892
0.00315906
0.00768299
0.0013025
-0.00562803
-0.00451426
0.00307375
-2.74241e-05
-0.00354042
0.00213212
-0.00672268
0.00562664
0.0086192
0.00790294
0.00349278
-0.00124863
0.00350019
0.00779495
0.0169471
0.00122922
-0.00693021
-0.00884608
-0.00512988
-0.00270977
-0.00287633
-5.88797e-05
-0.00449636
0.00474204
0.00347838
0.00666562
0.00718923
0.00300681
-0.00284983
-0.00183886
0.0156698
-0.00299649
-0.00160173
-0.00423383
-0.0118249
-0.00557732
0.000496938
-0.000399139
-0.00344668
-0.00155063
-0.00289732
0.00168023
0.000350002
0.00752113
-0.0024665
-0.00703789
-0.00168866
-0.00563007
-0.000675986
0.00519051
-0.00448922
-0.007842
0.000581472
-0.0131423
-0.00556779
-0.00474125
-0.00314122
-0.002921
-0.00779219
-0.000902375
0.00414875
-0.0105642
0.00685119
-0.000921487
-0.00115713
0.0028249
-0.00261573
0.00305271
0.0054309
0.00359584
-0.00238386
-0.0040949
0.00382092
-0.00503173
-0.00323667
-0.00224467
0.0019877
-0.00244582
0.010113
0.00594936
-0.00205007
-0.00300144
-0.000299311
-0.00114612
0.000847579
0.00222973
-0.00157648
-0.00214023
0.0022771
-0.00320615
0.00384371
0.000303392
0.00379359
0.00830627
0.00858704
0.00560706
-0.0001953
-0.000922638
-0.00543878
0.000401836
0.00456355
0.00262435
0.00336026
0.00401699
0.00144715
-0.00400721
0.0016526
0.00142762
0.00441163
0.0117284
0.00422698
0.00708794
0.000534396
-0.00542219
-0.00187238
0.00690607
0.0057718
0.000442653
3.53608e-05
0.00688216
0.0070314
0.00638154
0.00101401
0.00940172
0.00793806
0.0126626
0.00564829
-0.000153667
-0.00439428
-0.00448079
-0.000199129
0.0129708
0.0093251
0.00238705
0.000815573
0.00462398
0.00437836
0.00990127
0.00979921
0.0107953
0.00433136
0.00572307
0.0165098
-0.00394156
-0.00333717
-0.000414943
0.00222991
0.00223415
0.00373878
0.00811658
0.0026745
0.00283216
0.00730327
0.00789509
0.00929761
0.0106357
0.0128955
0.00615938
0.0122971
-0.00597521
-0.00641743
0.00559493
0.00112761
0.00179256
-0.00119674
0.00448885
-0.00294246
0.00144961
0.0129304
0.00752679
0.00557732
0.00205405
0.00807816
0.00506443
0.00442778
-0.00935522
-0.00079053
0.00247471
0.00826208
0.003704
-0.00293842
-0.00298309
0.000542677
-0.00626726
0.00352148
0.00382977
0.0146246
0.00851319
0.0109747
0.0074781
0.0050006
-0.00946972
0.00150424
0.00745385
0.00218544
-0.00117462
0.00529484
-0.00580828
0.00448332
-0.00371676
-0.00370683
0.00226497
0.00520823
0.00688142
0.00592942
0.000674327
0.00292262
-0.00813187
-0.00321435
0.00551314
-0.00479024
0.00218348
0.00823097
0.003186
-0.00193743
-0.00298742
-0.0016793
0.00301511
0.00175095
0.00378482
0.00443264
-0.000330104
0.00070051
-0.00512346
-0.00913403
-0.000270112
-0.000789698
0.0013045
0.0061629
0.00818985
0.00239889
-0.00196078
-9.89407e-05
0.00709431
0.00536605
0.00338062
0.00450342
0.00143642
0.00382506
-0.0072578
-0.00389721
-0.0075498
0.00277723
0.000295144
0.00240607
0.00161546
0.0011976
0.00367144
0.010441
0.00685098
0.00114311
0.00614891
0.000926266
0.00315776
0.00509928
-0.0125995
-0.00436195
-0.0030643
0.00494616
-0.00587576
-0.00180042
0.00660273
0.00488255
0.00169567
0.0131813
0.0154365
-0.00530805
-0.000764716
-0.00333678
0.00091236
0.00522729
-0.0153786
-0.0102303
-0.00648399
0.000159739
-0.00505682
-0.00349464
0.0012062
0.00228074
-0.00424362
0.00696642
0.00677183
0.000406198
0.002074
-0.00351207
-0.0067748
-0.00325802
-0.015458
-0.0052825
-0.00835746
-0.00485821
-0.00129966
-0.00607231
-0.00779573
-0.00624896
-0.0084899
-0.00144265
-0.00753455
-0.00372995
-0.00268333
-0.00328692
-0.016829
-0.0219873
-0.0166416
0.00158277
-0.00539285
-0.00438497
-0.00766039
-0.0141045
-0.00585973
-0.00439508
-0.00565098
0.00222757
0.00612355
0.000874645
-0.00395204
-0.00568724
-0.000268206
-0.00110607
-0.00273581
0.00417891
0.0013778
-0.011369
-0.011928
-0.0115007
-0.0185709
-0.00288379
0.00521708
0.0101363
0.0122557
0.00632473
0.00381503
-0.00745503
-0.0021884
0.00308173
-0.00213159
-0.00152672
-0.00883053
-0.0117972
-0.0114145
-0.0141964
-0.0111054
-0.00740943
0.00204505
0.000647021
-0.000874316
-0.00282388
0.00360893
-0.0083863
-0.00704351
0.00378895
-0.0122726
-0.00934135
-0.0124117
-0.00413594
0.00246835
-0.00578001
-0.00133802
-0.00595328
0.00138695
-0.00331412
-0.0101588
-0.0163218
-0.00501732
-0.00272336
-0.00749875
-0.00342174
-0.0126505
-0.0110379
-0.0171974
-0.00565103
-0.00463823
-0.00455582
-0.00546131
0.00243847
-0.0113917
-0.00172359
-0.00806299
-0.0104983
-0.00676221
-0.00257882
-0.00592028
-0.00101648
-0.00325844
-0.00795764
-0.0148932
-0.0113068
-0.00667028
-0.00846021
-0.0143805
-0.0054602
-0.0140493
-0.00729067
-0.00527423
0.000901429
-0.00161428
-0.00427277
-0.00223951
-0.0036597
-0.012756
-0.00610623
-0.0119563
-0.00906729
-0.00108936
0.00163947
-0.00990994
-0.0126711
-0.00371495
-0.00103172
-0.000399884
-0.00603629
0.0130248
0.00527242
0.00803823
0.00564268
-0.0106199
-0.00298153
-0.00454589
0.00118658
0.00289795
0.00435425
-0.00350769
-0.0116049
-0.00302522
0.00526648
0.00800416
-0.00246782
0.00729919
0.0105278
0.0115848
0.00649032
-0.00585096
0.00426686
-0.00374926
-0.000717001
0.00829862
0.00462802
-0.00133218
0.000106878
0.00148102
0.00331985
0.00515377
0.00426408
0.0102749
0.0095822
0.0109753
0.00714417
0.00239659
0.00341211
-0.00901758
-0.000632282
0.0125226
0.00391951
-0.0111792
-0.00231268
-0.00219165
-0.00143763
-0.00173842
-0.00720196
0.00238907
0.00560754
0.0026697
0.0147389
-0.0101862
-0.000669751
-0.00490398
-0.00270394
0.00121671
0.000363799
-0.00960104
-0.00549496
-0.00398534
-0.00170632
-0.00756904
-0.0138714
-0.00208991
0.00457111
0.00213318
0.015974
-0.00590875
-0.0063565
-0.00714087
-0.00135483
-0.00827038
-0.0046085
-0.00976294
-0.00312658
-0.00543844
0.00255853
-0.00100452
-0.0077623
8.17447e-06
0.000235813
0.000519786
0.00958665
-0.00075828
0.000431756
-0.00817773
-0.00442954
-0.00681549
-0.00789354
-0.00655912
-0.00344723
-0.00519498
0.0068657
0.00186066
-0.00875956
-0.00135033
