-0.0590591
0.0752532
-0.0455636
-0.140306
-0.0123682
-0.076094
-0.0954855
0.022161
0.0336707
-0.0412083
-0.116904
-0.0482785
0.158005
-0.0229692
-0.099758
-0.0740771
0.0831599
0.0668146
0.0180759
0.13306
-0.00908859
0.290454
-0.0218692
0.109266
0.0196624
0.0697014
0.241789
-0.0280063
0.195435
0.132693
0.304429
0.189382
-0.091703
0.112847
0.187466
0.0983132
0.00866666
0.206167
0.0239266
0.0302488
-0.0581012
0.0317252
-0.0506443
0.185644
-0.0912942
-0.000553272
0.109874
0.0506895
-0.042365
0.0977552
0.100108
0.0573998
0.0310822
0.00211851
-0.0733543
-0.0772032
0.0136722
-0.201057
-0.156004
-0.0680853
0.0960484
-0.0380879
0.182504
0.00128059
0.0152115
0.125159
0.178688
-0.013224
0.146384
0.0790953
-0.0473246
0.041451
0.104693
-0.297697
0.0374283
-0.0678783
0.0901377
0.0859077
-0.00155919
-0.0182837
-0.117662
-0.0471123
0.0823339
-0.000253129
-0.119822
-0.199235
0.0750798
0.185902
-0.0725942
-0.0247618
0.125837
-0.0454272
-0.0123927
0.184517
0.159331
0.0440204
-0.0752166
0.106556
0.0301924
-0.056505
-0.0790079
-0.103826
-0.198204
0.013861
-0.00859324
0.0367357
0.119724
-0.172497
-0.0300506
-0.0467795
0.134021
0.0325825
0.113816
-0.0621952
-0.0651317
-0.0201496
-0.0502295
-0.0262229
0.0647131
-0.0537721
-0.181741
-0.126397
-0.148682
-0.0981474
-0.0239495
-0.111432
0.0520554
0.138232
-0.0851122
0.210363
-0.00803143
0.123036
0.0915187
0.0744505
-0.00723854
-0.102043
0.0750083
-0.0857082
-0.093765
-0.0869133
0.0944184
0.061886
-0.0803163
-0.133515
0.18416
0.179107
-0.0210705
-0.0835453
0.0867609
0.0162208
0.045531
0.139627
-0.0605803
-0.019131
-0.0796246
0.0870279
0.0893737
0.0165296
-0.0398233
-0.00939659
-0.00165787
-0.06817
0.0697907
-0.042732
0.181144
0.10826
0.00517169
0.00480478
-0.0424004
0.0676005
-0.0643009
-0.124463
0.082736
-0.128499
-0.100787
0.0926771
0.0637802
0.167459
-0.0121118
0.0155881
-0.049672
-0.164984
0.0204306
-0.00981095
-0.0205922
0.0108864
-0.107026
0.0141207
0.0068147
0.14027
0.171698
0.0208685
-0.032009
0.00968928
-0.0115676
-0.345985
0.00646228
-0.0277963
-0.0892336
-0.108462
-0.0250808
-0.0984144
-0.147823
-0.130377
-0.0412808
0.0273698
0.161006
0.230957
0.138888
-0.157336
-0.255299
-0.113638
-0.186206
-0.180493
-0.0296915
-0.212095
-0.0293788
-0.100352
0.11238
-0.14951
0.0595061
-0.0575553
-0.00622432
-0.0389398
-0.0951709
0.0761548
0.000906282
-0.0960121
0.110636
0.106675
0.030479
-0.131992
-0.0122901
0.0060481
-0.0288223
-0.0206921
0.00902105
-0.0987942
-0.217472
-0.118616
-0.0597004
-0.0385706
-0.0527937
-0.126151
0.00662234
-0.0886152
-0.0371492
-0.13462
0.0927074
-0.119177
-0.0152706
-0.199799
-0.0971928
-0.0470025
0.162429
0.00506707
-0.0769507
-0.108253
-0.0548285
0.18047
-0.019566
-0.0564811
-0.110265
-0.0632751
-0.129249
-0.088567
-0.0231126
0.128834
-0.0149447
-0.310287
0.149849
0.0850751
-0.0142179
0.0194325
0.100478
-0.186395
-0.0167144
-0.172527
-0.0772761
-0.0748422
0.0282373
-0.18423
-0.268552
0.0043941
-0.0295732
-0.0105573
0.0965004
0.00777354
-0.0867204
0.150781
-0.0294566
-0.0740246
0.0609707
0.0165869
-0.146479
-0.0083213
0.0420067
0.0996117
-0.268769
-0.0202791
-0.076306
0.0388673
-0.0045061
-0.023866
0.0820409
0.115409
0.0790342
-0.0803043
-0.127721
0.0524074
-0.00314765
-0.0535766
-0.1107
-0.172441
-0.00558031
-0.2169
-0.158139
-0.0158363
-0.0432844
0.0343556
-0.0478214
-0.0213066
0.0222088
-0.0126609
-0.212912
-0.299556
-0.0881893
-0.0634434
-0.0734301
-0.221709
-0.310752
0.104583
0.136661
-0.010789
-0.0039515
-0.00310176
-0.0818621
-0.146839
-0.212007
-0.194246
-0.175577
-0.032074
-0.00197253
-0.127301
-0.0238728
-0.078475
-0.102042
-0.157771
-0.0404689
0.134257
0.0369066
0.00881563
-0.0324344
-0.0826996
0.111288
0.0173582
0.0906649
-0.148211
-0.0329785
-0.119267
0.0884322
-0.0911727
0.0143798
-0.0613796
0.0490886
-0.0856327
-0.0226092
-0.0960417
-0.0865465
-0.062144
0.0866294
-0.0535541
0.00655996
-0.156718
-0.106563
-0.0281464
0.0560549
-0.0352357
-0.117022
-0.0492892
-0.0583271
-0.0640314
0.0264436
0.0134288
-0.155395
0.105113
-0.136479
0.158314
-0.167666
-0.0570364
-0.0174328
-0.179672
0.0336099
-0.111651
-0.145704
-0.0395599
-0.0827439
0.0645302
0.145034
-0.044783
-0.0578281
0.0114994
-0.0905935
0.0503546
0.0316118
0.0881385
-0.024309
-0.144093
-0.173044
-0.217936
-0.21789
0.0899016
-0.0798632
-0.190578
-0.0154244
-0.105488
0.0235095
-0.0614734
0.0684395
0.0926761
0.0278939
0.0726128
-0.070702
-0.0137455
-0.108659
-0.0459869
-0.150283
-0.0666457
-0.128161
-0.167982
-0.171522
-0.0173625
-0.106108
0.0158124
-0.0737381
0.198968
-0.103148
-0.075439
-0.018053
-0.118146
0.0929842
-0.132116
-0.00772265
-0.22415
0.167403
-0.049514
-0.00767135
0.125584
-0.00842276
0.116405
-0.154969
-0.00155522
-0.0700893
-0.291248
-0.0876531
-0.106089
0.0185551
-0.0186701
-0.0864167
-0.0605863
-0.258855
0.0218523
0.0881982
0.137179
-0.191907
0.0551592
0.116225
-0.0855938
0.0466884
-0.0951947
0.00313606
-0.169055
-0.187459
-0.0117561
-0.107533
-0.0663534
-0.0211837
-0.0365482
-0.216702
-0.075918
-0.22638
-0.0813903
-0.131009
0.0871743
0.00870563
-0.165337
0.161063
0.117896
0.038217
0.0804462
-0.0582037
-0.0223121
0.0546045
-0.145064
0.11989
0.133984
-0.425674
-0.156661
-0.287006
-0.192941
-0.232781
-0.152547
-0.123612
-0.165755
-0.147268
-0.0400252
-0.0433351
-0.309934
-0.0273266
0.120284
-0.0145836
-0.0718853
-0.0305415
-0.156967
0.115198
-0.0191432
0.106557
-0.0792575
0.0122308
-0.0296217
0.187811
0.0553423
0.113171
0.0817039
-0.139142
-0.0241466
0.181224
0.000177037
0.129824
-0.0158309
0.0184819
0.0478826
-0.0630287
0.0303055
-0.0206415
0.0603424
-0.0661628
-0.116893
0.035908
0.0622083
0.0746978
0.190014
-0.0743835
-0.0107261
0.00875146
0.0497969
-0.00550528
-0.0859138
0.0417334
-0.0475726
0.0359049
-0.0915105
0.0187058
-0.0357121
0.0474429
0.0663312
-0.0980217
-0.0380871
-0.0118721
-0.0542034
0.215651
0.0398299
0.0475741
0.00776867
-0.074461
0.089232
0.0490423
-0.1551
0.0812515
0.197781
-0.0427353
-0.016516
0.0551912
-0.040097
-0.212556
-0.0579039
-0.0854604
-0.150854
0.0790954
-0.0393017
0.054189
-0.150609
-0.101765
-0.0299918
0.0200257
-0.0815793
-0.0658225
-0.144368
-0.0601535
0.0173513
0.0299317
-0.0262302
0.0109359
-0.0136341
-0.061839
-0.0276099
-0.0195895
-0.0470358
-0.0290179
-0.209656
-0.060055
-0.0913457
0.0833816
-0.00154186
0.00573981
0.0460738
-0.0325929
0.0546193
-0.0407405
0.097208
0.200106
-0.0827915
0.0719085
-0.1634
-0.298115
-0.144347
-0.014781
0.0293026
-0.079562
-0.306126
-0.0468748
-0.0709214
-0.0643233
-0.0277922
0.0648195
0.361125
0.204196
0.0531941
-0.0269579
-0.0472849
-0.00716517
0.0870012
0.0850752
-0.023083
-0.106744
0.0209614
-0.0697893
0.0866581
0.013812
0.00670115
0.044931
0.0700152
0.0445944
0.156739
-0.0497211
0.117224
0.0439485
0.0736536
-0.038806
0.0502119
-0.0314082
-0.0641738
-0.126078
-0.0178311
0.11303
-0.0541061
-0.18721
0.1464
-0.0281319
0.033859
0.0402258
0.0939759
-0.0980596
-0.0836091
0.0823686
0.134697
-0.0306695
0.070531
-0.00603514
0.00315464
-0.156412
0.0183003
0.170216
0.103097
0.0375624
0.327397
-0.0358188
0.116315
-0.0815556
0.0618125
-0.0126109
-0.027278
-0.0982545
0.0789401
-0.135048
-0.073469
-0.0810692
0.0182744
-0.0960784
0.165508
0.0907602
-0.0298542
-0.119506
0.205233
0.185874
0.0614897
-0.0583806
-0.101545
-0.0500174
0.142451
-0.0416667
0.0130884
0.0752485
-0.0492221
-0.0801826
0.00795762
0.195108
0.00853053
-0.00939038
-0.0176756
0.0928698
-0.00911266
-0.0408369
-0.105992
0.131798
0.0637469
0.0672299
-0.0570807
0.139042
-0.0524328
-0.0856994
0.149293
-0.0502578
-0.0809279
0.00194733
-0.0937578
0.148754
-0.0290537
-0.164959
0.106698
-0.0658836
-0.0863457
0.0447492
0.0814412
0.101938
-0.0726771
-0.113555
0.151594
-0.000555064
-0.0938102
0.0384121
-0.0106121
0.0256345
-0.00353312
0.0439659
0.13776
-0.0603202
0.117738
-0.0865712
0.0359942
-0.0896895
0.174717
0.173313
0.118571
0.18076
0.0721983
0.00916131
0.0368257
0.082351
0.138796
-0.0351008
0.112142
-0.0840831
0.0147988
0.0193958
0.0814961
0.0076656
-0.0550683
-0.0145236
-0.0192645
0.103376
0.0852003
0.312667
0.11059
0.0088167
0.0685029
0.138848
-0.157618
-0.108697
0.0511948
0.0984729
0.143658
0.0677526
0.0839988
-0.0342827
0.015861
-0.0354847
0.098578
-0.113448
0.0552331
0.0355999
-0.0784258
0.326304
-0.00610577
-0.017643
-0.0891909
-0.0450269
-0.0593
0.170889
0.14565
-0.0363301
-0.0111517
-0.103409
0.318907
-0.115788
0.190847
-0.0314569
-0.148613
-0.0522493
-0.107147
-0.0984714
0.101521
0.0903451
0.0635012
0.2969
0.113762
0.0891059
0.16021
-0.00801102
0.117764
0.0382312
-0.022606
-0.0668613
-0.0898174
-0.00572661
0.182137
-0.0450342
-0.0378755
-0.0719999
0.0595572
0.0201999
-0.140875
-0.158902
0.107807
-0.0623908
0.0479283
0.0214542
0.0479108
0.0899162
0.154947
0.0749839
0.136586
0.0394229
-0.0243182
0.00362514
0.0857075
-0.134659
-0.0185528
-0.0136731
-0.0774135
-0.133441
0.0564944
-0.049619
0.000285133
-0.0323823
0.0943834
-0.0112973
0.0976713
0.199847
0.052276
0.193586
-0.271553
0.0430059
-0.0555887
0.026598
0.0340751
-0.0233163
-0.101707
0.17479
0.120186
0.158027
0.0682007
-0.0935825
-0.0573938
-0.160521
-0.152098
-0.0900591
-0.0262944
0.0646241
0.0292916
-0.148593
-0.18454
0.287998
0.0364377
-0.0454997
0.0558493
-0.135832
0.0163424
-0.0711704
-0.157001
-0.167785
-0.0591052
-0.00342047
0.0918736
0.0774753
-0.088964
0.0968279
0.0340186
0.0939826
-0.142216
0.0154815
-0.255245
0.069997
0.0606671
-0.0173272
0.0314448
0.0424159
0.0141618
0.114581
0.253859
0.0760614
0.00226253
0.0277648
0.0688037
-0.0176385
0.130566
-0.15059
-0.0409161
-0.0782616
-0.0493708
-0.0733234
0.157878
0.037423
0.134584
0.097499
0.129125
0.0572924
-0.0530676
-0.0258789
0.0667355
0.00521123
0.0307774
0.066945
0.0649835
0.180336
0.0383692
-0.100223
-0.111511
0.0829273
-0.0433721
0.0496361
-0.0182063
-0.0650657
-0.0856585
-0.102184
-0.172402
-0.0704128
-0.0722861
0.0750079
0.0463277
0.00952713
-0.0771045
0.0403887
0.231261
-0.103046
0.0597173
0.0721446
0.171891
0.056603
0.128465
0.0713121
-0.00587078
0.073991
-0.00891916
-0.0587976
0.251997
0.173624
-0.0766567
0.200662
0.0601651
0.0299178
-0.00180598
0.0858901
0.116765
0.0422623
0.0205278
-0.0978926
0.0146048
0.136269
-0.0328373
0.0214639
-0.00320052
0.0702064
-0.135669
-0.148486
0.080724
0.0756141
0.174611
0.0324041
0.0792548
0.0833243
0.100135
-0.00558918
-0.0301696
-0.00582139
-0.16308
0.000317675
0.0610013
-0.0656414
-0.0817339
0.233533
-0.0114308
-0.035449
0.114763
0.200897
0.192294
-0.0459669
-0.0460546
-0.332592
0.00593931
0.0700172
-0.0839625
-0.0132042
0.0356396
0.0113451
0.0830325
-0.0429636
-0.083673
-0.00873596
-0.148295
0.00350932
0.0233852
-0.0951697
0.141531
0.0892001
-0.0921459
0.0407154
0.0928329
-0.195048
0.117419
-0.209958
-0.0547851
0.109827
-0.131142
-0.0410026
0.0993722
0.0967469
0.0775644
-0.10298
0.0111121
0.00194154
-0.0177388
-0.0414271
-0.0671691
0.13681
0.0274298
-0.207095
-0.0304661
0.0607192
-0.0986187
0.041368
0.000840493
-0.0250391
0.0752239
0.0122451
-0.0357051
0.0134847
-0.0335778
0.0852251
0.143798
-0.0459641
-0.132933
-0.0672704
-0.018916
0.023427
0.0211346
0.0184019
-0.150054
-0.0606499
-0.0337836
-0.0023751
0.0745008
-0.0559185
-0.0475333
0.0630042
-0.0907988
-0.0650743
0.115366
-0.0899462
-0.110018
0.204577
-0.0407326
-0.0330855
0.0244433
0.00597726
0.0811172
-0.0440936
0.146855
0.20817
0.0402489
-0.00752906
-0.108258
-0.116437
-0.0302524
0.0603237
0.0607196
0.0676855
0.0532651
0.0126052
0.0896786
0.133879
-0.0302968
-0.0524765
-0.0555234
-0.128571
0.119155
-0.0657142
0.118663
-0.0484542
-0.0439272
0.109638
0.0453842
-0.036125
-0.0283757
0.0656138
0.0542974
0.175494
0.10272
0.10907
0.011304
0.147508
-0.0504159
0.160046
-0.0276788
-0.0841977
-0.00469028
-0.104777
0.19766
-0.0141847
0.0603849
-0.265151
0.0805574
0.0291849
0.131465
0.110388
0.168586
-0.0525532
0.126783
0.0431875
-0.0107462
0.050934
-0.0218944
0.0468772
0.0982938
-0.0395393
0.133237
-0.00674711
0.0168299
0.103511
-0.110977
0.0630983
0.115116
0.236998
0.00413401
0.162432
0.0306701
-0.0302394
0.0815643
0.139711
-0.0162751
0.0389314
0.0165058
-0.155131
0.012052
0.108928
0.113237
-0.0923537
0.200599
0.0675543
0.0789426
0.0605093
0.102504
-0.050445
-0.0402473
0.0972346
0.0104372
0.1604
0.048747
0.131619
-0.0118407
-0.14146
-0.129008
0.149286
-0.0525553
0.0900523
0.0723754
0.0754366
-0.00628569
-0.0992328
-0.00765374
0.0859851
-0.122905
-0.0230151
-0.0133108
0.00575867
0.10684
-0.106172
0.00374902
0.201922
-0.0446573
0.091413
0.0223848
0.124933
-0.00465231
0.000237634
-0.0352159
0.0210511
0.0456611
0.155295
0.0629916
0.00273948
-0.0738248
0.133047
0.0293961
-0.00651355
0.242691
-0.0997924
-0.00415606
0.0478023
-0.134189
0.0153345
-0.00309375
-0.0806602
-0.0934134
0.0490618
-0.0324774
-0.0478856
0.115718
0.00143215
0.143078
-0.00716605
0.0510681
0.094515
0.0686829
0.169759
0.0804109
-0.180773
-0.0921973
-0.0378141
0.0825919
0.0531732
0.166139
-0.0829691
-0.0717876
0.0139515
-0.109223
-0.0290418
0.0327076
0.0319599
-0.0823867
0.0653554
-0.0623515
0.0348012
0.109014
-0.102287
-0.0294243
-0.161085
0.101343
0.06395
0.148132
0.0546062
-0.0300537
-0.0872893
0.091804
0.145248
0.00784724
0.0195868
0.00521985
0.0702213
0.0816731
0.0168245
0.0363857
-0.041998
0.0522012
0.217101
0.116123
-0.0897792
-0.0159985
-0.0636562
0.133178
0.0649832
0.065304
0.144307
0.0538651
-0.0301579
0.102931
0.102231
0.0378928
0.119543
0.0872178
-0.0542184
0.0657984
0.0958278
-0.0513016
0.157127
0.0790043
0.055739
0.0779932
0.0350147
0.121126
0.077403
0.154559
-0.0108923
-0.0176911
0.0139389
-0.0590352
0.130629
-0.00117287
0.100336
0.054553
0.0298554
0.10365
0.0695641
0.061027
-0.0220765
0.00971633
-0.0964739
-0.0478472
-0.114065
0.0165739
-0.0159434
-0.00178034
-0.0496441
-0.200855
-0.000541984
-0.086548
0.0819838
-0.0537778
0.0139088
-0.0123721
0.115182
-0.0796114
-0.061713
0.0525588
0.0299864
0.119612
0.0812959
0.0581191
-0.167082
0.0315793
0.148444
0.0199243
0.0070985
0.223277
0.21163
0.107996
0.227484
0.0350234
-0.0335671
-0.0302085
-0.0475064
-0.0438046
0.0222901
0.0532813
0.0962239
-0.110688
-0.146975
-0.0743186
0.278718
0.0286649
0.0401221
0.0984978
-0.0706811
-0.050464
0.19063
0.0208288
-0.0226757
-0.00874311
-0.131828
0.00627754
0.0477885
-0.109059
0.0233013
-0.148703
0.00827383
-0.0224784
-0.0306012
0.135052
-0.0139605
-0.0546055
-0.00473186
0.00330753
-0.123466
0.146491
-0.100692
-0.0380382
-0.133402
-0.105185
-0.0590435
0.0813084
-0.0281658
0.152339
0.0826465
-0.0896158
0.0291202
0.136809
-0.014998
-0.0389461
0.0230878
-0.105396
0.184355
-0.0109428
0.147712
0.0819468
0.177078
0.119737
-0.0258348
0.179939
0.0212166
0.0129449
0.16196
-0.0295663
0.0176988
-0.0364402
0.116449
-0.00920276
0.0877896
-0.168281
-0.0614703
0.0528845
-0.0125904
0.0175019
-0.0912707
-0.0906797
-0.00805853
0.0384814
0.094058
0.0441943
0.228318
-0.0512739
-0.0331163
0.0270153
0.141725
-0.00945693
0.0669547
0.043039
-0.0268766
-0.135328
-0.088814
-0.0959124
-0.157685
-0.0661413
-0.0472185
-0.187856
-0.0886121
-0.0761548
0.129341
0.0174404
0.00452931
0.183383
-0.0824754
-0.0591664
-0.125242
-0.179958
0.117805
0.320548
0.0331615
-0.00796642
0.0260308
0.119878
-0.0466931
-0.0977511
-0.0473049
0.0615548
-0.0352248
-0.0300029
0.198969
-0.0461395
0.241824
0.0973827
-0.0255348
0.0107843
0.142172
0.221641
-0.0911011
-0.172711
-0.0945678
-0.0290086
-0.0424838
0.162032
-0.0935404
-0.0366191
-0.0278482
0.0633361
-0.0802664
-0.0692414
0.242963
0.0364411
-0.0216112
-0.154526
-0.0335386
0.00031966
0.03771
0.104205
0.0227292
-0.200026
-0.0311974
-0.0327046
-0.135641
-0.188986
-0.0593542
-0.193732
-0.120337
0.140677
-0.110352
-0.102987
0.0764869
0.000686695
0.114973
0.0630434
0.0313305
-0.0215352
-0.0687172
-0.0566608
0.12776
0.0305273
-0.146078
0.123678
-0.040995
-0.108751
0.0677523
0.0748721
-0.0837787
0.110814
-0.125334
0.0475959
0.0492046
0.228345
-0.167564
-0.0788235
0.0129407
0.187715
-0.0447281
-0.140104
0.0130975
0.0612253
-0.108342
0.0515357
0.170541
-0.077514
0.0626004
0.217778
-0.0693123
0.0959128
0.0186022
0.055988
0.0200989
0.0017668
-0.00577838
-0.0816906
-0.0553851
0.0284756
0.0720499
-0.0103638
-0.0461928
-0.0361044
0.0782207
0.0266799
0.0965359
0.0714667
0.0565534
-0.0194986
0.12728
-0.105661
-0.176295
-0.115487
-0.0950814
-0.116489
-0.225997
0.0292917
-0.00126986
0.11305
0.13423
0.0489717
-0.0305081
0.208538
-0.0913827
0.0408069
-0.0547184
-0.0299096
-0.00537929
-0.00192248
0.0584826
-0.0480045
-0.00952272
-0.174982
-0.0492382
0.0774912
-0.115829
-0.0703164
0.0272653
0.0884969
0.0547734
0.0864641
-0.0145692
-0.0168269
-0.042378
0.171247
0.121946
0.100467
0.00309903
0.107593
0.1283
0.26752
-0.0523808
0.139718
0.189919
-0.106414
0.357004
-0.00561356
0.106422
-0.0288964
0.0867195
-0.156479
0.142441
0.138772
-0.00193974
0.206977
0.165745
0.190594
0.14056
0.181416
0.0217873
-0.0111599
0.210379
0.112035
-0.00174951
0.130748
0.0235918
0.0888137
0.00702638
0.0501076
-0.0578113
0.0823449
0.0269453
-0.0916561
0.0482707
-0.214704
-0.0287385
-0.057429
0.00755149
0.0467485
-0.0914871
0.126612
0.0638544
0.0722723
0.161369
-0.0655599
0.147678
0.0786265
-0.0305345
-0.0150139
0.0141023
0.0631906
0.149376
0.133382
0.189294
0.0965739
-0.00954353
0.103413
0.0529686
0.206557
0.15303
-0.048932
-0.262284
-0.117148
0.0672965
-0.0587944
-0.132581
0.0763999
-0.0599796
0.0156412
0.0355575
0.1367
0.17925
0.00282917
-0.0543932
0.0305113
0.0234064
-0.0804896
0.0810736
0.117981
-0.0311085
0.145069
0.039445
0.0155164
0.0993369
0.0620417
-0.0125042
-0.101238
-0.0123524
0.164587
-0.0345095
0.00706181
0.142525
0.0451121
0.0827342
-0.0740418
0.0385813
0.0997382
0.0619372
0.0488806
-0.0316773
0.116004
-0.0131385
0.136777
-0.0198026
-0.0307978
0.00857349
0.164277
-0.00908529
-0.0592873
-0.00978457
0.144263
0.0179822
0.0584226
0.122323
0.0180572
-0.0232677
0.187548
0.0379879
0.0242595
0.0643364
0.101059
0.0510543
0.149449
-0.0101201
0.11448
0.0739441
-0.0120164
0.0155306
-0.0822365
-0.00274871
0.064304
0.0903294
-0.136401
0.0312044
0.0978226
-0.000466654
-0.0862851
0.0503044
-0.038821
0.103416
0.106004
0.0484074
-0.0961154
0.0463015
0.0378181
0.111357
-0.0281045
0.173783
0.0377425
-0.0542811
0.287582
0.0223376
-0.103455
0.0341718
0.030497
0.159404
0.0758191
0.234007
0.0709703
0.0956521
0.0489461
-0.0174943
0.188002
0.0192985
0.0922234
-0.007931
-0.0454966
0.0160009
-0.0182161
0.00124639
0.26163
0.00185071
0.0881148
-0.0517494
-0.0338163
-0.178163
-0.031043
-0.00984093
-0.0843756
0.168315
-0.0831042
0.062583
0.112068
0.107907
-0.0828779
-0.0017658
0.218414
0.102656
-0.030091
-0.092734
-0.0847471
0.0988846
0.12859
-0.0492011
0.0196089
0.065985
0.0522936
-0.070598
0.0731526
0.0210445
0.168548
0.161915
0.231406
0.152882
-0.0257706
0.0531246
-0.0694725
0.0459789
-0.146249
-0.0689108
-0.0733896
0.00671362
0.0103844
0.084756
-0.0987647
-0.0497126
-0.140877
0.044986
-0.0177146
0.0828985
0.00326731
-0.00770159
-0.0218572
0.04557
0.102791
-0.106274
0.101527
0.202158
0.0554526
0.0266775
0.0995201
0.17107
-0.00102103
0.102821
0.0719146
-0.0461243
0.208425
0.201788
0.0256333
0.158945
-0.118534
-0.0485041
0.117178
0.236508
0.0720902
0.10206
0.093364
-0.102503
0.106273
0.0786518
-0.0303876
-0.012226
0.144472
0.0543751
0.0283662
-0.0230485
-0.0420107
0.124361
0.0241627
0.0969009
0.0793325
-0.0691515
-0.0789835
0.264574
0.0581695
0.0883491
0.146171
0.112594
-0.0177502
0.253274
-0.0195064
-0.0839588
0.0385668
0.0309071
-0.0351273
-0.0510283
0.136246
-0.050833
0.044189
0.0185262
0.0711064
-0.0764194
0.145684
-0.149919
0.0231291
0.0345811
0.0251142
-0.0437648
-0.0726118
-0.0130782
-0.022629
0.155584
0.010768
0.151863
0.0601099
0.0531189
0.0419264
-0.0120649
-0.0351003
0.000404385
0.160556
0.0748704
-0.0838226
0.263147
-0.0296525
0.0624833
0.106337
-0.0559561
0.0190163
0.0959188
0.166866
-0.10371
-0.108518
-0.0404691
-0.023589
-0.0809242
-0.106964
0.17828
0.0580688
0.0102179
-0.12474
0.106507
0.0457345
0.0436526
0.185328
0.0702437
0.222024
0.240282
0.0710196
0.0171962
0.127276
0.0292932
0.125666
-0.0108356
-0.083692
0.0813013
0.0476035
0.0114637
0.118443
0.112496
0.124163
0.0523205
-0.00665301
-0.0533765
0.0500567
-0.0147672
0.00265487
0.0476933
0.0571277
-0.0367432
0.0540469
-0.00842835
0.145758
8.6269e-05
0.0590686
0.00640929
0.105945
0.100614
0.0344667
-0.0517678
0.0145337
0.132508
0.159234
-0.0855272
0.0886105
-0.15051
0.0566541
0.114166
0.21206
0.0828105
0.104625
0.203822
0.132461
-0.0111584
0.0286335
-0.0136478
-0.0129445
0.0695631
0.096368
-0.00308098
0.148491
-0.0300836
-0.00286611
0.151136
0.146379
-0.042178
0.0190091
-0.0259212
-0.0437722
0.140265
-0.0492176
-0.116535
0.110527
-0.0503273
0.0285811
0.0209892
0.0405756
-0.105343
-0.0990278
-0.148758
0.180883
-0.00683993
-0.124372
0.0385231
0.123716
-0.0580938
0.113019
0.0380408
0.0426136
0.150628
0.154018
0.154667
-0.0996977
-0.0835232
0.0607164
-0.00379441
-0.0886498
0.0764972
-0.000447518
-0.101043
-0.110078
0.0547455
0.157571
0.0367124
0.107003
0.110451
0.001862
0.145078
0.0611429
-0.110962
-0.112603
-0.0758528
0.029549
0.142514
0.0967439
-0.0266628
-0.191191
-0.0378955
-0.00332
0.0342427
0.0718603
-0.0825524
0.116225
-0.0425195
0.155003
0.0382019
0.111079
-0.0205231
0.0301098
-0.112744
-0.111556
-0.128997
0.0911656
-0.145265
-0.0410975
-0.0240788
-0.221518
-0.0233777
0.0786914
-0.0552548
0.138579
0.135638
0.268546
-0.073882
0.0641051
0.0848686
-0.0431368
0.0317814
-0.206116
-0.0106048
0.038123
-0.00917756
0.000822164
0.169771
0.179952
0.143505
0.238022
0.230266
0.0136454
0.143708
0.0407577
0.184433
-0.0850158
-0.172274
-0.0260688
0.132346
0.0237951
0.219071
0.0118642
0.124346
0.288047
0.0676372
0.253852
0.141131
-0.047422
0.210546
0.10008
0.0292827
0.146174
0.0871858
0.250213
-0.0906173
0.00577015
0.0974715
0.134608
0.195453
0.0583384
-0.00911032
0.142018
0.445941
-0.0276342
-0.0461251
0.096044
-0.0785908
0.162918
-0.227661
0.0410206
-0.137409
-0.047391
-0.098247
-0.181173
0.0345255
0.0659459
0.0179345
0.272016
0.127361
0.0805473
-0.0640116
-0.127154
0.0603094
-0.0382341
-0.0132656
-0.101058
-0.272948
-0.156265
-0.276338
-0.116091
-0.0835537
0.0892105
-0.199791
0.172895
0.0665438
0.0167305
-0.00644374
-0.110315
-0.105229
-0.0960434
-0.114302
-0.000255172
-0.17886
-0.155538
-0.202807
-0.185666
-0.0703568
-0.102082
-0.042373
0.227687
0.147012
0.00599847
0.0539346
-0.0534158
-0.058333
0.00388839
0.00213653
0.0495192
-0.121419
-0.0388164
-0.11114
0.0141108
0.0612597
-0.157447
0.213315
0.0721354
-0.0542381
0.0835078
-0.0205773
0.033253
-0.082764
-0.00372013
-0.120941
0.0465203
-0.148898
0.0258958
-0.0745429
-0.0886713
0.0325857
-0.077603
-0.0289298
0.308726
0.180578
-0.0726441
-0.00241195
-0.18295
-0.120762
-0.0384808
-0.0986
-0.0663413
0.0391922
-0.0704295
0.0191129
-0.0898515
-0.0704908
0.0239444
0.0792441
0.232402
0.226546
0.0402935
0.106408
-0.0399977
-0.0924094
-0.0177602
-0.065726
0.0438872
0.0136829
-0.0649009
-0.0305316
-0.127741
-0.0381932
0.0268553
-0.0522881
0.243991
0.228545
-0.0131191
-0.0179307
-0.0137236
0.0860682
-0.0953143
0.190457
-0.0324048
-0.190396
0.268228
-0.110596
-0.133278
0.121922
-0.0226273
-0.0152752
0.171201
0.0997656
-0.0169965
0.0932524
-0.0435629
-0.142188
0.149356
0.0310761
0.0536661
0.141063
0.0869294
-0.099726
0.235441
0.055822
-0.0900592
-0.036183
0.0516585
0.189963
0.0527913
0.0210928
-0.149624
0.0437177
0.0702537
-0.171046
0.0721403
0.00945568
0.0690778
0.0989398
-0.0229318
-0.0374638
-0.19924
-0.126496
0.230066
0.162727
-0.00906108
0.0516624
-0.0907406
-0.021814
0.0278589
0.0838428
-0.0827363
0.0476809
0.0477359
-0.0830317
0.01642
-0.124662
-0.168713
0.108741
0.212839
0.0729519
-0.0393669
-0.124544
-0.138825
-0.0604901
-0.0694186
-0.193478
0.00438507
0.150278
-0.047634
-0.115789
-0.0347289
0.122532
0.0433467
-0.119217
0.113141
0.305885
-0.101266
-0.0382914
-0.143064
0.0525955
-0.152178
-0.097448
0.140777
0.110933
-0.151912
-0.0676949
-0.0365767
-0.00227651
0.225108
0.0183778
0.129908
0.119359
-0.0989227
0.0762861
-0.04101
0.0691779
0.00786905
0.0664984
-0.148115
0.0236496
0.0460335
-0.0621649
-0.189249
0.00585081
0.00640994
0.0307614
0.180523
0.189295
-0.216863
0.0543688
-0.053805
-0.033719
-0.116012
-0.0405392
-0.0379587
-0.118562
0.28903
0.0215696
-0.0458068
-0.155442
-0.0573079
0.119995
0.378057
0.0371762
-0.0939769
0.0681533
0.124733
-0.0381968
-0.070285
-0.076824
-0.0668213
-0.0387643
0.0598662
0.121833
-0.0168855
0.0534513
-0.0842331
0.0564545
0.163982
0.287619
0.00132626
0.00751081
0.013133
-0.0899718
-0.157008
-0.0398551
0.0617105
0.0479418
0.156293
-0.049635
-0.0425158
0.0995478
-0.152043
-0.0311072
0.202223
0.226136
-0.263755
-0.0914322
0.0439139
0.156875
-0.22343
0.00473305
-0.203768
-0.128794
0.0841368
-0.0737793
0.154154
-0.116149
0.0916549
-0.161063
0.213694
0.204572
-0.0583647
-0.0672616
0.0348724
-0.00965055
-0.108909
-0.109387
-0.054998
-0.169652
-0.144015
0.112984
0.0012665
-0.0651018
-0.041414
-0.154327
0.241853
0.166406
-0.105613
0.0478438
-0.0946316
0.122907
0.0791195
0.111937
-0.0754448
0.0519388
0.193579
-0.158364
0.0136383
0.040322
0.00543965
0.0640562
0.1521
0.0614708
-0.0570593
-0.0926484
0.0332896
0.124452
-0.0262663
-0.0625222
-0.190934
-0.00827383
-0.166059
-0.0473217
0.0572102
0.0531005
0.177404
0.113476
0.269352
0.206358
0.109687
-0.0922538
-0.0608098
-0.00474187
-0.0186873
-0.0136622
0.100537
-0.101758
0.0502062
-0.0752032
0.0936549
0.0149384
-0.0346144
-0.0150286
0.119573
0.158807
0.0453084
0.054103
0.149808
0.094331
-0.0720472
-0.0716328
-0.00233995
-0.119567
0.117774
0.0349959
-0.0179699
0.18645
-0.101248
0.0821904
-0.0860095
0.192147
-0.0645263
0.227422
-0.0472691
-0.205245
0.0075257
0.0180027
0.0280721
-0.061791
0.18813
-0.0598684
0.183149
0.115056
-0.0404555
-0.135911
0.255982
0.231546
-0.0653875
-0.142517
-0.105698
0.072177
0.134445
-0.0323722
0.183975
-0.162801
0.0862531
-0.0561432
-0.167299
-0.0697447
-0.00979574
-0.0444963
0.0541298
0.0155275
-0.0449988
0.0195417
0.111422
0.0708052
0.0592816
-0.0312349
0.0188482
-0.0607197
0.122533
0.135609
-3.94211e-05
-0.089963
0.0676978
0.000510245
0.198743
0.0266355
-0.0550723
-0.225888
0.0456574
-0.0597337
-0.0671042
0.0336142
0.0804169
-0.15132
0.106734
0.186683
0.144964
0.0635137
0.13806
0.106489
0.0901179
0.434464
-0.0536493
0.089683
-0.190131
0.085844
-0.0599641
-0.0209008
-0.0389493
0.116332
0.284355
0.126895
0.185244
0.214624
0.0871799
0.262749
0.331194
-0.400318
-0.106513
-0.100268
0.00536864
-0.127452
-0.0457812
0.0745876
0.0115934
-0.0776075
0.0203481
0.166451
0.213582
-0.0840817
-0.0119004
0.0559505
-0.0327784
0.164686
-0.0414256
0.0846191
0.131696
0.0169437
0.182872
-0.212012
-0.0736215
0.0484706
0.0245939
-0.0955648
0.0120648
0.0967204
0.123747
0.165648
-0.100524
-0.118636
0.250305
0.0417107
-0.19621
-0.0895396
-0.0137753
-0.165002
-0.0618319
-0.19041
-0.213619
0.0831664
-0.151917
0.0510614
0.144043
-0.0325388
0.11749
-0.16889
0.0617834
0.0403597
-0.0215432
-0.0447197
-0.0867197
0.0209991
-0.128348
-0.232254
-0.125875
-0.182426
-0.216433
0.177506
-0.136697
-0.0441781
-0.195218
-0.109047
0.227101
-0.0270497
0.152249
-0.0477828
0.0544111
-0.108516
-0.210432
-0.0458933
-0.128136
-0.0882816
0.0728343
0.0196327
0.0475336
0.203384
-0.17764
-0.151199
0.135014
-0.034941
0.0292508
-0.258979
-0.17625
-0.148466
-0.187475
-0.174791
-0.113013
9.08278e-05
-0.151415
-0.0750215
-0.0294722
-0.0137802
-0.247918
0.189638
0.134783
-0.107892
-0.178826
-0.147492
-0.124504
-0.223259
-0.0719344
-0.15589
-0.178089
-0.28812
-0.0956962
-0.0740443
-0.0725002
0.15035
-0.0961332
0.0833008
-0.148538
-0.0871837
-0.128869
-0.119938
-0.0894373
-0.240164
-0.126228
-0.226982
-0.276702
0.0176271
-0.244941
-0.196261
-0.0064218
-0.0351928
-0.0608105
-0.213381
0.0287952
-0.0248803
-0.361353
-0.0857616
-0.0956052
-0.131768
-0.121125
-0.0312378
-0.262235
-0.0383394
-0.170675
-0.17135
0.0235159
0.304517
-0.128203
0.115299
0.0499955
-0.0120758
-0.0591558
-0.0443999
-0.186994
-0.177495
-0.0461761
-0.248903
0.00224243
-0.138227
-0.0312834
-0.277529
-0.00182771
-0.00528797
-0.160073
-0.0350939
0.11301
-0.013248
-0.139322
-0.16606
-0.160094
-0.0366099
-0.0675911
-0.105734
-0.120868
-0.132034
-0.111113
0.0600265
-0.0186602
-0.024492
-0.0441646
-0.238884
-0.231667
-0.0824894
-0.258665
-0.0654325
-0.196872
-0.0382719
-0.0434361
-0.0902332
-0.0789854
-0.0980723
-0.12639
-0.105592
0.0171529
-0.0046553
-0.00548146
-0.30196
-0.0962545
-0.179454
-0.0871656
-0.181332
0.0996538
-0.0166595
0.00233088
0.080167
-0.184879
-0.0255575
-0.0225442
-0.174648
-0.0179198
-0.0459564
-0.101374
-0.0599421
0.0607893
-0.0484945
-0.0109331
0.065138
0.019219
-0.0311451
0.0828088
-0.243861
0.134569
0.0935108
-0.221464
0.110381
-0.0420451
0.156232
-0.123352
-0.186711
0.063793
-0.0960427
-0.0285283
-0.229561
-0.197253
0.304295
-0.0162391
-0.102456
0.0649643
-0.113368
-0.0924188
0.0314892
-0.0729466
0.0780806
0.046813
-0.0659897
0.0389281
0.0490955
-0.0434607
-0.125557
-1.5195e-05
0.0265613
0.17145
-0.0572937
-0.130769
-0.167955
-0.201929
-0.207731
-0.174817
-0.00899202
0.000583436
-0.186149
-0.189679
-0.164987
-0.165865
0.00671578
-0.0143473
-0.0196414
-0.112125
-0.124037
-0.089684
0.0111686
0.0893653
-0.121023
-0.176998
0.049903
-0.0882486
-0.0802852
0.0199076
-0.0992692
-0.148753
-0.0277124
-0.0356883
-0.149527
-0.194257
-0.0397999
-0.215083
0.0177633
-0.0746475
0.10825
-0.184144
-0.0354804
-0.0459146
3.69725e-05
0.023987
-0.187093
0.0425861
-0.133548
-0.117339
0.0645453
0.00518875
0.0422744
-0.0541182
-0.0198886
-0.269531
-0.119873
-0.169653
-0.125453
-0.0455218
-0.0171747
-0.172695
0.0515785
0.0159987
-0.167222
-0.20629
-0.005067
-0.016226
-0.0203211
-0.127678
-0.0297979
-0.177245
-0.0821628
-0.125311
0.0660702
0.0609062
-0.145094
-0.113221
0.0373457
-0.118073
0.0246416
0.127289
-0.189926
-0.170885
-0.145382
-0.0659126
-0.0996276
-0.0890805
-0.249227
-0.139348
-0.0118508
-0.0841272
-0.0198314
0.131888
0.264291
0.0103363
-0.255442
-0.0604527
-0.0803442
0.0445162
-0.176002
-0.00548346
-0.155451
-0.087907
0.084276
0.011364
0.0496026
0.0737455
-0.0436754
0.0504271
-0.0870022
-0.0173469
-0.109398
-0.0240957
-0.118576
-0.0318482
-0.0993424
0.0198995
-0.159712
0.0543708
-0.0881741
0.146186
-0.0724367
-0.128436
-0.054417
-0.0367885
-0.0879859
0.0736031
-0.0647937
-0.0774643
-0.0473843
-0.205983
-0.151143
-0.08985
0.180421
0.0826584
0.11787
0.0539125
0.100441
-0.0454141
-0.0270104
-0.00542886
0.165603
-0.0283773
-0.0583241
-0.0275571
-0.0153
0.0760627
-0.0227234
0.148571
-0.0924784
-0.156872
-0.1468
0.0681453
0.0622012
-0.0512492
0.0394693
-0.0148524
-0.12965
0.0559674
-0.0638182
0.149653
-0.0925494
0.097523
-0.0465768
0.0219141
-0.0610366
0.080317
-0.0264102
0.0210355
0.154806
0.0605663
0.27204
0.0703993
-0.0322744
0.144696
-0.124015
0.0539093
-0.0618268
-0.0612253
0.0360125
-0.0186172
-0.170853
0.0810325
-0.177232
0.228611
0.234175
0.232935
0.18416
-0.064966
0.0263857
-0.0993094
-0.122524
0.133952
-0.0794226
0.175247
-0.0676535
0.0369586
-0.118523
0.133032
-0.169556
0.0806242
0.110151
0.0914469
-0.0070202
0.124852
0.0504676
0.0478029
-0.0514035
-0.0225589
-0.0315491
0.085048
0.184611
0.129271
0.0486111
0.00829735
-0.0139662
0.0592647
0.177209
0.173738
0.0274925
0.134025
0.0882871
-0.0486568
0.118711
0.216607
0.061701
-0.0427728
-0.0818319
-0.000931783
-0.020288
0.221349
0.148441
0.106623
-0.0728876
0.204975
0.0954453
0.104458
-0.03726
0.0772816
0.194143
0.261358
0.11006
0.181449
0.375807
0.185518
-0.176098
0.0830399
0.113727
-0.0678214
0.333316
0.133923
0.328183
0.203836
0.176351
0.255857
0.105445
0.124085
0.229917
0.182619
0.212788
0.264611
0.142813
0.153383
0.146528
-0.0386881
0.209933
0.192041
0.176902
0.046751
0.0456824
-0.0558349
0.221272
-0.124732
-0.102868
0.0403257
0.133181
0.0134669
0.0689041
-0.0186964
-0.0432328
0.214692
0.187905
0.0545019
0.166438
-0.0522878
0.221594
0.0678621
0.00467332
-0.0523392
-0.157283
0.0150832
0.023796
0.0235622
0.0548979
-0.0815899
0.220262
0.212078
-0.0955215
0.0378667
0.0489235
-0.0835541
0.0706999
-0.0231168
0.283647
0.000175192
0.304493
0.0953278
0.00814134
0.0373858
0.0706627
-0.0118514
0.0494289
0.0631381
0.0149685
0.0996182
0.175121
-0.010322
0.169795
0.0628428
0.0814468
0.323864
0.0669816
0.131967
0.169776
-0.0506671
0.135784
-0.0468636
0.114031
0.0964024
0.0632274
0.167893
0.228021
0.200939
0.0141769
0.0172148
0.0929959
-0.0371963
-0.0958705
0.0434257
0.155689
0.304349
0.161308
0.0439183
0.0348565
-0.0542284
0.134577
0.0604362
-0.115498
-0.00210937
0.107115
0.123889
-0.0239997
-0.0115684
0.157785
0.144961
0.173605
0.269299
0.0982032
0.366047
0.218258
0.0942633
0.184198
0.269768
0.0199114
-0.00267964
-0.258008
0.105283
0.0395358
0.170481
0.0534239
0.00534228
0.155642
0.00564602
0.0316931
-0.0393108
-0.21357
0.0418534
0.192499
0.136474
0.104424
0.117655
0.226709
0.0241861
-0.0276659
0.0153609
0.142955
-0.020379
0.0520059
0.0673193
0.102422
0.0297663
-0.0140749
-0.0576761
0.0561595
0.0566771
-0.0180976
0.0524147
0.0909762
0.221708
0.0140431
-0.14655
0.0710431
0.162336
-0.100399
0.197845
0.112819
-0.0383099
0.102439
-0.0955095
0.0722554
-0.107702
0.20604
-0.0150768
-0.0888165
0.0279036
0.0753188
0.107349
0.0465422
0.0678856
0.182036
0.102053
0.0734312
0.213331
-0.0200737
0.0565937
-0.0811207
0.135817
0.117445
0.0658039
-0.102333
0.0372314
0.212481
0.081648
0.0241573
0.0403366
0.0598894
-0.0465251
0.0292993
0.23587
-0.0142602
0.123958
0.103415
0.0365058
0.232973
0.157275
0.0916111
0.0194211
0.124799
0.172876
0.0236396
-0.0320059
0.196204
-0.00936632
0.113463
0.199773
0.170105
0.12955
0.0364385
0.0649646
0.200079
0.022675
-0.0392239
0.000636446
0.0256095
0.0647931
0.0901286
0.000837431
0.031239
0.121924
-0.070236
0.0809935
0.0335678
0.0715582
0.0632726
0.11943
-0.0351399
0.123797
0.188796
0.0636804
0.150739
0.0794978
0.161635
0.164707
0.100797
0.0115565
0.241369
-0.0148659
-0.00414344
-0.131184
-0.00634062
0.0583845
0.0258748
0.12626
0.0819039
0.00170914
0.0659203
0.121267
0.0188416
0.0511042
0.0925663
0.121839
-0.109635
0.142311
0.241032
0.221245
0.112507
0.0715594
0.0618327
0.0493952
-0.0989926
0.116776
0.180525
0.0339602
0.00882022
0.105672
-0.0726188
0.0215792
0.114443
-0.0640226
0.199788
0.0578565
-0.191389
0.112951
0.168428
0.0404385
-0.116038
-0.0951938
-0.00625189
-0.112762
-0.0886115
0.322301
0.0359751
-0.102667
0.00263978
0.125408
-0.129673
0.165305
0.080188
0.0606597
0.0821385
0.144853
0.0455448
0.127925
0.00299807
0.149133
0.0309249
0.0300577
0.193477
0.145861
0.145219
-0.0198707
0.00785895
0.186332
-0.0457513
-0.150976
0.119855
0.17607
0.0211758
0.130264
-0.186968
0.0964367
0.0478031
-0.105271
0.25945
0.166216
-0.0783812
0.104771
-0.0571433
0.0807005
0.060939
0.115122
0.0512939
-0.025995
0.116043
-0.0337989
-0.0406628
0.113909
0.223609
-0.14218
-0.0629838
-0.0747538
0.12265
0.226907
0.182437
0.184013
0.0911055
0.100895
0.156098
0.133804
0.1133
0.155416
0.118173
0.239992
0.121134
0.0461974
0.0923223
-0.0679248
0.120563
0.0705526
-0.160975
0.0189203
0.0416742
-0.0819712
0.0454024
0.244613
-0.0436167
0.0905328
-0.00510068
0.0921661
0.0673147
0.0878681
0.114713
0.1965
0.132255
0.0528723
0.0323436
0.180613
0.0632219
0.0080529
0.282206
0.0412972
0.158952
0.259951
0.120224
0.182014
-0.0546569
0.24792
-0.0617508
0.0912718
0.0944045
-0.031693
0.0522711
0.0399439
0.0039234
-0.037007
0.121187
-0.0767716
-0.0639229
0.136535
0.160612
0.129523
0.192086
-0.0116475
-0.0108637
0.0982002
0.0489258
0.156642
0.214744
0.0766608
0.0202431
0.113364
0.178713
0.122234
0.125915
0.0108873
-0.00916632
-0.000646082
-0.0318517
-0.0668429
-0.03111
-0.0687296
0.0342228
0.0815072
-0.0161905
0.103877
0.0765486
0.064676
0.0554786
-0.209653
0.0375964
0.136669
0.203897
-0.042718
0.105135
0.0870679
0.0647977
0.216793
0.208847
-0.110005
0.207139
0.0468263
-0.0898289
-0.000942294
0.0538979
-0.189447
0.233433
-0.0167597
0.0118691
0.0619495
-0.0258141
0.089539
0.0723084
0.214638
0.037591
-0.190935
0.0113095
0.0422643
0.0378268
0.150563
-0.117795
0.178302
0.0750723
0.0304924
0.122601
0.0971178
-0.0494695
-0.00674802
-0.0159553
-0.232222
0.0125019
-0.00316334
0.11761
-0.00635736
-0.0691522
-0.0117104
0.161013
0.0647192
0.273212
0.0440605
0.0266303
0.034316
0.141168
-0.0947627
0.0478424
0.153245
0.0325453
0.123713
-0.0475402
-0.0309299
0.0265493
-0.133673
0.0666221
-0.0809707
0.0749138
-0.0109597
-0.131502
-0.0509876
0.0470189
-0.0262627
0.0586073
-0.0575868
-0.00876288
-0.0291445
-0.139346
-0.0152317
-0.0230664
0.0801355
0.00867688
0.163873
0.150915
-0.0849514
0.0674913
0.16176
0.0462068
-0.00617429
-0.0383173
0.017308
0.0562798
-0.0938624
0.151849
0.0655631
-0.0896098
0.134595
0.100864
0.196554
0.0513268
0.0634453
0.113609
-0.0802066
0.0919593
0.144403
0.0333913
0.0337992
0.0412007
-0.125565
0.149713
-0.0439337
-0.117329
-0.111397
0.137143
-0.030908
-0.0614683
-0.0217126
0.171941
0.127798
-0.0385039
0.0822963
0.103624
-0.10414
-0.0393303
0.0653985
0.091315
0.0850489
0.106236
0.0952075
0.0926694
0.0572369
0.0328671
-0.176342
-0.190077
-0.0840899
0.168443
-0.0331477
-0.118779
0.0356109
0.213523
-0.0747318
0.0176544
-0.0134015
0.00061636
-0.0461102
0.0697745
-0.161768
-0.115925
0.0692891
-0.10213
-0.106669
0.152378
-0.0811022
-0.158821
0.00500136
-0.127462
0.120438
0.0506078
0.116823
-0.109019
0.134846
0.156828
0.0142314
0.0589124
0.0592618
0.0761091
-0.0470039
-0.124753
0.171627
0.0261958
0.11305
-0.103472
0.0822053
0.106146
-0.150403
0.131803
-0.116116
-0.069422
-0.166516
0.0179808
0.0261963
0.0130287
-0.0508209
0.161748
0.0662744
0.119195
0.0580873
0.0304875
-0.100535
0.198592
0.100996
0.143918
0.0102169
0.100393
0.0925292
0.0265896
-0.0654474
-0.0384762
0.154376
0.139209
0.0892215
0.112885
-0.04135
-0.0178159
-0.0390589
-0.0581701
0.0610539
0.19071
0.0981439
-0.0161064
0.0640483
0.214312
0.177529
-0.0137466
0.129035
0.0525537
0.247924
-0.0196877
-0.0134068
-0.0735605
-0.111361
0.0811561
0.168132
0.0945648
0.113339
0.00478722
-0.0558539
-0.0159492
0.0447264
0.222285
0.0868165
0.0921175
0.119508
-0.0630475
-0.038926
-0.06909
-0.0131001
0.110486
0.0304697
-0.0251282
0.0356827
0.211866
0.178204
0.11761
-0.0857633
0.0981229
-0.107457
0.055138
-0.184611
-0.0349389
0.172386
0.0655987
0.0146657
0.0316112
-0.0189771
0.0936562
0.0716682
-0.149408
0.108498
-0.052653
0.123315
0.0302064
-0.0642285
0.0519843
-0.15954
-0.0023078
-0.00284921
-0.084324
0.0969879
-0.0101812
0.0939899
0.0471279
-0.0841929
0.0157296
0.0971111
0.0335188
0.0876436
0.0314729
0.00580838
0.0890624
-0.0578264
-0.0635796
-0.0126467
0.0555062
-0.0673299
-0.10404
-0.0291963
0.0642449
0.0747238
-0.0507628
-0.171593
0.017804
0.183721
0.0545805
-0.0300813
0.233321
-0.0308446
-0.118089
0.0812018
0.0442616
-0.0261807
0.0756872
0.0587528
0.148725
0.0325757
-0.020961
0.150175
0.0631469
0.104996
0.00675715
0.00674541
-0.0860434
0.0459644
-0.111911
0.0941069
0.0922261
0.0720361
0.00790102
-0.0546729
0.142589
-0.07374
0.0649339
0.115624
-0.0774865
-0.158804
-0.0384925
0.030613
0.0894679
-0.00649425
-0.0935545
0.0599408
-0.086988
-0.0957282
0.0152149
-0.0771102
0.130219
-0.0111677
0.225379
-0.0514189
-0.0544763
-0.154751
0.129712
-0.00790923
0.0939434
-0.0107935
-0.0281091
0.10374
-0.0620557
-0.0939029
-0.0506405
-0.0721736
0.0775406
0.0611778
0.0232461
0.0547899
-0.0736071
-0.131434
0.0913052
-0.0429893
0.180871
0.10713
0.0706506
-0.0933666
-0.0658877
0.209567
0.074808
0.202395
0.0160627
0.00548091
-0.0179215
-0.0697935
0.0822526
-0.0374433
-0.0786282
0.0838869
0.0342168
-0.0277925
-0.0580437
0.153005
0.190053
-0.144133
0.0618185
-0.102221
-0.0314184
0.0978451
0.0889112
-0.0940419
-0.0671568
0.0572057
-0.0936192
-0.00196733
0.107614
0.136989
-0.134187
0.0320097
-0.0342369
0.0100366
0.142607
0.0135452
0.162508
-0.00710904
0.207934
0.0200631
-0.071579
-0.0891995
-0.136152
-0.0218642
-0.107155
0.0492158
-0.198637
0.063455
0.0232124
0.107739
0.0154427
-0.0158471
0.0883362
0.0620751
0.171892
0.0675069
0.0239045
0.00640899
0.025852
0.142638
-0.0381616
0.0574759
0.138779
0.0587806
0.0398708
-0.0921083
0.147476
0.00121105
-0.0523518
0.00310781
0.0417368
-0.143355
0.0625945
0.0811388
-0.116202
-0.102833
-0.0404442
-0.0972298
-0.0573157
0.0618312
0.0956031
0.0826949
-0.0113451
-0.15025
0.244209
-0.0381157
-0.0320514
-0.179821
0.110215
0.193349
0.298382
-0.01423
0.00901694
0.0984191
-0.1061
-0.030017
0.029848
-0.0494848
0.0879678
0.12936
-0.0145196
0.109718
-0.143554
-0.215787
-0.0107004
-0.127051
0.05513
-0.0224796
0.0596822
0.00447813
0.04327
0.0494429
0.107849
0.0951172
-0.0101844
0.00667157
0.0407032
-0.0308676
-0.0544725
0.0273517
-0.00172395
0.0166265
0.142545
-0.129037
-0.0093568
0.134417
-9.78692e-05
0.0719576
0.00830632
0.0564316
0.0351711
0.13445
-0.228429
0.0994007
-0.153864
0.116009
-0.0464861
0.0475538
0.112333
-0.0190432
-0.155584
0.0711159
-0.0456496
0.133926
-0.137887
0.0458006
0.0255472
0.0554459
0.012131
0.130418
0.18223
0.00262224
0.0180859
0.0305601
0.15659
-0.0789434
0.00994248
-0.0244974
0.021695
0.041891
-0.0641689
0.0301049
-0.0324095
-0.0158042
0.0405327
0.0204747
0.0542632
-0.0267237
-0.0668573
-0.0421424
-0.085793
-0.165268
0.0580375
0.0266807
-0.177264
0.00473237
-0.129179
0.141219
-0.117781
-0.104964
-0.155703
-0.0726051
0.0988906
0.0863214
-0.193502
0.138499
0.0299239
-0.0655193
0.0223553
-0.0560192
0.107426
0.0888915
-0.0368286
0.0660343
0.185336
0.0624211
0.0839237
0.196035
-0.00423742
-0.0642819
-0.173038
-0.210555
0.0870687
-0.0305074
0.0386827
0.093954
0.0111662
0.0672874
0.0149974
0.0114121
-0.00183355
0.081905
-0.098698
0.0508135
0.0587129
-0.130337
-0.0208479
0.0587412
0.20476
0.352403
-0.172678
0.0510006
-0.00917707
0.0355387
-0.0710045
-0.0907648
0.00421649
-0.0687649
-0.0234197
0.0248515
-0.106225
-0.0985005
0.122652
-0.0198642
0.0113606
-0.300427
0.0386123
0.0236575
-0.0784215
0.0579362
-0.0869116
-0.0750295
-0.2419
-0.11584
-0.0711779
-0.0913342
-0.137738
0.0470621
0.0151126
0.0125116
0.0572413
0.143823
-0.169121
-0.185234
0.0147086
-0.00555226
0.116746
-0.136715
0.059678
-0.00307396
-0.0983566
0.038672
0.143971
0.0363853
0.0129417
-0.0178589
-0.0349617
-0.132041
-0.0908486
-0.0301499
0.111724
-0.02486
0.117025
0.12278
-0.0298484
-0.0519212
0.178121
0.0790861
-0.197677
0.0597846
0.0388266
0.0569275
-0.174326
0.0337769
-0.000148145
0.142142
0.105303
-0.0907489
-0.0603291
0.0317817
-0.037152
0.0387163
0.0920929
-0.0869978
0.0310254
-0.10439
0.0922574
-0.0181484
0.0760661
0.0758584
0.0331286
0.0682465
0.0851241
0.147912
0.0459225
-0.0152881
0.0289906
-0.0328338
0.0176659
-0.0359123
0.000134069
0.182944
0.0742148
-0.0627032
-0.106124
0.112147
-0.0515242
0.0952109
-0.0554173
-0.116048
-0.0819939
-0.13714
-0.0375706
0.0470948
-0.0888365
-0.121729
-0.0891349
0.0537882
0.0338964
-0.0818773
-0.0729906
-0.0458137
0.0636456
-0.252264
-0.165761
0.0271105
-0.206834
0.0469068
-0.114515
-0.0557374
-0.0100762
-0.00608727
0.0487108
-0.0834489
-0.0259086
-0.056806
0.000210554
0.117171
-0.0600683
-0.156987
-0.20426
-0.0532234
-0.155808
-0.15139
-0.153391
0.0322576
0.141646
0.0694046
-0.0324459
0.0145384
-0.0936205
-0.141611
-0.10567
-0.0951204
-0.0291667
-0.00461877
-0.0179262
0.119705
0.0705778
-0.227316
0.212411
0.0303401
0.0455221
-0.00788276
-0.0199728
0.0310071
0.01701
-0.196736
-0.211601
-0.0184272
-0.0817475
-0.00160784
0.0301031
-0.0930617
-0.0205647
0.180352
-0.0479017
0.014237
0.0963152
-0.0121037
-0.125022
-0.0120875
-0.132153
-0.0194549
0.0415875
-0.0428874
0.0802875
0.0213838
0.0956048
0.038657
0.0143179
-0.0926363
0.0905474
0.0097351
0.0379511
0.0281805
-0.159561
0.231682
0.0562181
-0.052693
0.160817
0.190676
-0.0493714
-0.0526237
-0.0304532
0.0661486
-0.0142681
0.188257
-0.0387733
0.102269
0.0815562
0.0332114
0.0496891
-0.109861
0.0464264
0.0388821
0.0251693
-0.0713752
-0.0124465
-0.0779006
-0.045607
-0.0409169
-0.0227449
0.0113746
0.11363
0.0434339
-0.096623
0.0739651
0.0564446
-0.0426511
0.0563206
-0.0722216
-0.0463993
-0.141493
-0.0262401
0.105176
0.0601111
-0.0582757
-0.0710755
0.0662801
-0.0264724
-0.0482929
0.159565
-0.0579007
-0.0382426
0.0124435
0.0528692
0.196856
0.00810782
-0.0418059
0.0582726
0.0868044
-0.0743341
0.0754405
-0.0807003
0.0686928
0.047181
0.0236398
0.0746637
0.0460616
-0.0865016
-0.0929009
0.100967
-0.0237699
-0.0431901
0.00111572
-0.105789
-0.107757
0.200897
-0.0209284
-0.14376
-0.100897
-0.00789959
0.0496122
0.0732197
0.0294759
-0.0136089
0.154707
-0.0179285
-0.124486
0.0114615
-0.103589
0.146062
-0.0516447
-0.0448114
-0.131582
0.0874657
-0.104121
0.117201
0.0577849
0.0768573
0.054821
0.0826048
0.157906
-0.0149729
-0.00449886
-0.139716
0.207561
-0.111608
0.00222559
0.0575434
-0.00345469
0.039087
0.0738732
0.152428
0.0518239
0.161783
-0.067585
-0.0515701
-0.0614431
-0.0591818
0.171599
-0.0562892
0.00822349
-0.00880464
0.0807175
0.089673
0.12637
0.111252
0.0614417
0.109117
0.0735767
0.110832
0.104685
-0.0127556
0.00532471
0.142946
-0.194084
-0.0571547
0.0740591
0.0190097
-0.0252564
0.0719418
-0.0395729
0.0329139
0.0183454
0.0193394
0.0166919
0.0732732
-0.0302734
-0.120697
0.0140573
0.21562
0.233026
0.0677268
-0.0184414
-0.0492876
0.0771347
0.098333
0.0445028
-0.0750356
0.0371861
0.04115
0.0336949
0.0706016
-0.0572855
-0.0797356
0.0523022
0.0678301
-0.11182
0.13542
0.0592479
0.0446294
0.195076
0.0492269
0.0574464
-0.0272204
0.105898
-0.0712949
-0.0452979
0.00215546
0.0139175
-0.0941268
0.0421437
-0.0131291
-0.0781469
0.2341
0.122788
0.12097
0.099989
0.246649
0.0844882
-0.062177
0.0628991
0.0343088
0.0695136
-0.288786
0.0427022
0.0811744
0.114317
0.0220412
-0.0237363
0.14553
0.0174795
0.041763
0.204614
0.136873
-0.0477132
0.0195648
0.0830107
-0.00820387
-0.0578178
0.132532
0.00816057
0.0266585
0.00610135
0.0401228
0.0799
0.0310868
0.168998
0.164309
0.177977
-0.0647521
0.147472
-0.0189306
0.0132757
-0.0538014
0.00771129
0.122404
0.0941817
0.0277083
-0.0206126
0.140322
0.070008
-0.0579105
0.0125059
-0.029943
-0.067836
0.0951605
0.0103934
0.152855
0.0496415
0.0474287
0.0357492
-0.0065948
0.0619841
0.0278662
0.0496163
0.102859
0.041254
-0.0681402
0.130556
0.102423
-0.0894424
-0.0739041
0.0642496
-0.0200387
0.0238019
-0.0177968
-0.00430681
0.141392
0.0303735
0.00401436
-0.0573203
0.0280625
0.12594
-0.086081
0.0251007
0.193037
0.0155772
0.0802992
-0.143456
-0.0124534
-0.0812265
0.0304258
0.0848498
0.0691993
0.111929
-0.0232724
0.0814462
-0.0689845
0.205998
0.0579017
0.119211
0.015151
-0.0492847
-0.0504059
0.0971939
0.0491713
-0.214516
0.0063785
0.120629
0.0102711
0.0888284
-0.0221771
0.239173
0.0866916
0.124836
0.0027434
0.176472
0.0155011
0.0452915
0.0219178
0.163047
-0.00551019
0.0915892
0.0665203
-0.00748734
0.0747524
0.076882
0.0113122
-0.040759
0.00456725
0.154327
0.0636841
-0.091916
-0.00743951
-0.0268881
0.100336
0.0417435
-0.119838
0.0623445
-0.00168903
0.114957
0.0798606
0.00916912
0.0485139
-0.0327227
0.313315
-0.0127228
0.0775781
-0.108317
0.264667
0.0939082
-0.033756
-0.060137
0.0470493
0.108924
0.0892664
0.0283551
0.167559
0.108586
0.00825723
0.0801742
-0.0571676
0.017355
-0.0633087
0.110914
0.104584
0.0490014
0.0397135
-0.0689782
-0.0758528
-0.136796
0.0582137
0.154541
0.141237
-0.00335685
0.261075
-0.0932973
-0.113894
0.119037
-0.0267079
0.212662
0.0781036
0.129535
-0.192921
0.225558
-0.0381363
0.0205618
0.0282344
0.119658
-0.0503521
-0.00665125
-0.0717036
-0.112952
0.0561962
-0.103297
0.0405889
0.0505206
-0.0806617
-0.0855935
-0.0545895
-0.170769
-0.190109
-0.0174823
0.0408745
0.157658
0.0113212
-0.166781
0.260153
0.0997703
0.109324
0.351022
0.175189
0.264005
-0.0458334
0.0245357
0.00769632
0.207179
-0.0563662
0.0355208
0.0669094
-0.0898184
0.172818
0.104298
0.174755
-0.0284363
0.0238742
0.129223
-0.0608815
-0.0912593
0.119564
-0.120622
0.0645219
0.136529
0.0220846
0.0489411
0.00638035
0.0951568
0.0721684
0.111813
0.173447
0.105039
0.048817
-0.0122757
0.204335
0.1883
0.135741
-0.0580928
0.0882872
0.0227837
0.104122
0.060279
-0.0132776
0.0880372
0.03308
-0.103994
0.0530177
0.119549
0.119914
0.0556431
-0.205675
-0.0386919
-0.167631
0.220046
0.000776717
-0.0681375
-0.0198419
-0.120093
0.112941
-0.106942
0.26442
-0.0430874
-0.0440482
0.165314
-0.00117985
-0.0349187
-0.062828
-0.137116
0.0325235
0.0941277
0.0274928
-0.0315629
-0.142732
-0.0445369
-0.00210635
-0.0369943
-0.035267
-0.0390201
-0.0411803
-0.0233123
0.018647
0.114361
0.248537
0.0649419
0.173903
-0.042976
-0.0884484
-0.123717
-0.10973
-0.314753
-0.128192
0.100227
-0.0927686
-0.106859
-0.00758708
-0.210596
0.0575771
0.0687738
-0.0450969
0.017637
-0.142691
-0.00467447
-0.0901255
-0.0436891
-0.164608
0.0329044
-0.0375983
0.0103456
0.188066
-0.0767054
-0.115697
0.126223
0.131562
-0.0517878
0.0402343
-0.0635735
-0.1693
0.0904508
-0.165212
-0.168227
-0.0102199
0.047784
-0.0703415
-0.059181
-0.160125
0.0844539
0.0298129
-0.138008
0.0136809
-0.124286
-0.0977955
-0.265585
-0.291318
-0.0729311
-0.0286135
0.0110848
-0.0875577
0.0221761
0.00680836
0.167198
0.176305
-0.0475526
0.0857014
0.135143
0.016623
-0.128317
-0.250101
0.00355975
0.00197464
-0.0539544
-0.192718
-0.0267063
0.132286
0.0351883
0.0211193
0.018503
-0.00754601
0.00334574
0.0957858
0.125025
0.0755089
0.103292
-0.090165
0.0800267
0.089622
0.151715
0.0518705
-0.109067
-0.0237997
-0.0741385
0.0108861
0.0270908
0.254966
0.157828
0.060041
0.022201
-0.208051
-0.291331
0.0204889
0.150041
-0.146039
-0.196902
-0.133396
-0.0359968
-0.222945
0.011887
0.0561092
-0.0287749
0.120814
0.0553393
-0.0383621
-0.027506
-0.101768
-0.0454145
-0.155242
-0.27988
-0.108598
-0.0457043
-0.138741
-0.267043
-0.0287558
-0.219023
0.0127288
0.0833965
-0.182655
-0.0844365
-0.108852
0.202163
-0.0124965
0.0296615
-0.0884257
-0.271599
0.129293
0.00876034
-0.0538079
0.13062
0.0604497
-0.0384873
0.129374
0.190763
-0.00897999
-0.125542
0.0910494
0.0143303
-0.0581136
-0.0546911
-0.0091959
0.0700303
-0.0846416
-0.029467
0.00226196
-0.0326046
0.0407594
0.0459704
0.116976
0.159279
0.0197567
-0.0808496
-0.0210559
0.223056
0.0324422
-0.170376
0.0203596
-0.000553069
0.00389938
-0.00973819
-0.124546
-0.150388
0.0280751
-0.0697455
0.0202527
0.108128
0.0921077
0.0543894
0.0142265
0.117838
0.03732
-0.0558348
-0.126942
0.00800678
-0.119176
-0.195459
0.0189149
-0.0524871
-0.147238
-0.0517797
0.00255367
0.116941
0.0412044
-0.0602839
0.122778
0.127861
-0.11725
0.124158
-0.150879
0.137962
-0.0889134
-0.178193
-0.159144
-0.0719683
-0.12773
-0.166646
-0.142746
-0.137013
-0.0838885
-0.0606668
0.0152297
0.0775441
-0.17902
0.0333937
-0.194148
0.0735572
0.0861297
0.0381944
0.0832214
-0.0859586
-0.0474386
-0.172409
0.0809038
-0.179936
0.144469
0.0150502
0.0218876
-0.0665657
-0.0192528
-0.156806
0.148166
-0.10932
-0.156665
-0.0598882
0.0810744
-0.13205
-0.300759
-0.139652
-0.110657
0.0593407
0.0853278
-0.0466898
-0.1321
-0.0102135
0.0738472
-0.120694
-0.127757
-0.0550212
-0.163503
0.0481977
-0.0612443
-0.182322
-0.141353
-0.029397
-0.257267
0.0171529
-0.03801
-0.190622
0.231996
-0.342143
-0.0672956
-0.0244706
-0.103356
-0.0466986
0.0155822
-0.0941085
-0.0394922
-0.0735149
-0.150973
-0.0715477
-0.128576
-0.10768
0.0732414
-0.0176996
-0.0273862
-0.0790889
-0.209937
0.0567641
0.00860872
-0.0369072
-0.149815
-0.0283305
-0.199269
-0.0802862
-0.154465
-0.0944878
0.0259859
-0.041749
-0.149214
0.133817
-0.220526
0.136078
0.149931
-0.0869961
0.0299318
-0.0203572
0.0514623
-0.0927416
-0.0158721
-0.00831608
-0.0254435
-0.0133262
-0.194525
-0.0667875
0.00901394
-0.0681247
0.0334731
0.0647924
-0.199464
-0.11005
-0.155869
-0.326344
-0.0326974
-0.112989
-0.0701098
-0.18317
-0.0503916
-0.0417979
-0.163312
-0.106219
-0.0363562
-0.0868401
-0.0304543
0.110727
-0.0535081
0.0970811
-0.0657068
-0.203763
-0.0217653
-0.278735
0.0646582
-0.200742
-0.0103307
-0.0971921
-0.0436941
-0.105604
0.243371
-0.141971
-0.148089
-0.0347572
0.0145706
0.004201
-0.129518
-0.197164
-0.0306335
-0.0523934
-0.323552
-0.120145
0.029014
-0.0305998
-0.101275
-0.267014
-0.0607127
-0.281726
-0.0958156
0.0924682
0.0677222
0.00922242
-0.087263
-0.0433163
0.048169
-0.0261949
-0.0703057
-0.0425542
-0.205491
-0.0642817
0.0549344
-0.0416181
-0.0540127
-0.029367
-0.196945
0.0443959
0.000633523
0.0614342
-0.0898977
-0.0116421
-0.0532964
-0.00548338
0.0696911
0.0249285
-0.166613
0.178602
0.10099
-0.0937683
0.181287
-0.108561
-0.0434017
-0.0631216
-0.0856688
0.144372
0.0214993
-0.0236627
-0.173532
0.0505326
0.175462
0.0570771
0.10435
0.0465287
0.0354405
0.16776
0.164408
-0.130608
-0.152402
0.234449
-0.0556515
-0.121157
0.202598
0.119909
-0.157466
-0.0193173
0.017518
0.024025
0.00266941
-0.0124548
0.0295208
0.0824854
0.0966393
-0.27571
0.182011
0.0985046
-0.0560531
-0.00314405
0.19024
0.0939595
0.102815
-0.116458
0.044799
0.0519567
0.118367
0.023019
0.057143
0.101
-0.0601174
0.0590123
0.0605643
0.0168765
0.0526238
0.170673
0.200078
0.0716126
0.0783675
0.126536
-0.0257375
-0.0263783
0.043165
0.196817
-0.0837364
-0.100957
0.0170405
-0.166533
-0.087377
0.117563
-0.0260475
-0.0636794
0.195874
-0.0609928
0.02969
0.00577085
-0.222227
0.124661
-0.0113584
-0.0755319
0.0066735
0.0219828
-0.0658487
-0.106206
0.108071
-0.132267
-0.0710201
-0.0139509
0.0293395
-0.0291062
-0.0461013
-0.00580745
0.0321878
-0.187373
-0.00278866
-0.160389
-0.0706172
-0.00618857
0.0949066
-0.144606
-0.0433415
0.123147
0.057108
-0.051839
0.109606
-0.0943905
-0.147988
-0.0206676
-0.0164411
0.0867049
0.224108
0.0408971
0.0548125
0.10214
-0.0846115
0.163453
-0.00794058
-0.00577839
-0.175886
-0.0599467
-0.143032
0.0754297
-0.11287
0.0534349
-0.154788
0.0197073
0.021965
-0.116982
0.102123
-0.0293496
0.170862
0.057436
0.114251
-0.00159754
-0.106676
-0.0340139
-0.0498169
-0.209458
-0.0147331
0.0478783
0.0584129
0.00179043
-0.0304597
-0.152061
0.0382173
-0.0336768
-0.0821673
0.104411
0.191819
0.07239
0.114382
-0.228433
0.0462807
-0.0835305
-0.110334
-0.0301223
-0.0610902
0.00500822
0.0272414
0.0272003
-0.130611
-0.0570092
-0.0619172
-0.0498488
-0.0521011
0.0839275
-0.136041
0.0571239
0.162212
-0.0692959
0.133652
0.06243
0.0240963
-0.147302
-0.0477635
-0.0908475
0.326939
-0.111485
-0.0850961
0.168671
0.0619781
0.224812
0.00809183
0.0275837
0.15048
0.0347409
-0.00943082
0.0578713
0.0366994
-0.0722411
-0.106839
0.0623043
0.123713
0.0629941
-0.047683
-0.0514236
0.136995
-0.0954344
-0.0808783
-0.111462
0.0591687
-0.0194638
-0.000264642
-0.0749048
0.0277171
-0.00692526
-0.12414
0.103054
0.0668753
0.12365
0.100519
-0.139214
0.117606
0.0716559
0.165575
0.0703606
-0.199337
0.0261233
0.132586
-0.0520805
0.0780016
0.182631
-0.0179849
0.021812
-0.0956797
0.0287071
-0.0811515
0.0952749
-0.161381
0.0226371
-0.0976577
-0.0911058
-0.0378162
0.196974
0.0104837
-0.0282214
0.0623401
-0.0193036
-0.0461724
0.0514175
0.132573
-0.0612006
0.0736838
-0.0889107
0.185175
-0.0138495
0.0307371
0.0499381
0.190832
0.0418282
0.0248293
0.00843597
0.00909236
-0.0636557
-0.0845352
0.0784535
-0.117052
-0.135278
0.0836272
-0.128608
0.263495
0.0562862
-0.00824537
0.0403175
0.119237
0.0501485
0.0286116
0.258601
0.0464394
-0.0613021
0.0224784
-0.00802107
-0.0896586
0.0558718
0.170472
0.00672254
0.0684581
0.114821
-0.0657852
-0.187137
0.0979681
0.0421697
-0.224756
-0.0558265
-0.0458405
-0.000476532
0.0467673
-0.0126819
0.0519355
-0.0221501
0.101653
0.0439174
0.135336
-0.00936967
0.0474124
-0.022348
0.0118197
-0.0721244
-0.178389
-0.134379
0.0589994
-0.0468452
-0.0802602
-0.0216783
0.0331376
0.00483937
-0.0638155
-0.0455101
0.0752801
-0.0765302
0.200546
0.123642
-0.0790176
0.223071
0.0396433
-0.0824243
0.0536495
0.0906839
0.173983
0.0589504
-0.0643484
0.109095
-0.00662728
0.0926357
-0.056044
0.0850511
-0.0914634
-0.0534574
0.118746
-0.0520445
-0.0148912
-0.0866222
0.0835064
-0.101522
-0.0654133
0.086692
-0.018785
0.0684109
-0.171838
0.138603
0.122823
0.0987437
0.129826
-0.0621085
0.0533186
0.0485776
0.114267
-0.0263145
-0.074262
-0.136834
0.0474752
0.0577753
0.101905
0.0812777
0.000606664
-0.0678673
-0.0568752
0.0684747
0.154893
-0.0386015
0.0436001
0.0876818
0.048049
-0.060102
0.0192163
-0.147186
-0.0687477
0.0354523
-0.0107758
-0.061275
-0.0642309
-0.00344431
0.064107
-0.00347476
0.0772865
0.143903
0.194025
-0.00963274
0.129148
0.0442947
-0.0863773
0.058191
-0.0240397
-0.139123
-0.0835517
0.0603126
-0.145604
0.179417
0.114586
0.0176986
0.164329
-0.18168
0.0792235
0.0241668
-0.171992
-0.0120946
-0.015738
-0.0726976
0.0102682
-0.0493708
0.0243968
-0.0417708
0.0688634
-0.00101108
-0.0166057
0.00566326
-0.124831
0.0224388
0.0812594
0.0548375
-0.040871
-0.022017
0.123571
-0.121222
-0.0858048
0.136951
-0.0286421
0.0929377
-0.108665
-0.139621
4.44807e-05
0.00367372
0.168443
-0.225682
0.0623087
-0.0745657
-0.00419339
-0.0276368
0.0338779
-0.193444
-0.087915
-0.107702
0.0264478
-0.115011
0.276563
-0.0839468
0.0190538
0.157639
0.0832157
0.0344968
0.0421431
0.0515866
0.0314369
0.0354059
-0.0340121
-0.102428
0.0536818
0.0401556
0.0424986
-0.124399
-0.0964781
-0.135533
-0.118604
-0.44161
-0.112064
0.0497119
-0.00724856
-0.18517
-0.0905437
-0.0429686
0.0712804
0.0698467
-0.140582
-0.0843475
0.0834465
-0.109888
0.00347743
-0.0180563
0.120487
0.0704
0.115408
-0.0701759
-0.0719465
0.14478
0.247411
0.080238
-0.179324
-0.0791089
-0.0544598
-0.099466
0.0392156
0.0396915
-0.0630852
-0.171561
-0.0371377
0.0478586
-0.0913564
-0.0204769
-0.0460309
-0.0858303
-0.0993769
0.124242
0.167022
-0.119858
0.0480083
-0.000414726
-0.112206
-0.124389
0.135184
-0.0968235
0.0405687
0.00729063
0.00869774
-0.222298
-0.116507
0.00157075
-0.144683
-0.173104
-0.0857738
0.0904112
-0.0432868
0.0158371
0.123391
0.0771101
-0.108916
0.0507012
-0.191632
-0.0498295
0.0501402
-0.0025332
-0.0657301
0.0704135
-0.0890494
0.042517
-0.0766488
0.0919472
-0.072553
-0.0181761
0.109991
-0.070538
-0.205958
-0.0660072
0.00900543
0.101717
0.180403
0.0903248
-0.0720498
0.177787
-0.168161
0.0314597
0.0382583
0.0562749
-0.101989
-0.0729585
-0.103816
-0.0676659
-0.0470039
-0.0229961
0.0461173
0.115186
0.0190487
0.0915628
0.0499278
0.181251
-0.0334655
0.116837
0.232414
-0.0952445
-0.0804921
0.0432193
0.165774
0.0104461
-0.00714459
0.00163578
-0.0352266
0.0332866
-0.023197
-0.111421
0.0859995
0.0226278
0.110561
-0.194651
-0.0280019
-0.201712
-0.132972
-0.134706
0.0396746
0.0179776
0.0302479
-0.165014
-0.00307419
-0.0458267
-0.141332
-0.0803232
0.000250947
-0.0677723
-0.0456444
0.0310573
0.0366168
-0.0412813
0.0168894
-0.0148709
0.013187
0.0935808
0.193424
-0.0186569
-0.0419017
0.0315402
0.111219
0.0237932
0.0252278
-0.0726982
-0.0184224
0.0989071
0.0431703
0.0274714
0.0261814
-0.0393046
-0.0867844
-0.0925854
-0.0135844
0.153097
0.215019
-0.102836
-0.0891449
0.00232439
0.0928772
0.0286841
-0.249639
-0.267484
0.104908
-0.107462
-0.0168299
0.0793267
0.0590272
0.0698706
-0.179796
0.0265604
0.0672347
-0.0254633
0.126796
-0.122495
-0.0186639
0.058244
0.178957
-0.0119121
0.108855
-0.131699
-0.0697287
-0.0962525
0.137208
0.114536
-0.10513
-0.148485
-0.048882
0.0376113
0.0575059
-0.0210442
0.0597442
0.0432044
-0.207692
-0.148364
0.112873
0.000823587
-0.0525792
0.0278784
0.0153497
-0.0882835
-0.0299376
0.182942
0.117736
0.0990253
0.14144
0.091099
0.0164302
0.121929
-0.0705803
-0.0735156
-0.0306996
0.045467
-0.0523034
0.0814493
0.0797856
0.218305
0.0406877
0.0552716
0.123543
0.0946776
0.139833
-0.0663794
-0.0826712
0.0659665
-0.0842315
0.0627797
0.0733371
0.0511729
0.174725
0.0771065
0.0430914
0.168009
0.0281809
0.0366543
0.0188612
0.049008
-0.0357181
-0.116102
0.0111569
-0.0163696
0.0174867
0.145315
0.0655401
-0.085399
-0.0121571
-0.108908
0.166909
0.0496283
0.134406
0.00500601
0.134689
0.0557443
0.253009
0.0293191
-0.00142103
0.0490486
0.0537472
0.0024006
0.0730402
-0.120517
0.0398249
0.0184655
-0.0434166
-0.0305516
0.114655
-0.0190087
0.0867886
0.0064115
0.0780232
0.155216
0.0466442
0.0209124
-0.124182
0.176086
-0.0204727
-0.103049
0.0329419
-0.0171447
0.0448312
-0.0797147
-0.0667057
0.176575
0.0319191
-0.0814252
-0.217443
0.0285403
-0.116647
-0.121136
-0.0769037
-0.0392735
-0.0434767
-0.0196014
0.0676761
0.194075
-0.0210397
-0.0402777
0.150686
-0.0363566
0.0847071
-0.100537
0.0869141
0.132612
0.0151242
0.0665264
-0.144021
0.0133928
-0.0467922
0.232852
-0.0729528
-0.0819148
0.18272
0.0134224
-0.00668485
0.0309074
0.00966051
0.0535007
-0.069125
-0.10364
-0.175809
-0.0228528
-0.0287806
-0.204083
0.0423704
-0.0535413
-0.106046
-0.120849
-0.0224294
-0.130495
-0.0569114
-0.0448463
-0.0378227
0.102245
-0.0482523
-0.0670315
0.0162258
0.0723367
0.0977815
-0.00425793
-0.054422
-0.0671736
0.0394617
0.128295
-0.147744
0.0227417
-0.0955858
0.0785897
0.0785348
-0.149411
-0.0186697
0.261737
0.0104708
-0.035297
0.205534
0.0127917
0.20215
-0.0355362
0.0188937
-0.133374
-0.0433825
0.0493768
-0.0614843
0.110875
0.0364392
0.107397
0.106082
0.0384019
0.137629
0.0973271
-0.0795003
-0.0039284
-0.159741
0.189564
-0.0192257
-0.141106
0.111862
0.0626095
0.0318283
0.106405
0.073191
0.045596
0.0895435
-0.0374389
0.155048
-0.127737
0.100626
-0.0748439
0.116229
0.0536427
-0.0639269
0.160658
-0.0685419
0.107093
0.162567
0.0960442
0.0790665
-0.00775063
0.0894609
0.0919387
-0.0195108
0.183831
-0.05519
0.189754
0.0130645
-0.0625903
-0.00537004
-0.0311885
0.0723886
-0.138034
0.112411
0.237447
0.00960264
0.0941054
-0.0749373
0.076037
0.0108552
-0.0426976
0.0412072
0.145169
-0.114018
0.0425813
-0.133111
0.0307991
-0.0956768
0.160029
0.000861896
0.115297
0.1536
0.0248563
-0.0370771
0.0683887
0.0488626
0.143385
-0.104368
-0.274397
0.047612
0.00966633
0.017874
0.0478304
-0.185494
0.0958933
0.147593
-0.228572
0.0494072
-0.0227049
0.0226264
0.00485987
-0.107601
-0.101833
0.0372132
0.0381345
0.0162989
-0.0883014
-0.110894
-0.0387619
-0.0893589
-0.0701828
0.193334
-0.0267019
-0.176598
0.127903
0.0788374
0.0610154
0.0438415
-0.114096
0.119382
0.119551
-0.21648
0.190582
-0.045066
0.0569585
0.0566202
0.0485582
-0.0340453
0.0176797
0.0434067
-0.0394727
0.173221
-0.0204448
-0.133155
0.0304308
-0.0930856
0.0643322
-0.0282609
0.019379
-0.0314431
-0.134876
0.140756
-0.00792116
-0.000152308
-0.0377564
-0.13119
0.086185
-0.104888
-0.0534159
0.0801154
-0.114864
0.0597699
-0.0813261
-0.0556739
0.055353
-0.0219226
0.112788
0.105685
0.0826653
0.0396645
0.000113486
0.150189
-0.0383827
0.174083
-0.00529708
0.0811073
-0.00522867
0.0106535
-0.00972308
-0.00958237
-0.0373124
0.110172
0.0295556
0.0648061
-0.117535
-0.00550101
0.0651714
-0.0333237
0.163117
-0.105625
-0.192219
-0.186251
0.155723
0.0141057
-0.0531802
0.102662
0.0693531
0.0283927
0.12697
0.0673061
-0.0781259
0.181422
0.0846439
0.209844
0.00944142
-0.108181
-0.0208088
0.00414101
-0.0980001
-0.0078138
0.073208
-0.0192077
-0.171016
0.135859
0.0577157
0.110375
-0.0151574
-0.0197157
-0.155685
0.0755236
0.089867
-0.111325
-0.0860333
0.167705
0.0134978
0.0887374
-0.104623
-0.0954538
-0.0136543
-0.0223313
-0.14272
-0.0200649
0.0920831
0.0621613
0.211575
-0.105818
-0.0712099
-0.00761805
-0.0136977
0.0840494
0.12121
0.134503
0.00861137
-0.0397361
-0.192116
0.126691
-0.0452384
0.00204876
-0.115239
-0.0145562
-0.0824905
0.275497
-0.117733
0.149487
0.0929168
-0.0224193
0.263377
0.0842348
-0.0726709
-0.0283879
-0.204823
0.056856
-0.0627789
-0.0310286
-0.0717174
0.0533748
-0.111464
-0.00489134
0.0690631
0.142907
0.187144
0.0969658
0.232678
0.0384645
0.0810412
0.100402
0.0301421
-0.038861
0.0169842
-0.0867384
-0.136468
0.0735479
0.142843
-0.0237726
-0.00324009
0.113506
0.127135
0.036447
0.22444
0.191159
0.0163432
0.0571149
-0.0170732
-0.0714249
-0.0902716
0.0741915
0.0960143
0.00491443
-0.0462524
-0.0864564
0.0547671
0.128814
-0.0618535
0.0432062
0.0832314
0.0339601
-0.0118123
0.0294426
0.102994
-0.141962
0.164061
-0.109107
0.10091
0.0602448
0.138936
0.150237
0.0811263
-0.0479034
0.0874186
-0.0379792
0.0973517
-0.0618874
-0.0565899
-0.13527
-0.0236625
-0.0348197
-0.159688
-0.181715
-0.0275694
0.0943477
-0.025906
-0.0932106
-0.0393632
-0.0750408
0.0600115
0.128882
-0.0238488
0.0957106
0.1192
-0.0523526
0.199303
0.149973
0.0356019
0.0910488
-0.0687602
0.106632
0.127207
0.0737511
-0.0267044
0.142992
-0.026822
0.00969933
-0.12237
0.0198812
0.00321722
0.0822814
-0.0731416
0.0129283
-0.0540044
0.0766566
0.0131585
-0.0954307
0.0705681
0.169537
0.181216
0.0582737
0.14521
0.203871
-0.0231333
0.194833
0.106022
0.149933
0.020988
0.0781901
-0.0829971
0.0579618
0.120704
0.0618298
0.0741769
0.0266504
0.146199
0.041474
-0.119801
-0.00357669
0.240841
0.145264
0.221868
0.00181279
0.202521
-0.187192
-0.0630614
0.0839791
0.154796
0.040354
0.0868778
0.16497
-0.175274
0.111347
0.0496579
0.137457
-0.0857695
0.23412
0.0728334
0.196561
-0.025831
0.135703
0.198505
0.163883
-0.030622
0.0994354
-0.250525
0.130716
0.00772229
-0.0594035
-0.00485737
-0.0796677
-0.0170375
-0.032384
0.106599
0.0581394
0.115933
-0.178791
0.0526267
0.076838
-0.0516801
0.10176
0.114314
0.0953698
0.150649
-0.0997451
0.0238417
0.0979719
-0.0487863
-0.161597
0.00316896
0.136488
-0.0107086
0.1566
-0.0734732
0.207872
0.00689308
-0.00556052
0.0960088
0.0238947
-0.0820162
-0.0550189
-0.166793
-0.00824244
-0.0793145
0.0324242
0.0887463
0.00998249
0.10955
-0.0262182
0.068387
0.131711
0.0502597
0.240076
0.0348433
0.0406949
-0.0418925
0.0490031
0.0900702
0.143929
0.0193898
-0.0625793
-0.0558243
0.0507037
-0.0282315
0.253955
0.0274831
0.0522933
0.158844
0.04591
0.117525
0.0606979
0.128168
0.0733889
-0.0339262
-0.198586
-0.107938
-0.0783606
-0.00785626
-0.0954282
-0.04159
0.0458493
-0.112139
0.0134469
-0.00300576
-0.174085
-0.0660564
0.182574
-0.120821
-0.0430459
0.0984712
0.0974203
-0.0966462
0.145171
-0.0244482
-0.0445433
0.150608
0.0270117
0.098852
-0.0195538
0.0586803
0.0289017
0.171844
0.0340857
-0.00355213
-0.162896
-0.0158695
-0.0208151
0.119014
0.0566061
-0.000125745
0.174005
0.170885
0.0387037
0.0128342
0.0235779
0.146071
0.0142173
-0.0448636
-0.0931854
0.121776
0.0682398
-0.002181
0.167671
-0.0389506
0.0286119
0.0144543
0.038363
0.0175142
0.0815227
0.0841898
0.0206649
-0.0250857
-0.0891002
0.05228
-0.0160576
0.0762619
-0.121236
-0.0495114
0.00129116
-0.0273432
-0.0155181
0.154421
0.0174158
0.0760203
-0.100973
0.0773879
0.0670623
-0.0303326
0.0811181
0.0394188
0.0287791
-0.0475139
-0.00688954
0.0352422
0.0404209
-0.0620548
0.0975906
-0.00397411
0.00702451
0.084859
-0.0464738
0.0698479
0.0323171
0.0206084
-0.0624981
-0.0453633
0.0926751
-0.0315873
-0.0118805
-0.108395
0.0420326
0.0292257
0.012406
-0.0619414
0.0207376
-0.169435
-0.0513305
-0.0108439
0.0857793
-0.00264296
0.178608
-0.120803
0.168052
0.0132623
0.0182887
-0.139173
0.134648
0.0159502
0.0112515
0.0235855
0.0134667
-0.0844388
0.16149
0.019282
-0.0760011
-0.020091
-0.229653
-0.0587224
-0.0353612
0.0329892
-0.152394
-0.109908
-0.0255423
0.167272
-0.109948
0.0217615
-0.0157427
0.0477261
-0.0534081
0.124171
-0.0433912
-0.122816
-0.145139
0.165223
0.091408
-0.0191491
-0.00720952
0.106524
0.0443939
0.0124619
0.0106802
-0.0291913
0.0713235
0.0594329
-0.0775707
-0.10805
0.153455
0.00673629
0.0179981
0.07816
-0.032646
0.0615476
-0.144809
0.261744
-0.0297134
0.172639
-0.0247208
-0.144918
0.0727483
-0.0330697
0.0592177
-0.0732688
-0.0235842
-0.140615
-0.0873857
-0.0234849
-0.0805962
-0.070752
-0.0870875
-0.150259
0.15139
0.0381133
-0.104244
0.0899672
0.0419664
0.113768
0.0604053
0.0464993
-0.0765738
0.164523
0.00211121
-0.0567034
0.068725
-0.14985
0.0932784
0.110486
0.0456402
-0.00309398
0.00763689
0.0529388
0.153709
0.0128506
0.00191008
0.139826
-0.115405
-0.131794
-0.0687217
0.0311109
-0.068999
-0.0186901
-0.0695432
0.059895
0.0970937
-0.105481
0.0111757
0.128792
-0.0977536
0.0528392
-0.0530341
-0.0347127
0.059473
0.107854
0.0726056
-0.0584595
-0.00464927
0.0234035
0.101976
0.0900629
0.14938
0.00180961
0.0522062
0.101553
0.0973185
0.0026734
0.0636352
-0.0391593
0.0845984
0.138876
0.0265797
-0.0212268
0.0314332
0.0619992
0.0484436
-0.141992
-0.110789
0.0277125
0.0748009
0.108726
-0.0602267
0.0237082
0.0592534
0.0199621
-0.0315842
0.141494
0.065209
-0.0381367
-0.101046
0.192407
-0.00204806
0.197639
0.144446
-0.0039312
-0.0115809
0.0450617
-0.1502
0.114961
0.170839
-0.0199193
-0.0500242
0.266216
0.0699531
-0.137766
0.046215
-0.0169051
-0.116279
0.150557
-0.106144
0.123884
0.100675
0.136193
0.0396226
0.243008
0.137214
0.116039
0.0452623
0.0652891
-0.00609535
-0.0143032
0.103914
0.238871
-0.0431046
-0.0497327
0.100896
0.0165063
0.0196697
0.162673
0.309262
-0.0274459
0.228327
-0.0337314
0.208948
0.0464502
0.188746
0.220213
0.343466
0.0194002
0.10105
-0.0130145
-0.00678144
0.274973
0.160291
0.208872
0.0123751
0.0570416
0.0505588
-0.0762677
0.0268222
0.0262952
-0.022818
0.137274
0.115159
0.0734672
0.0941127
-0.0923601
-0.20007
-0.0258516
0.281068
0.080086
-0.0787903
0.0206735
0.047476
0.0542104
0.107272
0.065413
-0.118935
0.11667
0.221667
0.0724784
0.0616659
0.124437
-0.224142
-0.115417
0.211915
-0.0613199
-0.146583
0.131507
0.105926
0.0901508
-0.07614
-0.048907
-0.0417467
0.070915
0.111016
0.0864078
0.0922104
0.134223
0.0111777
-0.096324
0.0540341
-0.144928
0.084864
0.0780227
0.0551618
0.0352725
0.164824
0.0396956
-0.0944581
0.0409214
0.323991
0.00862638
-0.0337668
-0.0716681
0.174377
-0.0406009
0.0108327
-0.129354
-0.078986
-0.16909
-0.028725
0.151018
-0.0379108
0.167263
0.0424599
0.243711
0.203898
0.146754
0.0285513
-0.136091
0.0886385
-0.15228
-0.118298
-0.326069
-0.108259
-0.201105
-0.0178638
-0.0635649
-0.0555236
-0.102497
0.0086826
0.160416
0.180646
0.042559
-0.0357467
-0.0824079
0.0206092
-0.129594
-0.129906
-0.145878
-0.0748616
-0.220259
-0.246398
-0.0661333
-0.197416
-0.0250764
-0.0171222
0.140716
0.130768
-0.0139491
0.0233909
-0.0500133
-0.105711
0.0736914
-0.0298084
-0.198267
-0.0792922
-0.103142
-0.142564
-0.0184028
0.0365104
-0.0895456
-0.0284407
0.0208416
0.220845
-0.205324
-0.0656405
-0.120299
-0.0172295
0.00309096
0.103177
-0.0701817
-0.0239221
0.0258601
-0.0406544
-0.114689
-0.0104191
0.0415381
-0.148215
-0.0442843
0.0724088
-0.0431244
0.0413051
-0.12388
-0.0996502
0.0951804
-0.0193522
-0.0118212
-0.0257256
-0.0386933
-0.000134983
0.0034789
-0.136342
-0.124837
-0.0785118
0.0362131
0.180255
0.0220903
-0.0188702
-0.0610111
0.175298
0.00955971
-0.0267
-0.0553003
-0.120498
-0.00180168
0.106758
-0.054707
-0.0124497
-0.0871693
-0.0550246
-0.0210072
0.159835
-0.0577736
0.0565139
0.107639
-0.0473948
-0.0607565
-0.0591671
-0.047237
-0.0944487
0.0804797
0.0466628
-0.0141247
-0.00637908
-0.021895
-0.10062
0.146475
0.13253
-0.0702515
0.0540112
-0.176777
0.0826768
0.00377913
0.0531089
-0.067168
0.0638704
-0.139668
0.0968617
-0.114423
-0.00321853
-0.1126
0.0310005
0.0573338
0.133882
-0.0390897
0.0374189
0.0825102
0.004841
-0.171765
0.143625
-0.149424
0.258967
0.148363
0.101902
-0.211196
0.142608
0.123777
0.00670732
0.0897421
0.0819561
0.13261
-0.121953
0.0697583
-0.034562
-0.0543076
-0.0107189
-0.0275597
0.0107122
-0.0130065
0.0536155
-0.00205263
-0.0988556
0.0219319
0.0279509
0.251709
0.078725
-0.154024
0.18153
0.0316896
-0.089438
0.0810713
0.0499939
0.067496
0.0936016
-0.0416633
0.134056
-0.0116116
-0.100916
0.139242
0.048002
0.02945
0.198305
0.00413465
-0.100649
-0.0212353
0.0375906
-0.0401753
-0.0205387
-0.069985
0.0390011
-0.0223602
0.17626
-0.176452
0.127731
-0.0014987
0.258264
0.128882
0.208294
0.0180332
0.0909089
-0.154469
-0.0446361
-0.0141731
0.218807
-0.119117
-0.123769
-0.150807
-0.0170644
0.144254
-0.039185
0.103638
-0.0605247
0.0660973
0.0616418
0.136379
-0.0268345
0.0162236
-0.0776136
0.0311058
-0.0339952
0.154774
-0.0614671
-0.109588
-0.0758551
0.149124
-0.151349
-0.203404
0.111007
0.278404
0.0344562
0.163944
0.0292573
-0.135413
-0.0640325
-0.134234
0.0402853
-0.0712329
0.0379479
-0.00509681
-0.0759865
-0.123975
0.0781779
0.10175
-0.0372773
0.153092
0.208883
0.0813259
-0.0656456
0.0767494
0.0240206
-0.205066
-0.0726193
0.0450247
-0.0087661
-0.0204049
0.126092
0.136726
-0.0736098
0.0389124
-0.248886
0.162418
0.136471
0.0647331
-0.0745595
0.00104606
-0.173956
0.00141439
0.0595708
-0.0370977
-0.118004
-0.0991338
0.00465745
-0.0443922
0.100329
-0.15446
0.139283
-0.0622831
0.0727168
-0.0730137
0.0353742
-0.0414892
-0.0549543
0.011199
-0.017526
-0.139538
0.00330404
0.0222057
-0.0800691
-0.126062
0.0359726
-0.0471057
-0.0883547
0.107857
0.271185
-0.0779483
0.0923949
0.159725
-0.0331663
0.115387
0.0949103
0.0835277
0.0106217
0.011386
-0.185897
-0.0607183
-0.0442435
-0.0660676
-0.033283
0.0685715
0.207784
-0.112172
0.117904
-0.00843139
0.0577773
-0.159435
0.0945057
0.0423006
0.114434
-0.0236989
0.0245068
-0.171147
0.0813614
0.0726914
-0.106789
0.141437
0.102946
-0.209891
-0.0452849
-0.181938
-0.00598516
-0.0208174
0.0595768
0.0287966
-0.0726305
-0.100824
0.0746429
0.0376134
-0.00610855
0.0161659
-0.0676063
0.074543
0.118394
0.0434576
0.0913852
-0.0662234
-0.180004
-0.0984012
-0.0615877
-0.185307
0.107957
-0.0031478
-0.101762
0.0698877
-0.201193
-0.0320363
-0.147705
0.240974
0.194875
-0.0198204
0.00127372
0.0630894
0.113511
0.0131951
0.0895721
-0.112675
-0.0501019
-0.0455966
0.0151833
0.0185114
-0.140127
-0.0162208
-0.00689102
0.0500218
0.241899
-0.0873683
-0.0273974
0.0384769
0.0995637
-0.0118103
0.127449
0.0264526
0.0402482
-0.0841897
0.0243515
0.0289372
-0.0309925
0.0442047
-0.181297
0.359925
0.270704
0.0863899
0.0853806
0.190149
0.060546
-0.147589
-0.0305329
0.111072
-0.12585
-0.141139
-0.00724372
-0.186466
-0.0284906
0.0790048
-0.110109
0.0529308
0.160496
0.0474398
0.056594
-0.0145242
0.197627
0.0132923
-0.054989
0.107507
0.139221
-0.00109538
-0.0308971
0.0979793
0.129028
-0.0432244
-0.121932
0.083432
0.16686
-0.074182
-0.0158111
0.0660943
0.0408403
0.076922
-0.032172
0.0298602
-0.0235922
-0.00604757
-0.189363
-0.0807686
0.0937389
-0.0462697
-0.0829998
-0.0549728
-0.0338117
0.0464195
0.0457232
-0.06748
-0.0433364
-0.0515396
0.0402579
0.0548541
0.128952
0.199419
-0.0105151
0.136168
0.0517786
0.00558351
0.142551
-0.0152263
0.00641202
0.0504121
0.0237147
-0.185079
0.111281
0.034297
0.0379122
0.205176
0.0628356
-0.0685176
0.119153
-0.0327172
0.0247107
0.0806474
0.0202238
-0.0200349
-0.0557192
0.0234566
-0.0307232
0.217015
0.121448
0.00201845
0.00545937
-0.192096
-0.0439952
-0.0233097
0.0149394
0.0997502
0.00967058
0.050338
0.112319
0.110549
-0.0604933
-0.165834
-0.0979767
0.100477
-0.00882917
0.111253
-0.0153017
-0.120106
0.235161
-0.0139338
-0.219342
0.0603337
0.0267293
0.122027
-0.0501292
-0.114633
0.125635
0.0288998
0.28053
0.128988
0.0741801
0.127915
-0.0233905
-0.0160684
-0.16845
-0.0272681
0.116393
-0.0523106
-0.00221198
-0.0424803
0.017801
-0.0414786
-0.0526425
-0.0927618
0.236246
0.0982506
-0.0404054
0.125798
-0.233223
-0.160295
-0.0391266
-0.0902441
0.177248
-0.148689
-0.055187
0.105001
0.164373
-0.0369586
-0.028216
-0.00646309
0.0976002
-0.17803
-0.104745
-0.160205
-0.0955476
0.0429262
-0.1304
0.00234506
-0.0178832
-0.0330443
0.0524797
-0.216986
-0.044536
-0.0226993
-0.107006
0.0888967
-0.128024
0.0147593
-0.100141
-0.0590022
0.0282138
-0.0719789
-0.0455981
-0.0312673
-0.0312268
0.0307578
-0.108455
-0.0887323
0.0357637
-0.189777
-0.0778824
0.199528
0.0622174
0.0742698
-0.0590688
-0.326275
0.0181748
0.0142054
-0.0754042
-0.194794
0.0740669
-0.0582916
-0.0578023
-0.261211
-0.141803
-0.0782581
-0.223636
-0.0525391
-0.238263
0.0176367
0.0135351
0.0109494
0.0089792
-0.182115
-1.10702e-05
-0.0813613
0.0619131
0.0116624
0.0338718
-0.148504
-0.163715
-0.0823811
-0.282326
0.0860447
-0.0455668
0.0643065
-0.0863726
-0.111173
0.0092536
-0.151657
-0.123739
-0.227258
0.171657
0.00866135
0.052076
0.0100586
-0.0728738
-0.313617
-0.122419
-0.0129703
-0.329854
-0.0421003
-0.0722789
-0.0961755
0.0441383
-0.0205958
-0.0778913
0.136222
-0.0789555
-0.0388184
-0.262731
-0.10545
-0.0856614
-0.183506
-0.051722
-0.0449649
-0.229826
-0.139875
-0.103744
0.12915
-0.11563
-0.146178
-0.122179
-0.0709417
-0.138975
-0.0203074
-0.165992
-0.202178
-0.106286
-0.264764
-0.3326
-0.048815
-0.253422
0.22292
-0.0682531
0.0791958
0.0747268
-0.043532
-0.000464905
-0.160363
0.00721497
0.111996
-0.0296079
0.0931378
0.00668607
-0.108497
-0.210405
0.0711312
-0.117047
0.114252
-0.120417
0.0235554
-0.0340199
0.057548
-0.0429946
0.019139
0.051285
0.124454
-0.00980736
-0.133475
0.220967
-0.1242
-0.104881
-0.0664952
0.101985
0.0172738
0.122622
0.0394611
-0.0875964
0.0465253
0.145759
-0.0273342
0.00917719
-0.229985
0.0278787
-0.0960506
-0.368457
-0.0308795
-0.140729
-0.00385897
0.0512017
-0.178104
-0.199031
-0.116222
-0.151661
0.00212935
-0.0115124
0.0416547
-0.100645
-0.117704
0.199612
-0.150966
-0.0833128
-0.19895
0.00474885
0.00740836
0.07369
-0.0584146
0.0797327
-0.00305317
0.0551246
-0.0189405
0.129232
0.0741421
-0.0682626
-0.095351
-0.211896
0.0893341
-0.241226
-0.0391561
-0.153042
0.0634219
0.00673116
-0.118462
-0.126917
-0.104997
-0.0862241
-0.108566
0.0428285
-0.0342469
0.161964
-0.0189355
-0.125657
-0.0206538
0.0908205
-0.114128
-0.235868
0.0219754
-0.0793114
0.0130246
-0.143342
0.0178817
0.0247192
-0.0408835
-0.0543944
-0.282162
-0.195724
-0.0715868
0.0100167
-0.123117
-0.0520697
-0.0859145
0.0697269
0.0865996
-0.142347
0.0307315
-0.0892723
0.140551
-0.0444246
-0.0256807
-0.0941012
-0.0257211
-0.000140391
-0.202754
-0.113361
-0.193029
-0.00955783
-0.0269267
-0.0456437
0.0863264
0.0455592
0.182818
-0.115977
-0.127348
0.0794021
0.0364978
-0.0315095
-0.261398
-0.0221903
0.0477759
0.023555
-0.0399388
0.195592
0.0756291
-0.164831
-0.00584588
-0.077492
-0.0805212
0.00654577
0.210323
0.124258
-0.074368
-0.295489
-0.0871284
-0.12626
-0.108816
-0.0506072
0.0264474
-0.134573
-0.101783
0.0243299
0.0664009
-0.136197
-0.216574
0.0340484
-0.083395
-0.105597
0.0655741
-0.18248
-0.0531279
0.105147
-0.0504036
0.030597
-0.146831
-0.00962396
-0.0470015
-0.0173248
0.174551
-0.147512
-0.0178183
-0.175242
-0.0171217
-0.171823
-0.104617
-0.101506
0.121488
-0.249776
-0.103897
-0.0207146
0.100931
-0.0856527
0.021654
0.0972577
0.0519309
0.214795
0.105025
-0.195177
-0.0636109
-0.0100524
0.298873
0.0193834
0.0869919
-0.129013
-0.254436
0.118007
-0.152467
-0.0495052
-0.0261817
-0.00972265
0.0302299
-0.096854
0.164852
0.070883
0.0594394
0.0194544
0.0428315
0.00229727
-0.0778323
-0.0852613
-0.10063
0.0344905
-0.0849778
0.0569625
0.0386872
-0.00672871
0.0967423
0.109322
0.0114679
0.0638633
-0.151139
0.0492791
0.104331
0.106402
0.0562509
0.0964871
-0.0734178
-0.0894615
-0.106876
0.0886507
-0.0136128
0.0811693
0.0516305
0.103128
-0.114987
0.102587
-0.0657636
-0.0666144
0.0401059
0.128334
0.161452
0.011252
0.0304011
-0.0528532
-0.0267912
-0.0182845
-0.0217351
-0.0513434
0.148907
-0.00888925
-0.0777149
-0.189272
-0.00728032
0.061095
0.00366184
0.190973
-0.176606
0.178064
0.0744115
-0.0883115
-0.0210723
0.135997
0.064765
0.162167
0.135287
0.0673844
0.0289503
-0.0322963
0.141463
-0.137964
-0.0802942
-0.0914158
-0.0285528
0.0858886
0.0366985
0.150757
0.133089
0.266994
0.082543
-0.0623315
0.125784
0.0632668
0.134015
-0.00688392
0.238124
-0.0130304
0.0806172
-0.0257912
0.176801
0.193563
0.1437
0.292634
-0.0959298
0.0252846
0.14166
0.0767566
-0.0657706
0.0119064
-0.143719
-0.114666
-0.0369086
0.0566031
0.108102
0.119122
0.262608
0.0569642
0.398626
0.118032
0.216772
-0.00758386
0.178938
0.308616
0.14086
0.0720297
0.153019
-0.181976
0.108506
0.0331065
0.0275189
0.188258
0.196147
0.121792
0.136419
0.0364998
-0.0388721
0.00392477
0.0620939
0.0073825
-0.0175111
-0.105818
0.114791
0.00163058
-0.020914
-0.154333
-0.108926
-0.012412
-0.0736262
0.128414
-0.0464496
0.0570105
0.00878887
-0.0618701
0.110689
0.0253705
0.0036934
0.00834457
0.0684063
0.125982
0.0118368
0.155154
0.0825283
-0.0775493
0.080879
0.0625955
-0.0333329
0.0129783
0.0529598
0.0276699
0.038169
0.00847455
0.1586
-0.0417
0.0648741
0.230652
0.104856
0.0466352
0.0564782
-0.126607
0.0720684
-0.0118327
-0.0745091
0.0735409
-0.0593619
0.0939933
-0.110301
0.208288
-0.00513547
0.0222491
-0.149359
-0.0250932
-0.0305656
0.146187
0.014634
-0.190979
-0.0437231
0.0342453
0.0760196
0.0235299
0.119711
-0.116694
0.347147
0.0505366
0.00753406
0.118533
-0.0114598
0.12527
-0.00750866
-0.191034
0.0313288
-0.0571331
-0.127396
0.0145253
0.052722
0.0821188
0.0415994
-0.0889556
0.0599165
0.159151
0.00384235
0.16051
-0.0111302
0.000142176
-0.00633995
-0.0430402
0.255258
0.00158807
0.193001
0.038499
0.0665234
0.151508
0.0736319
0.0759918
0.0581999
0.134824
-0.0826423
0.0179411
0.131943
0.194276
-0.0267968
0.150817
0.101041
0.0660698
-0.0177647
0.0880829
0.191662
0.0215683
0.275825
0.0059093
0.0374796
0.0960474
0.0936321
0.0662984
-0.0970906
0.126994
0.156507
0.015179
0.0299888
0.187866
0.0134183
0.0251438
0.0772042
0.158521
0.125242
0.0716227
0.199153
0.197915
0.147253
0.178299
-0.0357117
0.21096
0.0286373
0.129908
-0.133831
0.0925014
0.0199427
-0.0220652
0.231766
0.239524
0.0101249
-0.0149567
0.135062
0.0151935
-0.0344514
0.081239
0.216796
0.238734
0.174063
-0.0770155
0.121212
0.199243
-0.109359
0.0313378
0.0678016
0.0850254
0.154592
-0.010059
0.173958
-0.000675527
0.14952
-0.071583
0.135196
0.10355
0.0102495
-0.068149
0.037654
0.221613
-0.0510374
-0.0805051
0.056769
0.143524
0.117422
0.0634233
-0.0894489
0.125685
-0.0890536
0.105032
-0.0227914
-0.00606095
0.0470413
0.0959606
0.0981032
0.0321468
-0.218397
-0.00392549
-0.155109
-0.0379068
-0.0405951
-0.0315944
-0.0129364
0.151309
0.0763541
-0.0864436
0.0766065
-0.18089
0.112513
0.0511931
0.0313599
0.0551221
0.0370643
-0.100198
0.119325
0.114777
0.0790198
-0.0908998
0.0917316
0.205217
-0.100645
0.0952832
0.0343748
0.0756583
0.0412347
0.118248
0.0441679
0.112877
0.138475
-0.0553748
-0.0738791
-0.0283349
0.145824
-0.108239
0.0581453
0.0908552
-0.0011751
0.0952298
-0.0202968
0.0918757
0.0794269
-0.0155303
0.0911172
0.123194
-0.0728678
0.118831
-0.124556
0.107406
-0.0142007
-0.0207435
0.115068
0.141729
0.0197606
-0.0684579
0.064985
0.011509
-0.132835
0.0982445
0.205438
0.0445616
-0.132451
0.0849141
-0.0131084
0.0800211
-0.0376349
0.0504627
0.0790552
0.0796074
-0.0714194
-0.00343692
0.077679
-0.00312354
-0.0335752
0.183739
-0.0355595
-0.15975
0.242509
0.114796
0.0216199
0.119758
-0.10428
0.106221
0.141798
0.139788
-0.0115724
-0.0629596
0.0445492
0.0348148
0.0305078
0.157918
-0.0573586
-0.0970566
0.158825
0.0286892
0.132172
0.0741807
0.0936819
0.0498219
0.0449726
-0.0451717
0.118866
-0.141589
-0.103506
-0.00740339
0.226015
-0.0821375
-0.0920181
0.029665
-0.0577005
-0.187411
-0.0633244
-0.0255294
0.00350324
-0.0696834
0.00455489
0.191213
-0.0340254
-0.057074
0.187598
0.0460688
-0.0395553
-0.0218409
0.148307
0.156041
-0.0400135
-0.0410029
0.070682
-0.013307
0.163957
-0.0592383
0.171297
0.143707
0.0865163
0.0655872
0.186524
-0.0366214
0.169138
-0.106979
0.0789916
0.113895
0.0967933
0.0340855
0.265481
0.0484012
0.0911115
-0.00576516
-0.0297719
-0.143191
0.0277743
0.214938
0.067433
-0.0281134
0.0855424
0.131969
0.0618716
-0.0143226
-0.0252459
-0.263181
-0.0293645
0.208426
-0.042522
0.153394
-0.0194533
0.22505
-0.028245
0.0487102
-0.0150661
0.148443
0.140857
0.00288493
0.101857
0.0877814
-0.0948595
0.0398577
0.0702164
0.314337
0.13654
-0.0975208
0.0923175
-0.041235
0.09704
-0.108565
-0.0762734
-0.0617748
0.210336
0.0958755
0.0598333
0.0513529
0.0357733
0.109759
-0.0226591
0.160077
0.0221818
0.0289335
-0.0849459
0.06526
-0.0149803
-0.0734842
0.0608944
0.055438
0.179296
0.0697812
0.0357655
-0.0575374
0.0381174
-0.19045
0.0994237
-0.11046
-0.0245296
-0.197333
0.0502498
-0.0306557
-0.0580474
-0.0323152
-0.0768863
0.154731
-0.219084
0.0330429
0.00922886
-0.0812379
0.0677765
0.0818141
0.108702
-0.0486668
0.0425374
0.0808195
-0.0659355
0.0114274
-0.058911
-0.029503
0.0666747
0.264304
0.103383
-0.0346582
-0.0139404
0.0689943
-0.0703533
0.0979897
0.0779005
0.00411403
-0.0774135
-0.00287163
0.045277
0.0893899
-0.0184014
0.0586241
0.243435
-0.0690838
-0.0299863
0.124758
0.105967
-0.0145366
0.200755
0.0453063
0.118804
0.0675644
-0.0461326
-0.035509
0.0617284
-0.0473131
-0.203677
-0.0792094
0.0977232
-0.0345318
-0.0202802
0.0572827
0.158216
0.0359952
0.16799
-0.044025
0.138619
-0.0684558
0.142205
0.0882754
-0.0363844
0.0525778
0.0622903
0.0589681
0.00326618
0.0544772
0.123214
-0.0396906
0.263553
-0.0333238
-0.0177317
0.227733
-0.0908406
0.158432
-0.120475
-0.0272266
-0.0856325
-0.021073
0.0637364
-0.12502
-0.164169
-0.0109713
-0.0390813
-0.0534287
-0.135115
0.0942036
0.0464627
0.101204
0.0222565
-0.10769
0.0038189
-0.0563264
-0.0369787
-0.0443813
-0.128269
-0.0634252
-0.0576495
-0.00915924
-0.0640012
-0.0810852
-0.0715876
-0.0439696
0.071319
0.05308
0.0745191
0.168505
0.00307844
0.271773
0.233152
0.272359
0.158975
-0.131577
0.0325778
-0.00180672
-0.106056
0.144151
-0.00321968
-0.0977428
0.0649343
-0.207163
-0.0227945
0.0169895
0.128269
-0.0748642
-0.124387
0.119865
0.0479248
-0.0589767
-0.0981589
-0.179775
-0.0133122
0.189371
0.0113947
-0.108944
-0.00616412
-0.0404152
0.103404
-0.109985
-0.0370006
-0.0087405
0.114931
0.0183321
0.168519
-0.0692394
-0.0431384
0.0486933
0.0654819
0.00942736
0.129066
-0.105768
0.0286356
-0.251078
0.251955
-0.0314957
0.0257642
0.105684
0.0281841
-0.0926946
0.018471
0.0641074
0.022253
0.231821
-0.0519403
-0.0278436
-0.00474226
-0.127324
0.189545
0.0335562
-0.0380371
0.0488433
0.197939
-0.0807589
-0.0269621
0.140663
-0.120836
-0.0171097
-0.0972383
0.0670813
0.145327
0.0926488
-0.0668618
0.0306328
-0.00844348
-0.101273
-0.137707
-0.168507
0.0758828
0.121999
0.186471
0.107604
-0.0521631
0.0211864
0.103521
0.135071
-0.0353755
0.0380218
0.193286
-0.104357
-0.0195405
0.0668285
-0.0474546
0.130151
0.144223
0.011871
0.0904541
-0.108526
-0.0421448
0.0623748
0.187584
0.161088
-0.0506107
0.00109502
-0.0969588
0.00538667
0.050418
-0.048675
0.0802631
-0.0416362
0.286933
0.062121
-0.137843
-0.100029
0.0427622
-0.0207908
0.117492
0.0840033
0.0391188
0.05159
0.152115
0.0183289
-0.105957
0.101391
0.0623568
0.17428
0.075645
0.118099
0.119483
-0.043284
-0.0511606
-0.113347
0.142169
0.143525
0.148585
0.0474172
-0.159145
0.0275621
-0.13388
0.226383
-0.19571
0.0410649
0.0290079
0.151719
0.0963506
0.0320713
0.13546
0.0814881
-0.189355
0.0108185
0.0934748
-0.0303085
-0.0151177
-0.0707839
0.0364293
0.0583426
0.0517321
0.110254
0.101511
0.0488078
0.0650177
0.219551
-0.175206
0.0522113
0.0691976
-0.0171696
-0.0681487
-0.206002
-0.0641074
0.14245
0.0375771
-0.331557
0.0737062
-0.047732
0.160753
0.00748627
0.0495106
-0.0158716
0.0226746
-0.051804
-0.115277
0.0091599
0.106959
0.0209132
0.164326
0.00948933
0.00751396
0.0779922
-0.0961183
0.106474
0.0263403
0.13821
0.0210032
0.037804
0.00551937
-0.14204
0.0319054
-0.0778849
0.199497
0.0412983
0.0658185
0.0811239
0.130479
-0.116479
0.157329
0.197864
-0.187485
0.0779901
-0.00370319
-0.0838487
0.0933932
-0.184706
0.00588667
-0.0597106
0.00109613
-0.0421262
-0.0451325
-0.211307
0.142531
0.109948
-0.0813191
0.0814852
0.111284
0.104955
0.0645178
0.016961
0.0397667
-0.0777547
0.0637139
-0.0393504
0.0305545
0.0236711
0.140768
0.0738224
-0.240469
-0.00854522
-0.00802789
0.189479
-0.066888
0.117799
0.0401971
-0.0667538
0.10739
-0.0347276
0.00141834
-0.0848805
0.0136144
-0.00116811
0.0241026
0.0097233
0.121662
-0.104727
0.00159457
-0.0954863
0.155766
-0.0083344
0.121749
-0.075911
0.0603778
-0.00515261
-0.123197
-0.0489157
-0.131294
0.241749
-0.139874
0.108962
-0.153919
-0.0663995
0.0797745
0.122846
0.0171622
0.156783
-0.0182734
0.0761113
0.000203658
0.0441795
-0.0954957
0.118618
0.0402092
-0.146282
0.113513
0.0998329
-0.0653913
-0.0247638
0.108351
0.0115891
0.0327287
0.0830248
0.0263882
-0.136454
0.00154404
0.037723
-0.054063
0.122098
0.0571045
0.0465727
0.0351992
-0.0534668
0.0473164
0.192649
0.0968174
0.104736
-0.0103205
0.106828
0.143345
0.106667
-0.11897
-0.0439849
-0.083603
0.0714116
0.138957
0.0233459
-0.0453925
-0.112396
0.0990189
-0.0236397
0.187392
0.139878
-0.0911119
0.00507463
-0.146401
0.0200027
-0.14648
-0.0539835
0.153556
0.0199918
-0.0120624
0.0596217
-0.0728804
-0.0586113
-0.0109384
-0.116372
0.146525
0.0792782
-0.10988
-0.0842347
0.0918127
0.054008
0.103423
-0.00608809
-0.00990311
0.0566739
0.025094
0.156122
-0.0594268
0.0813884
-0.00134825
0.0433013
0.0770598
-0.0361841
0.118148
0.0917433
0.104208
-0.064481
-0.0398986
0.123816
0.122905
0.0292293
-0.0974105
0.127691
-0.121032
0.107886
-0.0392154
-0.00027329
0.272055
-0.000715697
-0.0252222
0.176829
-0.0730086
-0.01454
-0.0768809
0.154017
0.00377395
-0.11427
0.00946022
0.0493981
-0.0196022
0.0241846
0.110779
-0.0313979
0.0110729
-0.0082313
-0.0256033
0.065723
0.0654824
0.0207275
-0.0260344
-0.105345
-0.0213862
0.028312
-0.0366795
-0.0405966
0.0763992
-0.193937
0.136374
0.0307767
-0.0579484
0.140009
0.0502809
-0.0031425
-0.161236
0.0896594
-0.111148
0.0843459
-0.141469
-0.0746406
0.136587
-0.0284414
-0.0489491
0.0819399
-0.0772952
-0.0795464
0.177697
0.0291595
0.16895
0.0678207
-0.0424545
-0.0305934
0.175155
0.0149099
0.147093
-0.0995119
0.140601
-0.0258395
-0.0123204
-0.102449
0.0639421
-0.143533
-0.153278
0.0654839
-0.0758115
-0.061907
0.0114361
-0.0728967
0.00457912
0.003484
0.112246
0.0479663
0.0293218
0.0653085
-0.028451
0.0241433
-0.0913345
0.0992352
0.0319272
0.0507744
-0.0608588
-0.142064
0.0786662
0.0276232
0.0812705
-0.173947
0.103639
-0.118689
-0.00655736
-0.0768286
0.143352
-0.112313
-0.234448
0.0511086
-0.150519
0.11759
-0.0882032
-0.037912
0.0075814
-0.0759469
0.163207
-0.140293
-0.0646285
0.0206517
-0.0119981
-0.136574
-0.0757931
-0.10072
-0.0443861
-0.0624346
-0.153614
-0.128535
0.0643307
-0.00643253
-0.160887
0.0234783
0.179058
-0.0193219
0.00659781
-0.0195511
-0.115017
0.0179985
0.0126974
0.0247479
-0.0732
0.0599083
0.0995856
0.0772558
0.163209
0.0260313
0.0840259
-0.0570173
-0.0643178
0.0126691
-0.0160244
-0.0542518
0.0264993
-0.0651856
0.103669
0.0764136
0.0310699
0.0867143
0.207094
-0.0998664
0.0419783
-0.101198
-0.0552148
-0.0670172
-0.11447
0.0445756
-0.176983
-0.0649874
-0.044413
-0.034129
-0.0419034
-0.026791
0.102703
-0.26435
-0.0714846
0.289645
0.16585
-0.0209938
0.0353302
0.127725
0.157577
-0.0579655
0.0874343
0.0937126
0.0321177
0.0653856
0.0283811
0.161052
-0.0272993
0.00494435
-0.0146951
0.0723131
0.0498201
0.090786
-0.105115
-0.051207
0.0464887
-0.110955
-0.153098
0.0536029
0.0469046
0.0309437
-0.102009
-0.118041
-0.0156611
-0.0229165
-0.0620826
0.0137015
0.00423095
0.0761202
-0.0918367
0.0829594
-0.141564
-0.0755552
0.0969782
-0.0605763
-0.03352
0.0556877
-0.048765
-0.112015
0.102221
-0.0405095
-0.0286699
0.107117
0.0872628
0.0865015
0.0512628
0.0639404
0.141951
-0.0728225
-0.00984443
0.00270715
0.0223915
-0.134697
-0.0754122
0.0521247
-0.257246
0.0115025
-0.203908
-0.00121857
0.043806
0.0855651
-0.0484098
-0.0126446
-0.0693825
-0.00135511
0.0779807
-0.00882482
-0.0172248
0.112685
0.0382133
0.259537
0.205285
0.13092
0.215658
-0.00414189
0.11285
0.12581
0.0868368
0.00600837
-0.0631941
-0.112496
-0.108143
-0.0719687
0.164628
0.045389
0.026038
0.0464899
0.0769321
0.219595
0.1171
0.11859
0.0796106
0.0100731
-0.0220633
0.0776747
0.156074
0.159571
0.0891025
-0.0214762
0.0101187
0.10824
-0.00407279
0.0122883
0.0579846
0.190692
0.0984109
0.258056
0.124952
-0.0720559
0.00599162
-0.0818853
-0.0854888
0.0510767
0.00479412
0.0656041
0.274333
-0.0755566
-0.028971
0.155876
0.11612
-0.149191
-0.105157
-0.000253622
0.0315211
-0.106527
0.00952862
0.132633
0.0913713
0.065421
-0.0398363
0.0740066
-0.0121574
0.120644
-0.0207973
0.0664416
-0.0443608
0.158371
0.0333639
0.0513444
0.0900064
0.0338031
0.171192
0.0137477
0.0501846
0.121953
0.0585584
0.0436106
-0.101604
0.115234
0.201319
-0.167599
0.159721
0.0925793
0.0146387
0.0924472
0.0561392
0.109858
0.113461
0.147622
0.071224
-0.0569798
0.0596208
-0.114635
0.0274207
-0.0489023
-0.0680301
0.0794474
-0.0318051
0.125348
0.124707
0.130239
0.0349519
0.165568
-0.106225
0.0382901
-0.150179
0.00878452
0.00894847
0.00484973
0.0393563
-0.0327674
-0.0915464
0.0335081
-0.00557686
0.110714
0.0308522
0.217564
0.0041138
0.107113
0.132329
-0.17267
0.152564
-0.126552
-0.145291
-0.00848134
0.119604
0.176771
0.125035
0.183899
-0.00539835
0.164628
0.115841
0.074883
0.0206889
0.0901186
0.0341615
-0.0743441
0.154597
0.109267
-0.139949
0.062927
-0.16386
-0.137599
0.104386
0.144936
0.0260313
0.0279203
-0.0188282
-0.0972848
0.150615
-0.0444244
-0.0724641
0.108628
-0.0544621
0.124021
-0.0551568
-0.0711848
0.110999
-0.0653357
-0.0156289
-0.0163623
0.0768659
-0.0646788
0.112335
0.102168
0.119066
0.136039
0.0601539
0.0422427
0.124235
-0.0713614
0.0914518
0.0371248
0.0389173
0.0251357
-0.0131089
-0.0595172
0.0548174
0.0378175
0.0949726
0.123292
-0.00218517
0.000463649
0.168543
0.0396612
-0.0270162
0.0268648
-0.103209
-0.10028
-0.0668228
0.00444614
0.0351118
0.0617632
-0.0474875
0.12669
-0.0119097
0.0269731
-0.0981829
-0.216151
0.0509862
0.035525
0.155234
-0.0233554
0.136757
-0.0403468
-0.0559294
-0.0818976
0.0195575
0.0585027
0.0199348
-0.0627699
0.154109
-0.022614
0.174354
0.121777
0.0153023
-0.0905456
0.0919128
-0.0267168
0.0665685
0.0505691
0.0521246
0.101018
0.0911782
-0.00559263
0.19229
0.0615279
0.0684298
-0.086593
0.111831
0.131416
0.235491
0.0317097
0.0473907
-0.0205464
0.0401703
-0.078427
0.102827
-0.0848001
0.105671
0.138818
0.0791934
0.0870485
0.202297
0.167925
0.0110119
0.0379631
0.0298248
0.0358648
0.126817
0.157363
-0.111533
0.113249
-0.0117303
-0.0532102
0.0730256
0.0549744
-0.0880881
0.0388345
-0.0600312
0.0719261
0.105091
-0.00126468
-0.0488317
-0.19573
0.05163
-0.0329241
-0.0937123
-0.0507129
0.124095
0.126432
-0.0151738
0.0342661
-0.000871377
0.0882832
0.0126375
0.0152261
0.0705878
0.0615917
-0.0143124
0.036633
0.104482
-0.101423
-0.0646231
-0.0588051
-0.00603704
0.0281746
-0.12236
-0.0105672
0.140649
-0.0609911
0.15805
-0.034837
0.142296
0.0865642
0.025594
-0.051497
0.054705
0.0118677
0.0945478
0.188891
0.022155
0.112652
0.133708
0.0534529
-0.159701
0.124819
0.0704689
0.169658
0.071454
0.0290393
0.210125
-0.00918369
-0.0168819
0.0936593
-0.0728627
-0.0594145
-0.158496
0.0234083
0.0558001
-0.0937997
-0.109073
0.121859
0.0370273
-0.0310783
0.107713
0.000579662
0.108814
0.0115379
0.0482528
-0.145187
0.0117825
0.0723441
0.119441
0.153886
0.0784134
-0.0172821
0.0531083
0.00555073
-0.055872
-0.0235088
-0.0885455
0.00371275
0.0179568
0.0503632
0.0638656
0.0787089
0.0948251
0.169317
-0.160718
0.0366305
0.10852
0.0663665
-0.108269
0.027988
0.0929873
-0.0387537
0.212245
0.0970747
0.0248057
0.0822238
0.0889131
0.122241
-0.166772
-0.0346709
0.00139139
-0.0357742
0.0778613
0.00471555
-0.121256
-0.0936493
-0.153704
0.0124117
0.195249
0.0740561
-0.0959592
0.0713083
-0.18219
-0.00257606
0.0612009
-0.10957
0.163055
-0.0644153
-0.023604
0.0706549
0.0853589
0.0420026
-0.0644919
0.169164
0.0154584
0.0524845
0.0168112
-0.23509
0.212367
-0.023266
-0.256345
-0.264317
-0.0892321
-0.283578
-0.223701
-0.373914
-0.274373
-0.319454
-0.352514
-0.371296
-0.206746
-0.105846
-0.0948093
-0.0186025
0.185378
0.17371
0.018791
0.282447
0.223873
0.0219067
0.204124
0.100189
0.179936
0.166741
0.00464104
0.25082
0.129766
0.0600316
0.0232657
0.141209
-0.109841
0.0433507
0.19629
-0.0552499
-0.0438105
-0.0395819
0.112138
0.256234
0.182601
0.116544
0.0627946
0.137361
0.122754
0.0882367
0.0465061
-0.0118393
0.0864077
-0.0189698
-0.0433546
0.065265
-0.0574354
0.0219014
-0.00319838
-0.0337599
0.0520894
0.223748
0.0676106
0.140003
0.184327
0.0649622
-0.069632
-0.0480883
0.114429
-0.116255
0.00709472
-0.334356
0.0490408
0.0610238
0.157274
0.166017
0.0470944
0.0322783
0.266496
-0.216647
-0.173834
0.0648331
0.0135523
-0.015812
0.0203471
-0.102266
0.0779226
-0.224598
0.0383281
-0.0137307
-0.119331
-0.0825201
0.152615
0.0810962
0.0129967
-0.0118813
-0.0968759
-0.0770969
-0.137786
-0.0908144
-0.11817
-0.0568651
-0.0665422
-0.0462147
-0.194217
0.0730533
-0.0232383
0.0195646
0.0197202
-0.0484134
0.252689
0.0947499
-0.223349
-0.0251762
-0.0823213
0.019825
-0.160832
0.147301
0.298228
-0.045304
0.0842874
0.125291
-0.0631887
-0.0746107
0.13067
0.0998854
-0.0476038
0.0499369
-0.194113
0.133293
-0.154674
-0.0920003
-0.259832
0.0337987
0.00801377
0.0206733
0.0339007
0.113197
0.0481408
0.0825096
0.130942
-0.053404
-0.074343
-0.025666
-0.0875138
0.158842
-0.196438
-0.0103516
0.0501709
-0.0329314
-0.042043
0.00989001
-0.0170689
0.0590401
0.0702386
0.0113848
-0.115399
0.287319
0.15307
0.103579
-0.0713375
-0.131525
0.000120672
-0.135483
-0.00381281
-0.110272
0.0140656
0.215979
-0.168529
0.0482836
0.120269
0.136169
-0.0459614
0.0725581
0.0434047
-0.0109265
-0.0381409
0.150932
-0.145552
-0.0895166
-0.145511
-0.0798387
0.0670756
0.0191973
0.059093
-0.0745593
0.0499936
0.0784605
0.249029
-0.0951734
-0.185922
0.115294
0.0669684
0.0280059
-0.225782
-0.115031
0.0605807
-0.0382511
-0.108446
-0.0657851
0.223897
-0.00455784
-0.114808
0.0302734
0.014883
-0.0616121
-0.0324567
0.022636
-0.0192519
-0.236702
-0.113773
-0.099052
0.281496
-0.0795428
-0.0877079
-0.0732616
0.058724
0.120631
0.0378684
0.0731756
0.000422901
0.187902
-0.0169843
0.0634741
-0.0795158
0.0134096
-0.0467705
0.0175598
-0.0430265
0.185531
0.195167
-0.0582711
-0.025743
0.145338
-0.11441
0.0314961
-0.263893
0.0701455
-0.207537
-0.0677531
0.0599886
0.0722175
-0.0920381
-0.0804749
0.201847
0.0503608
0.162456
0.01525
0.0874958
-0.08122
0.16114
0.12606
-0.127441
-0.0533524
-0.146673
0.0659422
0.101487
-0.0292648
-0.0306876
-0.205137
-0.0405139
-0.0785553
0.0624146
-0.0122847
0.0772691
0.110456
-0.0156737
-0.104597
-0.0223543
0.12145
0.0869194
0.248449
-0.00210202
0.0707312
0.00591116
-0.174456
0.201896
-0.0836193
-0.152875
-0.0231495
-0.0367251
-0.0620063
0.118476
-0.237443
0.216887
-0.0748196
0.237197
-0.0708831
-0.0338977
-0.0492562
-0.0971535
-0.0719209
0.0675877
0.132317
0.0952818
-0.0110383
-0.0243098
0.126433
-0.00163119
0.238686
-0.0686106
0.0885698
0.105588
0.155873
-0.0884651
-0.023283
-0.140859
0.0683492
0.0188199
0.0509856
0.0407233
-0.0663692
-0.120026
0.082746
-0.166995
0.0883534
0.0904932
0.176653
0.119225
0.210646
0.125313
-0.0669304
-0.0835471
-0.0791626
0.00347538
-0.00148116
0.119611
0.12057
0.0165057
0.053688
0.0212925
-0.00130256
-0.0439166
0.138713
-0.0588794
0.0330292
-0.245238
0.0483963
-0.121857
-0.20365
-0.148209
0.18845
0.109355
-0.250045
0.207033
0.0476638
-0.00639076
0.0792672
0.0888862
0.098492
0.050272
0.168624
-0.134619
0.0129934
-0.112648
-0.0340923
0.196371
-0.0221947
-0.0941257
0.150911
0.107501
0.102463
0.105673
-0.0662866
0.0502163
0.0765935
0.0496653
0.265418
-0.018429
-0.093026
-0.157017
-0.108326
0.118934
-0.079808
0.00600393
-0.0763049
0.32781
0.073454
0.105224
-0.0357516
0.324818
0.0173765
0.179967
0.0444032
0.0965923
0.0443152
-0.0512064
-0.175045
-0.0400725
-0.0561883
0.066367
0.026094
0.142603
-0.0379601
0.0786441
-0.0400762
-0.0325066
0.0277888
0.00828456
0.0280257
0.0356521
0.134419
-0.191633
-0.0778469
-0.009813
-0.014471
0.140381
0.0840001
-0.109001
0.00275838
0.17362
0.065612
0.274007
0.142821
-0.106792
0.00392149
0.0318393
-0.0288707
-0.0317745
-0.195138
0.0215212
-0.0199718
-0.102339
-0.076137
0.0494255
0.132738
0.0761575
0.191595
0.136636
0.0767356
0.0862835
0.0283431
-0.244073
-0.0775989
-0.206118
-0.166559
-0.189118
0.114898
0.100543
-0.0756533
0.0637128
0.0947394
0.0448808
0.145548
0.149865
0.126613
0.027374
0.0748742
-0.0380847
0.124126
-0.0581365
-0.118906
0.013358
-0.196206
0.171561
0.148805
0.084635
0.0591817
0.0459167
-0.169522
-0.0838164
0.219134
0.0407908
-0.0626276
0.0190894
0.017684
-0.308911
-0.120648
0.0510967
-0.135136
-0.0442612
0.112819
-0.0640702
0.171606
0.0534219
0.0678049
0.0946739
-0.103063
-0.0545732
0.119782
-0.0398703
-0.102124
-0.368064
0.00639365
0.00987481
0.0635072
-0.038557
0.11753
0.0258906
-0.0971054
0.0480836
0.238258
-0.00407173
0.131269
0.431483
0.151583
-0.0697772
0.136598
0.0528376
-0.79994
-0.244742
-0.306258
-0.155013
-0.345661
-0.0925998
-0.0323167
-0.124964
-0.160592
-0.025539
-0.0983713
-0.13765
-0.184419
-0.293173
-0.173989
-0.333442
0.0674808
0.0169799
0.00611734
0.0362407
0.0846559
0.0389672
-0.0137238
0.0835462
0.022845
0.0717957
-0.0399582
-0.0393785
-0.106989
-0.0178282
0.203788
-0.0103011
-0.111359
-0.0590456
0.0978591
-0.0138747
-0.0636513
-0.0349007
0.00649477
-0.106462
0.0155036
-0.136104
-0.0458955
-0.0342099
0.102689
-0.0447551
-0.139596
0.0474206
-0.0763784
-0.108391
0.0996845
-0.0887058
-0.00853301
0.130875
0.0693942
0.159291
0.0159615
0.056977
-0.0733822
0.116953
0.109393
0.0142911
-0.0205864
-0.0982278
-0.144636
0.0701146
0.00120411
0.0809926
-0.0842133
0.11779
0.161001
0.123208
0.0195143
-0.0156394
0.233233
0.044725
0.0367517
-0.0734908
0.120226
0.169516
-0.152411
-0.0883616
0.13475
0.173115
-0.13757
-0.00556136
0.114809
-0.175007
0.128849
0.0169648
0.0553748
-0.00366789
0.0951299
-0.0502926
-0.16181
-0.136643
0.0360412
-0.036862
-0.0570842
-0.0161418
-0.0274109
0.105541
0.0205074
-0.126459
0.04651
-0.191236
0.0254883
-0.0812516
-0.0339254
0.103973
-0.0434689
-0.188329
-0.0838049
0.100005
-0.156941
-0.0498559
0.0203818
-0.0776118
-0.0196125
-0.0683057
-0.015265
-0.147786
-0.152482
-0.0770629
-0.166399
-0.163088
0.0282511
-0.113617
-0.0962554
0.165277
-0.161492
-0.0175213
0.0648264
0.0396143
0.11894
0.0557111
-0.118101
-0.11496
-0.126594
0.164272
-0.124041
0.0665701
-0.0949464
-0.142363
-0.0850248
0.00807587
0.052435
0.0287068
0.0314716
-0.077802
-0.107995
0.0429515
-0.0833962
0.18465
0.144606
-0.0313576
-0.0837666
-0.213482
-0.0909062
0.0425906
-0.160476
0.222392
0.110276
-0.053655
-0.00555206
-0.0973573
0.157678
-0.178089
0.0693387
0.076262
0.0924145
0.266966
0.176777
0.0465595
0.129141
0.0303197
0.158307
-0.169075
-0.124492
-0.0899278
-0.055895
-0.081323
0.0955682
0.0331391
-0.135344
-0.20545
-0.041726
-0.071589
-0.0355701
0.00548158
0.135007
-0.0427842
-0.0563894
-0.106605
-0.115921
0.0524043
0.0362848
-0.0251915
-0.161757
-0.0477531
0.114258
-0.119755
0.00200975
0.0282328
-0.201575
0.000119477
-0.087079
-0.084839
-0.172187
-0.138199
0.108683
0.0120372
0.0414815
-0.113837
-0.151536
-0.0139371
-0.16188
0.00943807
-0.236924
-0.0061402
